,0,1,2,3,4,5,6,7,8,9,10,11,12,13,14,15,16,17,18,19,20,21,22,23,24,25,26,27,28,29,30,31,32,33,34,35,36,37,38,39,40,41,42,43,44,45,46,47,48,49,50,51,52,53,54,55,56,57,58,59,60,61,62,63,64,65,66,67,68,69,70,71,72,73,74,75,76,77,78,79,80,81,82,83,84,85,86,87,88,89,90,91,92,93,94,95,96,97,98,99,100,101,102,103,104,105,106,107,108,109,110,111,112,113,114,115,116,117,118,119,120,121,122,123,124,125,126,127,128,129,130,131,132,133,134,135,136,137,138,139,140,141,142,143,144,145,146,147,148,149,150,151,152,153,154,155,156,157,158,159,160,161,162,163,164,165,166,167,168,169,170,171,172,173,174,175,176,177,178,179,180,181,182,183,184,185,186,187,188,189,190,191,192,193,194,195,196,197,198,199
D_104,0.14082853,-0.4157044,-0.9873537,1.1126535,1.1435573,-0.3835088,0.7207309,-0.1140174,-0.61063886,0.9318963,1.5288202,-1.1263019,-0.82331467,0.2799206,1.5579206,2.3064086,-1.2991467,0.39557588,-0.7045333,-0.50918084,0.9873264,-1.7329936,0.6900258,-0.46285474,-0.6614699,-1.062673,0.9412723,-0.8430609,0.24201111,0.35508406,1.7735734,0.68938005,0.45439908,-0.31161046,0.47744155,-0.91283995,0.3998941,-1.2867559,0.67489207,-2.3837783,-0.5200283,-1.6777896,0.72457194,-0.82371265,-0.1852195,-0.6127011,-0.15892975,0.08571032,-0.1084734,-0.19165383,-0.51705253,1.6120464,-1.1523925,-0.83534956,0.004285592,-0.79309005,-1.4080832,0.584841,-1.9353584,2.3303256,0.4583972,0.040502474,-1.0468178,-0.65294915,0.54022306,0.3555968,-1.912418,0.43896502,2.4372332,0.11238766,-1.6036351,-0.2662713,-1.2185167,0.29690054,1.8160325,0.040874712,1.3398631,0.7935533,-0.32061365,1.5122553,0.85151327,-0.6570176,0.0868418,0.63275874,0.21990052,0.5649951,-1.1240083,-0.23772493,-0.91027987,-0.99146485,-1.8226304,1.0164095,-0.4863013,-0.2716097,1.0885038,-0.04202412,-1.5226214,-0.95458704,0.44675013,-1.5815026,2.2321596,0.13687237,-0.3014187,-0.62018186,0.5961812,1.1015351,0.83774877,0.10602938,1.0897213,0.23618633,-0.16428354,1.1025047,0.63631463,0.7279332,0.4366572,-0.5507512,1.6724564,1.2986504,-0.6579182,-2.132674,-1.7012657,0.3851179,-1.2792562,0.7359223,-0.035417356,-0.7828762,0.8634098,-0.35001853,-0.54817843,-1.2254275,-0.10120083,2.205586,-0.1834843,0.24403445,0.09938649,-0.038254265,-0.99666286,-0.96022314,2.3255625,0.44511417,0.37929735,-0.46023893,-1.6799217,0.05741471,0.18527344,-0.43171886,2.8434508,-0.9666787,0.19482695,0.03348152,-1.5369449,1.779321,0.16969515,0.29820794,-1.2834725,0.35492077,-2.0671227,-1.3022299,1.3752892,-0.5936517,-1.8339736,-0.9603797,1.7402849,-1.720855,-2.225826,0.7644303,-0.98330414,-1.1620967,-0.02742141,0.1714072,-0.672138,-0.3686982,-1.2095498,-0.9192202,-0.22076964,-0.6827136,0.033383146,-1.9644047,-0.22427048,-2.3457906,-0.5877811,0.8943842,0.69851655,-0.3880963,-0.27155036,-0.27009332,1.0870777,-0.9867181,-0.8729123,1.1903187,-0.17292623,0.545172,0.19093966,-1.1582432,0.7870592,-1.0318093,1.0100883,-3.0751007,-0.16155778,-0.20871456
D_55,0.7892243,0.11286852,0.49273208,-1.1070803,-1.263872,-0.050580103,0.38791326,-1.2762126,-0.52118844,-1.782949,0.66488135,0.19867358,0.33760253,1.0392506,0.40967777,-0.85728073,-0.273479,0.36995527,-0.66038924,0.033511408,-0.3363102,0.41247582,0.0047572902,-1.6537851,0.48680916,-0.8052375,0.018757723,1.1049814,-0.63905466,-0.0013173324,-0.15234888,0.26059029,0.419686,0.5802507,-1.1078357,-0.8947487,-0.12789287,-0.24604754,-0.07414088,-0.101815045,0.023837127,0.29106984,-0.014967023,0.4073517,-0.6726526,0.50971174,0.17482413,-0.28239772,0.07333931,-0.31367546,0.16864161,0.8058636,-0.1273956,0.15998739,0.30304572,-0.49025118,-0.55614287,-1.4878539,-0.7609635,1.1531211,-0.36589468,-0.028428735,-0.5014927,0.21962954,0.28437936,-0.6094429,-0.8334185,-0.9549525,-0.23491931,-0.10429308,0.6298951,-0.22865371,-0.73579705,0.4757347,-0.13712056,-0.03535716,0.22326536,0.5982003,-0.21386193,-0.07002747,0.5318179,1.0182577,-1.0038567,-0.16608448,-0.07741317,-0.81569225,-0.8816302,0.61754435,0.05924843,0.11678359,0.93443996,-0.21273445,0.601139,-0.18411215,-0.7759491,-0.1343341,0.16079375,0.007706747,-0.24967256,-0.07935806,0.33775905,0.35281852,-0.31901377,-0.8080468,-0.2375784,-0.20007734,-0.5496032,0.20062225,0.60352796,0.06050697,-0.16855039,-0.9824045,1.4172612,0.4331509,-0.6521645,-0.0116583705,-0.18986624,0.26338622,0.14372605,-0.38617215,-0.64611477,1.031309,0.32014367,0.6361081,-0.47731856,0.5601667,-0.15297508,-0.26285017,0.51943797,-0.5182056,0.24155776,-0.08667667,-0.372124,-0.20231484,0.2567235,-0.5930205,-0.828948,-0.58072114,-0.32748556,0.59040606,-0.3126323,0.060327142,-0.12508118,-0.040303256,-0.011024347,0.25106114,0.7833414,0.084215514,0.667569,0.16572288,0.59156024,-0.58785516,-1.0020837,-0.6306507,1.0113171,0.049069185,-1.2048806,0.04142525,1.2126423,0.11220461,-0.648557,0.73861384,1.4758259,0.20449032,-0.1302881,0.17802972,-1.1440086,-0.8279732,0.45271885,0.0734499,0.34618077,0.24889432,-0.7063747,-0.042695582,-0.75036144,-0.43644977,-1.1843269,0.236063,-0.6803885,0.3265366,-0.15007626,0.8501588,-0.66307294,0.8946775,-0.5760907,-0.8318693,-0.8826326,-0.57496756,0.2538633,0.44421437,0.078331605,-1.042904,0.877368,-0.069835015,0.22223589,-0.14050184,-0.9352223,-0.2316517,-0.46060374,-0.12670629
CONGRESS_74,0.45209646,0.76427567,0.8786497,-0.26503173,-0.6006798,-1.6007428,-1.5689012,-1.132272,-1.2981731,0.6584609,-0.24019857,-0.73030335,-0.114647016,0.63016456,-0.6766694,0.042469695,-0.66024745,1.4597398,-0.5827385,-0.3158722,0.040659953,2.7542331,-0.73366857,0.025907548,0.41085184,0.3684797,-0.6083035,-2.1950183,0.3823136,-0.029224817,0.9734423,-0.54691756,0.9463045,2.1666615,1.4652051,1.3010719,-0.7555795,-1.1507471,-0.16816792,2.8493295,-0.96039236,0.6965229,0.6270827,0.24360365,1.1671562,1.3173509,-0.05888615,-0.6090174,1.2362905,-1.8987564,0.7636912,0.81049836,0.22993661,0.020246545,-0.09992924,0.8218921,0.2786453,0.08508997,-0.28493962,1.2391655,-0.06799043,0.27754432,-2.363986,-0.7545889,0.4003466,-0.22516373,0.47359192,0.34999067,-0.009168005,-1.1133527,0.70623285,0.61489207,0.22949855,0.008208317,-0.1402752,-2.2205937,0.09322372,1.4440625,-0.35471702,-0.831036,1.4389945,0.2042076,-0.004493137,-0.8850651,-1.5699701,-0.30752206,-0.8475308,0.94756746,0.8984532,0.4379673,0.9041479,-1.0068809,2.399682,0.7417368,-0.60628843,-0.8393341,0.088572435,1.2854797,0.291102,0.010468917,-0.06400633,-1.7877238,-1.6785913,0.3270734,0.6244335,-0.45463502,-0.25345716,1.259618,-1.0563571,1.0918822,-0.09574416,1.1301867,0.096826784,0.43798947,-0.97727615,-1.0511267,-1.6586864,1.0525414,-0.94821066,-0.0389438,-0.7620003,-1.2060965,-0.28072703,0.27231884,-1.6981603,0.5912472,1.1648343,-0.2895113,0.8862978,-0.964796,-0.6787228,2.273901,-0.69567007,-0.28090915,-0.5229108,-0.30645564,-1.002894,-2.1977518,2.023719,-0.40063798,1.1124086,-0.58581126,-0.18981992,-0.038869582,-0.7666142,1.0250157,-0.31271473,-0.7510055,0.81711966,-1.0677613,0.24280262,0.29476076,1.1537191,-1.8552653,-0.11363382,0.39661413,-1.7947911,-0.35502484,1.0262271,1.0725988,-0.71795946,-0.76077175,2.214003,-1.80011,0.3897258,-0.17808169,0.4076348,-1.9961876,-0.1371528,-0.481888,-0.694979,1.2982583,-0.8622256,-1.0723941,0.78943557,0.80138934,-1.4849943,-0.41703925,1.160309,0.22044623,-0.24347685,-0.65834826,-2.1774962,-0.2717091,-0.04073714,0.44762513,-0.749478,-0.6759221,-0.11184866,-0.6887295,0.31135747,-1.885922,2.331586,0.5681651,1.5302097,-2.737085,-1.3583189,-0.16570382,0.0737368,0.7211101
CONGRESS_95,0.5947248,-0.90906745,1.049894,0.25276557,-2.3112679,0.7241794,0.973517,0.67825466,0.8645398,-0.55413496,0.86276174,-0.17941903,-0.2570507,-0.2698321,0.6574422,-0.24175212,-0.38380164,0.6306135,0.47790027,-0.7603882,-1.5684855,-0.08266299,0.36874333,1.0257533,0.3164284,-0.1859655,-0.25915784,1.960404,0.07000661,-0.18882667,0.6141558,-1.1210742,1.0789552,-2.0510316,0.90699077,0.6325739,0.23249859,-0.8995385,1.1647196,0.44555262,-1.446291,0.5275524,0.6250104,-0.28157157,-0.67865527,-0.16798374,-0.64622813,-0.92805195,-0.6554678,0.21375725,1.5185549,-2.2877579,-0.1689213,0.07392258,-1.4412631,-1.6145055,-1.2306019,0.02224947,-0.38034356,0.3905792,-0.8113779,0.6993763,2.2318742,-0.8255452,0.71621245,0.19803302,-1.5163783,0.5670771,1.4817653,0.19400768,-0.5869193,-1.141049,2.4258256,-1.8416951,-0.12499701,1.6091243,-0.114913784,0.18472186,1.9956657,-0.6325435,-0.33526006,-1.6075163,0.48162398,1.0598102,0.6415666,-1.2558954,0.74645394,0.15412425,0.942461,1.6943601,0.35624787,0.8410618,0.90031093,0.0017778709,1.0677724,-0.20041776,-0.78446233,-0.016875152,1.0414385,-0.06161812,-1.1697383,-0.97554713,-0.18904641,1.9141062,-1.3913264,1.1484545,-0.30974722,-0.69494414,-0.76302683,1.0849653,-0.632192,-0.83579516,-0.08959339,0.41603982,0.440286,-0.84409666,0.7429439,1.0530256,-0.38510266,0.8259747,0.5528932,-1.121695,-2.0159614,-0.11883212,0.7577875,-0.2862907,0.24435449,-0.37099156,0.37672263,0.42605743,-0.5005735,0.62938356,-0.3470936,-0.6156691,-0.22913818,0.269559,-1.2003365,1.0645326,1.105596,0.6599472,-0.34752828,-1.0737429,1.4545414,0.6478,0.49491844,0.40253347,0.8598366,-0.39097226,-0.58266354,0.28869462,1.6439015,-0.42853758,0.875982,0.21341664,-1.7617836,1.3201367,0.257559,-1.1834793,-0.18994029,0.57892895,-0.38247824,-1.1383802,-0.5143882,-0.06103768,1.2919596,0.41959354,-0.17253996,0.72762036,-0.32408494,-0.13432242,-1.0402868,-1.5021465,0.643525,-0.26887694,-1.177199,0.91566265,-0.88843375,-0.47061768,-0.5991428,-1.117885,0.91821533,-1.4716977,0.32415575,-0.8918601,-0.066966765,-0.7807322,-0.51773286,1.027508,0.10360106,-0.3457267,0.27167758,0.6801034,0.09823555,0.58907306,-0.8640914,-1.769856,-0.48564914,-0.22369026,-0.52528304,-1.0686159
R_93,1.3332864,0.41216952,0.9354666,0.7324727,-0.741123,-0.61274344,-0.65052056,0.7138784,0.63636345,0.14780055,-0.44976708,-0.5732894,-1.4783247,0.2537151,0.6698283,-0.7253912,-0.010245646,1.4026238,0.40614474,-0.7152048,-1.1732941,-0.26048058,-0.9426046,-0.33247662,1.5375539,-0.590609,-0.30760068,1.5865513,-0.7858594,-0.048686866,1.4270505,0.026231097,0.16166185,-0.2309637,-0.7953935,0.67950803,-1.4680407,-0.19737184,-0.18429121,0.2519987,0.7395286,1.3899688,-0.67823917,-0.85371846,-1.1410487,-0.07348005,-0.87825656,-0.9415441,-1.461262,1.0698969,0.87961316,-1.384919,0.14042914,-0.34429294,0.30218992,-0.101366736,-1.2522081,-0.26195732,0.7197849,0.1247018,-0.24052963,0.6379875,0.29493883,-0.3797267,0.5620915,1.6445094,0.73578614,-0.39550722,-0.009499467,0.21523783,0.26471522,-1.6680956,-0.9509167,-0.7747409,-0.7303347,-0.4107637,-0.6204793,-0.9488005,0.1754965,1.2275444,-0.31080392,1.4160701,1.2265805,-0.16837195,-0.18889824,-1.4612561,0.23749329,0.14188243,-0.59537584,1.785522,0.34363636,0.54562706,-0.15598729,0.3044988,-0.41357234,-1.9802392,0.12859002,1.1604792,0.2975256,1.0169955,0.5572505,-0.37801355,-0.8017523,2.3787947,-0.7842793,0.13597387,0.23809212,-0.8055003,-0.09034719,-0.21564682,1.789711,0.23215248,0.80070984,1.3749479,-0.37991285,-0.2292248,0.05183022,0.098202676,0.7507563,0.05350631,0.5720741,-0.5854416,0.14683437,0.14195083,0.8171785,1.3180431,-2.0648725,-1.0922413,0.27822572,-0.454186,-0.6844888,0.08831764,-0.19767123,-1.4104873,-2.1158545,0.073407926,-0.5443699,0.20426323,0.93449026,0.62651885,0.35550922,0.2367249,0.31445265,0.20727621,-0.015121806,1.2539077,-0.27586645,-0.090904325,0.095634945,-0.6147564,-0.16371408,-1.3116432,0.82207555,0.689053,-0.6912509,-0.34372362,1.8870289,-0.4823181,0.18010153,0.6254794,-0.9616,0.9559709,-0.12087471,-0.55866754,1.1339874,-0.54043645,0.6121989,0.8253741,-0.38039246,0.61154485,0.66908455,0.014757234,0.9626821,-0.7273559,-0.18615197,0.71768576,-0.98850024,-0.5655434,-0.3280175,-0.27402452,0.09164093,0.27188286,-0.08579663,-0.24734494,0.71428835,0.7310028,-0.88385123,-1.0817957,0.5540983,0.1952148,0.13578306,0.3271124,-0.63312984,-1.0912267,-1.1248469,-1.2486445,-1.1009179,-0.08812625,-0.6381189,-0.08696964
D_105,-0.7253539,-0.82300806,0.74619037,-0.06801767,1.3784819,-0.028040223,0.6577658,-0.24370442,0.28315756,1.7506244,1.3092693,-0.9847087,0.038973972,-0.2810905,1.0343649,0.4635435,-1.3826637,0.064667545,-1.5745491,0.07331845,-0.94738907,1.0989546,0.36191106,-0.1016054,0.52173114,-0.28203145,0.41752335,-1.7045587,-1.2671591,-0.43001914,1.3027354,-0.33267003,0.22289367,-1.0761354,0.09961737,-1.5568174,0.19875683,-1.7082181,0.38168114,-0.5090221,0.07827216,-0.045377232,-0.39531612,0.25806904,1.0788349,0.5045802,-0.18279064,-0.30580965,1.2304202,1.5834807,-0.6624406,0.095165044,-1.2652676,-0.6316466,0.8687909,-1.0663118,-1.5980097,0.6205638,-1.0157444,2.2935636,0.101046585,1.0058067,-1.4931556,-0.36099482,-0.24632697,1.5221621,-1.8279493,-0.30037946,1.7148533,0.059440315,-1.387229,-1.0974852,-1.1917368,0.24082343,1.4042101,1.0821573,0.4146649,0.5794172,1.3110533,-0.58088005,0.057168573,-0.19973661,0.07128771,1.1218431,0.23811588,0.013650282,-0.9115216,-0.2669583,-0.37842712,-0.6067687,-1.6502153,1.4667892,-0.8518613,0.60519135,1.219735,-0.151576,-1.4927547,0.42797288,-0.762256,-1.9144943,1.9420732,-0.25039095,0.39929783,-0.5623064,0.009566807,1.497814,0.3132093,0.45566824,-0.1278839,0.026757464,-0.9537816,0.5295459,0.84756464,0.47245905,1.4603478,-0.14969996,1.9665384,0.8550928,-0.72948486,-1.2971879,-1.3237795,1.0209239,-1.4566376,1.436375,-1.0764865,-1.7261647,-0.5225292,-1.0469363,-0.22343789,-1.07691,0.03321081,0.072256595,-0.3588225,-0.29661193,2.0351038,0.31473485,-2.2092993,0.103686556,1.675817,1.8695084,-1.21947,-0.5372027,-1.2709374,-0.020495253,0.066900514,0.0026543464,2.1032524,-0.77308017,1.5627626,-0.023526765,-2.077793,1.2488698,-0.34273118,0.6275718,-0.45272714,0.13069108,-1.1647575,-0.6072454,-0.267182,0.33218396,-0.69398737,1.4953097,1.0315948,-0.37897664,-1.2820584,-1.0647233,0.45027718,-0.9279905,0.77245796,-0.11915801,0.087631434,0.923593,-0.5636387,-0.059342943,0.668795,-0.26360348,0.59527725,-0.8851001,0.6362076,-1.0642234,-0.22456844,0.17411622,0.93300444,-0.32233194,0.16404264,0.16664825,0.46546385,0.057793967,-0.5644802,-0.1985043,-1.1157892,0.52367043,0.008569781,-0.24825062,-0.18754372,-0.13963436,1.99446,-0.61463547,0.45554173,0.082421206
R_46,-0.29081345,-0.19523314,0.21718453,-0.03180693,0.6610418,-0.4459244,-0.4777154,0.35080317,-0.26674262,0.81117463,-0.547753,0.69639564,0.36271027,-0.9045293,0.4353239,-0.417142,-0.12145558,0.5079351,-0.029394979,0.24637443,0.20481159,-0.40957177,-0.62741375,-0.44925165,1.2694288,-0.67762136,-0.5523581,-0.9856913,0.10286267,0.5627678,0.432025,0.47551575,0.3702064,0.10923623,0.3181502,-0.21713935,-1.0036291,-1.2099173,-0.11275916,0.73072624,1.2201798,-0.40379742,-0.44013426,-0.31970403,0.3148629,-0.58392495,-0.32005364,0.4487252,-0.52633065,0.22868872,0.19511345,0.096438445,0.5081217,-0.20902327,0.7022431,-0.43513417,-0.086303756,0.7477102,-0.14560954,1.3804804,-0.074331865,0.051560063,-0.12363329,-0.2905672,-0.20929159,0.36195135,0.10386053,0.066447586,0.32587135,-0.69378644,0.874708,-1.3295641,0.59919244,0.8269269,0.169265,-0.42686093,0.10606901,0.13890669,-0.13501774,0.21448985,-0.23608401,0.8294269,0.45439592,0.40898028,-0.34070536,-0.96953064,0.04847347,0.14132808,-0.74199647,-0.6090734,-0.37025064,0.4060443,0.288718,-0.27112588,-0.68029225,0.40531465,-1.0044239,1.008023,0.543686,0.35573196,0.7961727,-0.5356811,0.11749398,0.011875501,-0.15675373,0.70124805,1.3928239,-0.4537493,0.024527404,-0.07434048,-0.25877333,0.935541,0.5068431,0.19381377,-0.37729347,-1.2633561,1.1029918,0.3148279,0.23964909,-0.205041,1.0583642,-0.68905824,-0.1747564,1.2513444,0.9242148,0.66923916,-0.1393744,0.555433,0.15654975,0.12961099,-0.79304576,0.2976298,-0.39248845,0.01915089,0.32781816,-0.16627926,-0.63180065,-0.2394322,0.50794977,0.4470828,0.10481081,0.32955107,0.54518616,-0.93152446,0.7594972,-0.16489413,-0.31220463,0.1084446,-0.03234774,-0.40937522,-0.2916678,-0.039158005,0.15749478,-0.07592945,0.7756718,0.0352599,0.34369066,0.091324724,0.13090171,-0.37136716,-0.15901642,-0.3726984,0.16568972,-1.0523794,-0.16417687,-0.067477934,0.5022267,-0.66281843,-0.02193735,0.8019383,0.5276315,-0.70874494,0.52779365,0.46056134,-0.15542877,1.156296,-0.4012328,0.7448609,0.4307801,-0.63993424,-0.44527787,0.6879766,-0.47547388,-0.042255383,0.91759187,-0.4455679,-0.42339212,-0.11311769,-0.45608535,0.45221466,-0.08262896,0.26589757,0.92597914,-0.7571356,0.3315461,-0.96120876,-1.0061872,0.0046612197,-0.11151083,-0.0753235
CONGRESS_77,-1.1936284,1.3474389,0.9143877,0.7971863,0.62077475,1.4470592,-0.74099123,-0.89390475,0.8011275,-0.5590049,0.20653057,0.40307656,0.0015363073,-0.08970712,-0.3572741,0.07241321,0.3696195,0.977706,-0.37674952,-1.969161,0.10397591,0.93656,0.7920705,-0.8187335,-0.32323098,-0.5059247,-1.1863074,-0.09488324,-0.3892162,-0.6064351,1.3649272,0.6308768,1.6635239,1.3562423,-0.2566847,-0.012642771,-0.39814442,-0.02239312,-2.6162841,1.1165774,-0.006538876,0.3757721,2.1735735,1.7444862,1.2663283,1.2432475,0.8130582,-0.3071402,1.2479007,1.1967995,-0.5100118,-0.13248798,0.46035886,-0.30126956,-0.25067946,-0.7913787,1.6776204,0.4779976,0.9648902,-0.04071817,-0.13943736,0.523158,-1.8699611,-0.029522894,0.33682764,0.42246762,-0.743375,-1.0941539,-0.7703702,-1.1342338,0.47424814,0.88963914,-0.17663458,0.065887295,-0.8132022,-0.930356,-0.36788854,0.23656856,-0.73307556,-0.8397045,0.65587324,1.4827039,-0.3491572,0.20293443,-1.0309502,-1.9278774,0.29980165,-0.5891846,0.6573148,0.5854946,-0.014868979,-0.29748422,1.2883364,0.9581715,-1.1742129,-1.7945455,-0.014900983,1.7757864,0.3634329,1.1177566,0.20234214,-0.3283839,-0.26824245,0.9895034,-0.86177397,-0.041647807,-0.15246546,0.41421294,0.484612,-0.037320886,0.20007437,0.2663821,-0.25763413,-0.060988743,-1.7048154,0.090849765,-2.1319606,0.40904507,1.0188204,0.4437959,0.17139265,-1.123876,0.27845842,-2.417182,-1.5076479,1.4032513,-0.37034428,0.6229804,-0.36566904,-0.9558293,-0.25120357,1.2250063,-1.1572361,-0.07169615,-2.3238227,0.47468826,-1.6330962,-0.81694895,3.2760627,-0.0565337,1.1661776,0.07510432,-0.8203646,-0.64569795,-0.23376547,0.29184955,0.51129156,1.244286,-1.1848953,0.30650833,-1.3610585,0.022552282,1.9753271,0.48747805,0.5275876,-0.52589434,-0.60714316,0.39998093,0.9329254,0.6725669,-0.64232427,-0.42555818,0.6640218,-1.5019732,-0.24134092,-0.5713133,0.8413294,-0.4344331,0.34070998,-0.3506264,-0.66475034,1.7717946,-2.0510526,-0.83456767,-0.7028545,0.1455234,0.3375511,0.21609455,0.64091045,1.2188962,-1.3176293,0.73528093,0.4281829,-1.0927622,0.9786095,0.67803264,0.40965703,-1.3710501,-0.22564338,-0.54117703,0.72343874,-2.0079124,0.5570379,2.06794,-0.2834547,0.14009775,-1.443672,-0.6087852,-0.15367958,1.08674
R_71,-0.090138786,-0.3766871,0.4550134,0.48385084,-0.5282844,-1.2727131,-0.23717956,-0.22426432,-1.0745054,0.36007434,-1.5078144,0.069421224,-0.81905854,-0.049691007,0.71433836,-0.1383463,0.9174733,0.31151608,0.3385128,-0.24020626,0.26933342,0.19792406,-0.47165233,1.1550878,0.8147182,-0.3948505,0.7380489,-0.66504323,0.56976503,-0.10143265,-0.26132512,0.68863994,0.50990546,0.45736128,0.96341634,-0.13237984,-1.2645853,-0.61682326,-1.1165785,0.9238962,-0.10308034,0.6219241,0.14224912,-0.50592244,-0.21890546,0.16984211,0.17743255,-0.10495806,0.79178035,-0.9560082,1.588662,-0.3338472,1.4318409,-0.16759673,0.3820487,0.31561142,-0.22764067,0.86736715,0.2246721,-0.089455366,0.46771207,1.7036916,-0.8173565,-0.07473746,0.09752896,0.44803095,0.27421004,-0.94455534,0.77497387,0.81382746,1.2016528,0.40450928,0.1774123,0.41372654,0.78878206,-0.63685423,0.92140555,-0.15291438,-0.12825766,0.7897896,0.49613947,-0.28455484,-0.43181106,-1.1059364,-2.059105,0.41916865,0.19334768,0.19159761,0.6760126,0.2020535,0.4236941,1.2753991,0.25701854,0.18429564,0.20367046,-0.19381018,-0.8879034,0.15688024,0.2888747,-0.26182508,-0.17639267,-0.02253995,0.08896848,0.4564903,1.3240786,-0.15881842,0.6800406,0.25240186,-1.5483649,0.10572711,0.22470008,1.5776203,-0.046850894,-0.16742674,-1.9067501,-0.45944998,-0.31784835,1.293373,-0.7712492,-0.38790882,0.40933728,-0.6803487,0.46327233,0.038615193,0.3029086,0.84631276,0.065835975,0.08880786,-0.40933508,0.82715356,-0.3487417,1.4127288,0.6467001,0.23320085,-1.3860136,0.4035649,-0.4616624,-0.5232097,1.0104891,0.013205125,-0.18039404,-0.50458133,-0.8373625,0.62056947,-0.4460616,1.8266071,-0.46668178,-0.6382505,0.8780441,-0.008085596,-0.190757,-0.008641547,0.4363778,-0.026700133,0.1714461,0.4509885,-0.3608551,-0.2654552,-0.35713452,1.1426045,-0.98374325,-0.8799859,-0.19044392,-0.5667052,0.5864354,0.20437519,0.79457706,-0.3088185,-0.079549626,-0.245063,0.6074391,0.72959477,0.55387646,0.27169615,0.6451747,0.30898112,-0.86400646,-1.7812101,0.025047628,-0.68919057,-1.0760344,-0.26201397,0.27128878,0.21438384,0.5443459,-0.2677444,-1.1903272,-0.06400162,0.2693933,-0.25644696,0.37859678,0.8178098,0.8522397,0.2444195,-0.6331236,-0.47778946,0.09951255,-0.297592,0.22011936,-0.114628464
CONGRESS_45,-1.0985502,0.4930637,0.8218808,-0.7273642,2.0341775,-0.26218075,0.074208684,0.1474607,-1.4863929,-0.49967977,-0.8895477,0.461095,2.2397377,0.021384547,0.75954294,-2.1391954,-1.3992989,-0.16525932,-1.2916085,0.4954769,-0.5421826,0.96289366,-0.96241605,-1.50341,0.18950011,-0.26346573,-0.1695137,0.08166774,-0.38733068,-1.0589831,0.82709676,-0.024359567,0.6278419,-0.43417963,0.80867314,-0.117993265,-0.8264208,-1.8862256,-1.0982443,2.5113058,1.500094,0.70008236,-0.19614668,-1.1016386,-0.4930971,-0.57066834,-1.7150677,0.5458122,0.17849164,0.8443349,0.18544742,1.132572,-0.86811495,-0.31369874,0.73303676,-1.8636509,0.24058816,-0.22995791,0.5912231,1.0903996,-0.64980143,-0.50426906,-0.62116617,1.5003726,0.5380342,0.74746346,-1.058653,-0.49268696,-0.7457455,-0.17249393,0.42422244,-1.5507114,1.4221588,1.4277468,-0.6478145,-0.37164044,-0.3624013,-0.5747194,-0.4833652,-0.9675667,-0.9331277,0.30131942,0.3119036,0.8763871,0.7329088,-1.9290781,-0.664261,0.30237055,-0.6738178,-1.1136012,0.6012313,1.9296438,0.59051526,0.44772694,-1.6239965,-0.22876413,-2.5394266,1.7382221,0.544067,-0.23802237,0.56250936,0.5444314,-0.18217565,0.1511033,-0.54749626,0.1273237,0.76756,-0.94906825,0.7249626,-0.023097815,-0.1721837,0.48046687,0.42300642,0.10966911,-1.2253013,-0.88450676,0.73002857,0.78423715,0.38397452,0.21430029,1.1607465,-0.15422262,-0.4410755,0.5474769,1.0506314,-0.64356965,-0.7748531,0.6816862,-0.33995867,-0.11546468,-1.0346401,-0.55434316,-0.46286455,-0.07948157,1.7409639,-0.090156116,-2.1302748,-2.022148,1.3674386,0.7133716,-0.13755219,1.0994812,1.3449355,-2.4094212,3.1384635,-0.27060372,-0.068118826,-0.22166525,-0.58018,-0.018224904,-0.06741895,-0.07585727,1.2056322,-0.5512784,0.3197526,1.034065,-2.06201,0.040088978,1.2946814,-0.33502862,-1.0925903,-1.6353182,1.3639555,-0.14137426,1.1067454,0.1573746,0.1530149,-1.7610912,0.03354463,0.7575669,0.6064429,-0.02599835,0.7636893,0.30435282,0.18472144,0.7439697,-1.6917682,0.47502473,0.0604088,-2.102003,0.08427666,1.8434914,-0.21368076,-0.25830242,-0.3341304,0.7556711,-1.179603,0.24537468,-1.589,1.3843334,0.24338192,0.2772189,2.1791022,-0.3309665,1.3550038,-2.0765886,-0.9607462,-0.45719576,0.42717457,0.3553356
CONGRESS_102,0.14378062,-0.08561434,-0.5630938,0.8660828,-0.25522703,1.095106,-0.9074766,0.24415542,1.5519567,-0.33723962,2.2548625,-0.5521547,-1.711928,1.410338,1.6478829,-0.15542656,-0.31408617,1.5100731,1.7455947,1.0580108,-0.662261,1.3214177,2.522112,1.057986,1.2368847,-0.31554064,1.885191,0.3303671,-0.6402925,-0.7276136,2.22951,0.3593968,-0.003271812,-1.1423284,-0.06000713,0.1255998,-1.4709105,0.5122831,-1.2546165,-0.43186983,-1.3686564,-0.96114606,0.48511386,0.92557055,-0.058040448,1.3359843,1.4040288,-0.6302887,1.4965829,0.5457498,0.88854676,-1.1613232,0.36956057,-1.4260495,-1.7236745,-1.0094326,-1.0037887,0.92637473,-1.0350442,0.2053215,0.29549423,-0.018805962,0.10489237,1.38256,1.2170246,-0.19873962,-1.6309305,-1.9920036,1.726396,1.3925916,-0.12058523,-0.7130658,2.5835917,-0.53684396,0.38655803,0.500599,0.8001199,2.350451,1.2442024,0.4489072,-1.2767457,-0.25373477,0.055298902,0.6552847,-0.87940735,0.42939767,0.09133903,-1.4444442,-0.82177573,0.007754318,-0.7572963,-0.18800727,-0.38459632,1.0665416,-0.0996729,-1.0698603,-2.9159245,0.35651627,1.9794835,-0.8231715,1.5375041,-0.23903728,0.13718902,1.0656278,0.017505074,1.7813184,0.85814947,-0.6145412,-1.083438,-1.0474006,0.84055054,-0.19789487,1.4209061,0.88273007,0.284656,-1.8727977,0.3245817,0.7939275,-1.8780183,1.3740638,-1.0508653,0.1249708,0.01694649,-0.7535164,0.59648424,-0.044743557,-0.71538144,-1.0166267,0.3310911,-0.7456523,-0.34127644,0.9622773,-1.5018345,0.57466584,-0.3585494,0.29595605,-1.3341388,-0.88646257,1.5229623,0.5167992,-1.6352963,0.3032365,-1.403788,-1.0031861,0.09464085,0.91958743,0.8624166,-0.76569915,0.21736273,3.3590734,1.3102741,0.5330959,0.16418843,-0.64422315,-1.0111234,-1.4110394,-0.63120306,-0.18845862,-0.9700375,0.41402167,-1.24097,-1.9482734,1.3876045,-0.093273394,-0.23618746,-0.5160476,0.38448575,0.084133536,-1.3157414,-1.0904891,-0.11542897,-0.2068968,-0.038866226,-0.5067136,-0.399341,0.9475423,-0.21304841,-2.556055,0.38082364,-1.069464,2.1088543,0.9434494,0.032001823,-1.4151261,-0.052287553,0.013370132,-0.14169928,-0.8776481,-1.8643322,-0.04774769,0.2750512,-0.507987,0.9409963,-0.36782378,-0.07432988,-1.7590622,0.13727333,-0.16520244,-1.3137505,-0.20986181
D_44,-0.9833942,-0.52249646,-0.47326627,-0.005701372,1.1352334,0.28055835,0.3989799,-0.757757,-0.6320967,-0.9846198,1.0768594,0.617608,1.3804115,0.171096,-0.6003922,-1.2572731,0.0057255453,-0.3167522,-1.3491217,-0.45422095,-1.1075034,1.1339239,-0.34194943,-0.32546932,-0.39866284,-0.12934378,0.70114654,-0.01675369,0.4023865,-0.2711175,0.3286861,0.42047548,0.24253853,0.30048677,0.4275219,-0.17629176,-0.5900059,-0.34408966,0.73405325,0.67999077,1.0341998,-0.105606146,-0.2877254,-0.6016883,-0.47635892,0.16128394,-1.3498026,-0.07373245,0.1692481,0.60051054,0.9614848,-0.9066581,0.43866238,0.76580596,-0.055919934,-1.1424108,0.6186902,-0.12697285,0.62147343,0.40281722,0.49237266,0.06120174,-0.3186876,1.0560347,0.2324491,0.9373403,-0.3121155,-0.15759164,-1.5586638,-0.11584186,0.0035499004,-0.7574087,0.34183025,0.8487046,-0.65484756,-0.014495506,-0.027679682,-1.3213918,-0.16963565,-1.1495674,0.49049908,0.24947135,0.871113,0.9898438,1.1534048,-1.6921113,-0.2099032,0.7077883,-1.4671646,-0.6485561,0.6038835,0.6243487,-0.503728,-0.1726226,-0.8448438,0.18018463,-1.741342,0.19769089,0.79520243,-0.22154705,0.47389543,0.3663608,0.26153183,-0.89764905,-0.62471336,-0.7925828,-0.15764347,-0.5113234,0.5481681,0.081512176,-0.6345541,-0.22783156,0.1320954,0.013158958,-0.33744693,-0.35985416,-0.22750425,0.611058,0.7070578,-0.7007078,0.8542414,0.39510685,0.33736277,0.27736068,0.71045,-0.6695804,-0.11448952,0.8371595,0.3204073,0.24025185,-1.0022736,-0.6437598,-0.5965024,-0.31945792,1.2576066,-0.12218488,-0.41608864,-1.1509,1.001234,0.43398854,-0.90751255,0.8888297,-0.382311,-0.31594265,2.1589715,0.2721326,0.5807699,-0.41346422,0.24901743,0.7797598,0.675304,-0.636318,0.5014415,-0.1460027,0.7152526,1.0666583,-1.7722874,-0.4359259,2.2498696,-0.26230466,-0.21876514,-0.5567816,0.8123838,-0.05065275,0.06841961,-0.61308134,0.056162942,0.12827317,0.6511237,-0.0040079346,0.19680575,0.7194432,0.225058,0.88799965,-0.01266546,1.1610322,-0.58388186,0.61553574,0.27030274,-0.4808014,0.626631,1.28407,-0.5185927,-0.23312183,-0.25625312,0.10735503,-0.53694344,1.0877817,0.24481569,0.3498627,0.2204967,0.1562875,1.2233347,-0.54462147,0.4504803,-0.9140809,-0.6883103,-1.14848,-0.012971564,0.76950514
R_66,0.010181912,0.33647662,0.37621158,1.5844374,-0.39502308,0.5987885,-1.4876666,-0.69322735,0.08052847,-0.0015044962,-0.49654213,0.48803174,-1.030691,0.34453583,-0.02228022,-0.65368885,0.5296196,-0.11630547,0.4447172,-0.7806034,0.34921235,-0.23754323,-0.09566622,0.34129417,0.36654785,-0.5300989,0.18503906,-0.52654994,-0.71352345,-0.15417993,0.29179376,0.7779349,0.0329492,1.0777593,0.05729041,0.19713475,-0.7691412,0.0930457,-1.1636409,0.35675168,1.0028938,-0.49807927,0.74771166,-0.107920915,-0.3683314,-0.13448831,-0.32163525,0.6449927,-0.17222255,-0.37479243,1.3579377,-0.9028542,1.4301969,-0.48627368,0.10668865,-0.39557934,-0.76567984,1.4940627,0.23435895,-0.424462,0.15185487,1.2294862,-0.78156966,-0.31950942,0.018698059,0.27650052,-0.42939892,-0.91147655,0.4003816,0.38244215,0.4802803,-0.55531627,-0.43349963,0.8461909,0.45322773,-0.2620883,0.27325213,-0.9239438,0.14126462,-0.17858402,0.6227094,0.010432218,0.470211,-0.40300527,-1.0361751,0.06810084,0.35416144,-0.033753168,-0.3522126,0.857041,-0.033376113,0.5093265,0.42699787,0.10552564,-0.17530952,0.0622987,-0.41895077,0.90618426,0.21238934,0.6309368,0.7006052,-0.85037655,-0.5209882,0.84191453,0.7680123,0.400717,0.91670126,-0.6039266,-0.566908,0.6156967,0.153827,1.3939449,1.0382454,0.44610715,-1.1296778,-0.5635475,-0.6678189,0.76463485,0.5428757,-0.4377594,0.3379262,-0.34347248,0.23129852,-0.9543463,1.9901549,0.05679537,-0.45822844,2.1176717,0.012206201,0.0068273544,-0.8895817,0.7673315,0.15169986,0.33605635,-1.2026786,-0.24853784,0.17212318,-0.66366035,0.8738561,-0.16832899,0.25341818,0.225526,-0.5732837,0.56323904,0.29425794,0.92387426,-0.51294667,0.19027033,0.7589067,0.34868258,-1.0248325,-0.2399005,0.19039604,-0.12275195,-0.24492836,-0.17445257,-0.38784507,-0.51302695,-0.45826486,0.6682717,-1.1750997,-0.44667628,0.24740224,0.18561696,0.5384792,0.12699905,-0.034130882,0.28754714,-0.1961217,1.0006338,0.32887796,0.64459604,-0.1353637,-0.17969689,0.5498339,0.3098519,-0.2992563,-0.63189256,0.46886808,-0.4650896,-0.16934034,0.067470975,0.03176397,-0.9760617,0.80769646,-0.10956021,-0.426262,0.73790765,0.2081833,-0.4139363,-0.3151718,0.38285455,-0.07867004,-0.4138914,-0.71309453,-0.43697605,0.039978106,0.6697088,-0.049819738,0.1861611
R_60,0.34323514,-0.20753661,0.27345976,0.10762949,-0.26957503,0.12405933,-0.45975542,0.24819234,0.06177704,0.6029938,-0.4947422,0.13828509,-0.30965552,0.21913186,-0.18936335,-0.14031978,0.17036934,0.07606736,-0.19771555,-0.35184908,-0.19687879,-0.7454779,-0.19391808,0.1538361,-0.0073418072,-0.64925534,0.44039193,-0.20815028,0.14998998,-0.7934452,0.059058625,0.5240698,0.3639051,0.89359254,0.3803622,0.058447808,-0.5902612,-0.081272,-0.9499559,0.6176592,0.39701435,0.30208036,0.12537374,-0.18872672,0.19204047,-0.5877365,-0.2607099,0.9567417,0.39884022,-0.7832327,1.1455,-1.1227027,1.2512333,-0.682144,0.37227833,0.1480651,-0.04896228,1.2713637,-0.34296197,0.01872007,-0.58910465,0.16119362,-0.75206304,0.25081423,0.26385432,0.34230372,0.36894834,0.33591956,1.0877978,0.02869461,0.94354725,-0.93220663,-0.279615,0.7233648,1.1795846,0.046641525,-0.0044292435,-0.1962168,0.061782394,0.94062406,0.017495314,-0.4201185,-0.30570742,-1.4297086,-1.6574316,-0.2484243,-0.24551742,0.53581256,0.24503838,0.4690195,-0.03904316,1.2089379,0.67756087,-0.12346367,-0.459673,0.009194044,-0.333971,0.7796695,-0.1240123,1.1074871,0.20657496,-0.35406253,0.15605995,0.64614373,0.8129624,0.26301008,1.7667505,0.0605195,-0.8681796,-0.6942639,0.07836625,1.6438161,0.9607324,0.64113325,-0.72169954,-0.2625586,-0.30729517,1.4312688,0.3897049,0.35087338,0.5933463,-0.7996635,0.50568646,-0.022496361,1.1300782,0.34218922,-0.6628601,1.320106,-0.30635068,0.4402499,-0.4571056,0.41791692,-0.010248428,-0.20691487,-0.7554595,-0.7085946,-0.6763443,0.1663566,0.266362,0.45817718,-0.69760716,-0.39398527,-0.58457357,0.3816217,0.43133664,1.0997407,-0.8570573,-0.71286184,0.9233726,-0.14039229,-0.22137894,0.30258408,0.043859646,-0.48503602,-0.23967542,-0.48366258,-0.7194872,-0.38737714,0.4411611,1.0305874,-0.96504176,-1.0428109,0.15399024,-0.5717632,-0.06577405,-0.1511596,0.3490099,-0.071302116,0.31626105,-0.2642906,0.17488717,-0.41157869,-0.1550135,-0.16098186,1.3634714,0.504367,0.47379038,-0.22382069,0.15493609,-0.9263459,-0.025188882,-0.030514995,-0.68186086,-0.5792431,0.86871654,-0.4020845,-0.40662867,-0.4488791,-1.2983894,-1.1350474,-0.3213527,1.3560548,0.34465724,0.2113908,-0.23742677,-0.4617546,0.12347344,0.06129695,-0.046062995,-0.21614316
R_96,0.5764092,-0.49654686,-0.50716966,0.021529472,-1.9112424,0.5039627,0.45106113,0.84470004,-0.27521992,-0.5874428,0.17580387,-0.9957749,-0.40949258,-0.34717208,0.427629,-0.12595366,-0.6095302,0.9799014,0.64168465,-1.1212753,-0.6850121,-0.016961643,-1.6715932,0.7983926,0.79996145,-2.317193,0.30606243,2.6365376,-1.213106,-0.22097716,0.27535602,0.75086695,0.9602584,-0.7158397,-1.2404056,1.6681026,-0.941725,-0.229892,0.9050169,-0.29659832,0.7981713,0.26708874,0.50734437,-0.780626,-0.47471547,-0.26833382,-1.1163453,0.53935283,-1.1354271,-1.4822298,0.44739303,-1.2425902,1.689822,-0.87876576,0.20971845,-0.09031671,-1.2958745,0.11943191,0.987282,0.22971609,-1.1846154,1.2219445,0.5578767,-1.2632664,1.0208858,-0.13249345,-0.16587254,-0.7839162,0.5871952,-0.70582145,1.4190035,-1.044627,0.71960455,-1.1417793,-1.5752349,0.69931376,1.4076192,-0.42513263,0.2148013,0.965917,-0.025421336,1.2811393,1.5670573,-0.010903279,-1.4557235,-1.1526383,0.07923389,-0.55543417,-0.6468721,1.8089168,0.25900975,0.50156254,-0.68703747,-0.7934781,-1.7265339,-1.1863025,-0.04011976,-0.12927085,0.8229404,0.022711962,1.5521528,-0.07677198,-0.7483865,1.4174907,-0.39632946,-0.11466172,0.8095443,-0.1831294,0.432198,1.4582711,1.1047511,-0.0125857275,0.35875016,1.04462,0.14867271,-0.31568727,-0.59704494,1.2364539,-0.31676263,0.76937425,1.2194792,-0.2935049,-0.60781986,-1.2619046,0.9301524,-0.25546458,-0.27787986,0.23994866,-0.45158735,-0.10807553,0.654319,1.2821345,-0.14543557,-0.2748107,-0.28104016,0.844568,-0.74700046,-0.051966704,0.44656876,0.18946932,-0.02312389,-0.30582902,0.80513334,0.5278457,-0.5884107,0.23375806,0.42527395,0.107324265,-0.53028136,-0.70871377,1.1201624,-0.45996806,-0.28217527,-0.5833982,-1.1331443,-0.5890698,-0.0025733814,0.053326894,-1.275404,-0.7487023,-0.32847175,-0.30441853,-1.6256396,-0.79820925,1.829638,-0.2030423,-0.5536656,-0.7106973,-0.1512076,-0.23798887,-0.7389454,-0.7992176,-0.3082173,-0.30560368,-0.88086855,0.13149641,-0.666753,0.17181648,-0.3015117,0.04905847,1.0567057,-0.023787899,0.8999494,0.46328333,0.72718805,-0.37583846,0.18098637,-0.21792108,-0.38443816,-0.28331664,0.7756904,-0.43393287,-0.53633875,-0.8634807,-1.698983,0.30175534,-0.07746528,-0.58940405,-0.18851846,1.0686231
CONGRESS_66,-0.49953252,0.5447751,0.7505847,0.065993145,-0.19516712,0.44568938,-1.1141379,-0.07805898,-0.8345081,0.6465753,0.6019345,-0.5233654,-0.31030557,-0.18308212,-0.056413572,-1.0053567,0.028000155,1.4157858,0.023675336,0.65676045,0.11017989,-0.4863437,-0.045801412,0.8034944,0.40454572,-0.5607739,0.7075219,-0.036012392,-1.100924,-1.1138977,0.1478557,-0.3266729,-0.5536768,0.4908273,-0.46170557,-0.19065304,-0.11585599,0.5556576,-1.2007829,0.76376414,-1.004466,-0.039489627,0.82721263,-0.5492088,0.20638472,0.83356804,0.43240044,-0.74460506,0.47872522,0.5816852,0.88804036,-0.0065660314,0.5452119,0.14726353,-0.049812324,0.14232002,-0.20970261,1.1290354,0.20373589,-0.32049158,-0.5168402,0.3140661,-0.3755253,-0.4032481,0.32214957,-0.0033614568,-0.92066926,-1.4361883,0.32938236,1.0960747,0.4778838,-0.9646483,-0.17305687,0.24806967,-1.3137292,-0.74924314,0.59976333,0.05703665,0.6556308,0.11474625,0.747462,1.3338327,0.47610503,-0.6760693,-1.2423481,-1.1269695,-0.27736673,0.67343307,-0.9036486,0.9021397,-0.46395788,0.5337909,0.18426678,0.16968797,-0.0811982,-0.5892217,-0.8062847,0.2780193,1.0107337,0.29819053,-0.050241772,-0.09243198,-0.3116188,-0.6160261,-0.16401759,1.2269939,-0.08126938,0.3256418,0.31755823,0.29693362,-0.19190726,-0.16153371,0.8991853,0.107573636,-1.0713567,0.12283579,-0.702931,1.0515115,0.35705456,0.01717298,-0.06259541,-1.1728535,-0.38708135,-0.51394284,0.7298221,0.71624225,-0.35416612,1.6335112,-0.81221986,0.49834165,-0.6275774,0.7722933,-0.15776217,-0.45911554,-0.13862664,1.0597773,-1.2344427,-0.6110538,2.0465822,-0.8424667,-1.3151853,-0.27676836,-1.4565421,-0.85134226,0.7681417,0.8326263,0.46092296,-0.63824505,0.21413746,0.86509585,0.80428493,-0.24928153,0.37331468,-0.59805477,0.8501181,-0.29494268,-1.6629688,-0.61176497,1.0346166,0.34217426,-1.961825,0.55357283,1.6457586,0.2976314,-1.1344241,0.7679079,-0.894767,-0.28635764,0.44889945,-0.6116306,0.070884034,0.26526165,-0.114631265,0.97344106,0.7537607,1.7220936,0.58439946,-0.161769,1.0955833,0.3443355,-0.7632305,-0.38313606,-0.77293736,-0.022348078,1.0207595,0.46071085,-1.2352576,0.20406957,-0.53809416,-1.0594672,-0.49503887,0.26005226,0.4020275,-0.19812107,-0.6875285,-1.9692321,-0.32139298,-0.90376014,-0.67855877,0.760911
CONGRESS_58,0.043165956,0.84736735,0.9070893,-0.48121524,-0.2788142,-0.61965996,-0.6657929,-0.51097345,-0.77001745,-0.3415527,0.48817307,0.1614503,0.08460274,0.37612134,0.3255806,-0.37415934,-0.84801066,0.22430398,-1.1428654,-0.33816195,-0.88214564,1.5015693,-0.3226069,-0.35396928,0.5643545,-0.757909,0.4089088,-0.40216854,-0.85086334,-0.585569,0.1623153,-0.6173231,0.27153578,1.1210301,-0.593103,0.4880691,-0.10604655,-0.55512214,-0.35946184,0.11115284,0.11999568,-0.20031826,0.27177805,-0.66430557,0.02165404,-0.0061293365,0.26494744,0.5016171,0.41134253,-1.3833754,0.4270985,0.83951664,0.7399302,-0.030695885,-0.7223668,-0.075254954,-0.81981355,-0.19136842,-0.34434193,0.78916126,-0.5074189,-0.56543803,-0.11740586,0.8588668,-0.60525787,0.07411835,0.24561131,-0.38727522,1.3167778,0.17418772,0.5618578,-1.5608729,-0.007642236,1.6836828,0.14971164,-0.52655536,0.09578489,0.314845,-0.34332857,-0.05991128,-0.12083105,0.75245684,-0.55214685,0.1722043,-1.2527201,-0.84911704,-0.6923583,0.23591395,-0.21845761,2.374383,0.357199,0.312314,0.86476403,0.4151946,0.08011412,-0.38657376,0.50364757,0.19310811,-0.42441732,-0.23133178,0.7350753,-0.6330108,-0.29189792,0.16510932,0.4566687,0.74915236,0.87145686,0.017767869,0.8454552,0.24811818,-0.17851004,0.53048,1.1554241,0.5785212,-0.6495275,-0.60521,-0.9136966,1.0493575,0.82306737,0.59933084,-0.602715,-0.36169857,0.37702316,0.22023323,1.2188486,0.59499294,-0.72679114,-0.43568528,0.4601223,0.75158274,-0.22438242,0.89144194,-0.6104549,0.48920366,0.21241668,-0.31189537,-2.1016378,-0.3186035,0.9422377,-0.008641561,-1.0901139,1.3867148,-0.7897047,-0.37998664,1.3822454,-0.30667022,0.36854556,-0.10532761,1.1527932,-0.46054158,-0.19628003,0.41731015,-0.29894817,0.04152494,0.10129405,-0.10965759,-1.766074,-1.3018873,0.92987895,-0.04941952,-1.1364136,-0.7923108,1.3384037,0.014403749,-0.6192598,0.12268442,-0.54307467,-1.1993359,0.65989155,-0.16098629,0.2907195,0.18287802,-0.032893516,0.103710175,0.51643056,0.12180241,-0.2768105,-0.013139039,0.4960495,-0.402564,-0.5264818,-0.41950384,-1.2373551,-0.31894124,-0.11986066,-0.4550919,-0.24619566,-0.22644086,-1.0414262,-1.454254,-0.8960114,-0.3235218,0.6297094,0.19618833,-0.08402195,-1.7860432,0.0904552,-0.93168366,-0.9242561,0.358793
CONGRESS_111,-0.07276876,-0.99663097,-1.9200951,-0.71921754,2.0195203,1.3653677,0.2976881,0.54288745,-0.116001904,-2.1881196,-0.44009796,-1.4466311,-0.27077723,0.1570167,-0.27376658,0.60063505,-1.0975168,-0.27454993,0.26561254,1.7978826,1.35754,0.786676,0.8790994,0.00013180815,2.2278965,0.20267059,-1.0096229,2.0355306,-1.4754361,-0.44753793,-2.0483727,-2.2635438,0.032211483,-2.0255973,-0.1061243,-0.41090843,1.2895899,0.21159443,-0.92981446,-0.97935337,0.24320045,-0.9108808,-1.6492697,0.95775384,-2.0313065,1.611292,0.18349193,0.98678315,0.57346094,-0.27427477,-0.31696206,-1.7742307,-0.32450995,-0.62360525,0.3526995,2.0465941,1.0917262,-0.88532287,-1.0718849,-1.0303994,-1.1993551,1.5584428,-0.7026135,-0.3420537,-0.75979733,-0.59283006,0.158361,-0.87027305,-0.50848687,-1.7201529,-0.59881896,0.55150974,1.1823729,0.69846904,0.97390985,-0.628237,0.08323047,0.3120874,0.057862464,1.600351,-0.45624813,1.0308547,0.21952341,-0.9410353,1.417157,-1.3980771,-0.47874367,-0.30322582,0.4014443,-1.4195486,1.0495344,-0.32019946,-0.8277203,0.0069352034,-0.7878524,0.39959776,-0.92306715,0.07869824,0.29466394,-1.625625,1.1911892,-0.8632421,-0.31414247,0.24367768,1.4735222,0.7388366,-0.22517926,0.2886748,-0.33809963,-0.96948165,-0.7844126,0.8543464,1.1525506,-0.23957245,-1.096125,-0.7329665,-0.081235215,-0.40153944,-0.020508183,0.1194377,1.2442853,0.444656,-0.19797523,-0.5547374,0.8091628,0.21263249,-0.5332674,0.463176,0.4715196,-1.8611071,-0.22638673,1.9263264,-0.7166354,1.430807,-0.6589384,-0.21422578,0.2137225,-3.1006656,2.0363612,1.4002444,0.75386995,-0.9084846,-1.113609,0.13666488,1.6352805,0.63518846,-0.186441,-1.0904465,-0.2507562,-0.8515089,-1.2252015,0.3006593,0.22262882,0.7328921,-0.38465443,-1.5227128,-0.01164383,-0.9036962,2.117005,0.647234,-0.4425464,-0.5181199,-0.36311442,-0.4045292,-1.0941114,-0.3867246,0.6961097,0.6706176,-0.66404516,0.28893557,-0.48956275,0.4805737,-1.0478457,-1.308467,0.044134963,0.3053633,0.05409504,-0.46174234,-1.421076,0.084585465,-0.5045485,-0.5480469,0.63555104,1.7614115,0.50915414,1.3976133,0.62476456,-0.9236566,0.72549385,-0.71675974,1.036547,-0.14818913,0.36096573,-8.300601e-05,0.24603681,-1.5274258,-1.1916829,-1.1559255,-1.8805232,0.25145638
R_72,0.42410582,-0.067828454,0.12781587,0.40168035,-0.506332,-0.94300026,-0.3257594,-0.3480926,-0.1628885,0.7847256,-0.38385826,-0.469468,-1.3511903,-0.10107316,-0.07320611,-0.38776255,0.5452314,0.7740036,-0.12817495,-0.23909673,0.23435809,-0.5380628,-0.6208704,0.9594542,0.824882,-0.014704621,-0.71715754,-0.44270492,0.23946889,0.4417306,-0.16924185,-0.3403036,1.3410968,1.1119751,0.87879574,-0.098876126,-1.2630236,-0.8144927,-0.69880354,1.4474242,-0.11638778,-0.044378016,0.6488382,0.0059953025,-0.95297176,-0.04039791,0.16826047,0.20408589,0.83998114,-0.8384124,0.97136503,0.6556215,1.4894453,-0.43145758,0.030698696,0.2660683,-0.33486328,0.934091,0.056828514,0.4453778,0.043764964,0.91243434,-1.5297638,-0.43254155,0.4577833,0.6186948,-0.04404456,-0.09483799,0.83838564,1.1914669,1.047726,0.044900697,-0.75948375,0.09442257,1.0852393,-0.6938107,0.8450398,-0.20015047,-0.48670644,0.60282815,0.32247168,-0.766595,-0.5781903,-0.9324257,-0.89360625,-0.16467634,-0.4285757,-0.40505424,0.81423837,0.107879415,-0.16368689,0.13192056,0.2782226,0.6109271,0.3906751,-0.12825614,-0.70982766,0.2937866,-0.032060686,-0.023375342,0.4533742,-0.7108682,-0.23162067,1.34892,0.60914177,0.4360734,-0.33872083,-0.33037573,-1.3220946,-0.2485787,-0.23889512,1.1147324,0.09250166,0.4758176,-1.4098705,-0.5823451,-0.15570876,0.38493744,-0.9821248,-0.40478602,0.60171425,-0.2983696,0.01098999,-0.06054349,-0.031249505,0.45077932,0.0021220872,0.70713645,-0.57020897,-0.14270921,0.14406045,1.0866568,0.43540064,0.7850928,-0.9579535,0.18508135,-0.53423536,-0.6947487,1.1951218,-0.6406227,0.5758155,-0.83330464,0.37366632,0.35362792,-1.0551926,1.3052034,-0.91007984,-0.82499975,0.6229559,-0.11712563,-0.5085017,0.035380445,0.35746062,-0.6831362,0.46839184,0.25814742,-0.54357344,-0.84005594,-0.5324603,0.8445085,-1.0460753,-0.6449567,0.3118254,-1.759248,0.445039,0.16308346,-0.38367215,0.07646033,0.37674692,-0.97777945,-0.24023643,0.7442732,-0.013257625,-0.26858068,0.8809293,0.8094656,-0.5363403,-0.8920737,1.4086449,0.6275821,-0.48361126,-0.64538187,-0.1472466,0.24827603,0.40605795,-0.20079969,-1.2970423,0.22918546,-0.48579141,-0.4844352,-0.06760174,0.5354536,1.0676984,-0.2898547,-0.20779191,-0.3094025,-0.66205895,-0.048845567,0.7790137,0.25039002
CONGRESS_93,0.7890832,-1.4882197,2.0353487,0.09832392,-2.4265635,1.6509504,0.60610664,0.12408928,0.17473625,-0.16656856,3.0921965,-0.17282766,0.95576626,-0.118354514,-0.8722131,-1.2137115,-1.8036631,0.7794037,0.781338,-2.5503273,-2.5133886,0.37093797,0.0819165,0.44546473,-0.06581483,-1.4892193,-0.37257499,-0.16082406,0.06630913,-0.9241309,1.0229082,0.38047287,0.7200127,-1.1470942,0.89272386,1.4284898,0.36725917,-0.58938044,0.3399551,0.8941057,0.39757448,0.33943918,-0.24483639,1.5801873,-0.43297854,0.8763501,-0.850391,0.6241183,0.9142414,0.17440215,0.10395135,-2.1893659,-1.7632073,-0.08575529,-1.9515656,-1.1627367,-1.3338788,1.4246782,1.1990793,-0.5793049,-0.591653,0.8120896,1.8760548,0.22925562,0.5094561,0.414154,0.16706961,-0.611174,0.6309743,-1.1469632,-0.4541664,-0.7415038,1.2281308,-1.2528837,-0.49193552,1.6406573,0.488638,0.35436484,1.0618762,-0.9241344,0.5478932,0.85704327,-0.7702953,1.0534984,-0.32467407,-0.16057155,-0.9772691,-0.25397933,1.4008464,1.120981,-0.37018704,1.5841936,1.0130019,-0.4860224,0.72188693,-0.38075382,-0.37890694,1.3079977,1.1284355,-0.84484434,-1.303076,0.6226075,0.20033681,0.97067547,-2.329261,1.6816764,-0.9907659,-0.077543095,0.78550327,0.97171205,0.16331887,-0.4234235,-0.9777802,0.5161441,0.1815847,-0.2825039,1.1187092,0.24142112,1.8968846,-0.8982738,2.389082,-0.83605516,-1.484833,-2.6228585,0.6194615,-0.22756632,0.43382373,-0.42167595,-0.9971894,2.4277455e-05,-1.6698631,-0.14591713,-0.121084504,0.079497464,-0.6227531,-0.72954595,-1.1336027,-0.6523305,1.3418665,0.17195448,1.3597369,-0.6144111,0.18529962,1.023326,-0.59089106,1.150949,1.5314507,-1.393392,-0.7392998,-0.8235053,1.6180533,0.6784784,1.0317888,-0.06182525,-1.1898745,-0.65757996,-0.6970319,-0.96776134,-0.1658098,-0.08369129,-0.91771054,-1.0746945,0.0018717266,-0.82797325,1.8385372,-0.2131692,0.6178955,-0.52712953,-0.58079034,-0.24161495,-1.5348573,1.09314,-1.2914511,-1.2733738,-0.8955103,-0.8341386,-0.4314133,0.16317607,-0.9485575,-0.485178,0.82101166,-0.15907653,2.982689,-0.84675723,1.2269155,-0.5347842,0.39350817,1.9988774,0.7132363,-1.3208004,1.1297268,1.8054638,0.29615986,0.24380566,-1.4586959,-1.8322805,0.45177537,-2.1148198,0.3463686,0.51510423
D_73,0.13321511,0.3465173,0.4605521,-1.2516979,-0.0041321656,-1.5543507,0.10654438,-1.1489767,-1.3219426,-0.39313328,0.9839673,-0.8710632,0.49580127,-1.1104265,-0.29319894,0.59951615,-0.004335955,-0.5251482,-0.6896598,0.093833305,0.2174659,1.1358892,0.4909515,-0.03875614,-0.039027214,0.025084408,0.047711436,-1.2034985,0.547979,0.8145543,0.31147975,0.28943405,0.020164534,0.62648517,1.3219528,0.399299,-0.21676852,-0.36199272,0.2100881,-0.36218426,-0.7582047,-0.012769975,-0.35467535,0.27521354,0.58819234,0.642908,-0.8736901,-0.30841866,0.89786,-0.055123575,-0.001254757,1.1529626,0.056699973,-0.2962058,-1.1118231,-0.97399485,0.42317325,0.31054482,-0.5053197,0.40788263,-1.8555342,-0.025318224,-0.5721886,-0.74323386,0.0727128,-0.39240915,0.0629136,0.1834976,-0.3459628,-1.4039607,0.11975807,-0.04896147,-0.03163683,-0.21012864,-0.13968472,-0.940134,-0.40317515,1.3372412,0.40190664,-0.54362684,0.7783741,0.16804348,-1.2900229,-0.594448,0.012427109,-0.9155997,-0.78165156,0.8451322,0.87638813,0.43523225,0.5930746,-0.008804538,1.3380588,-0.14664876,0.6326753,-0.79087824,0.1655734,0.039055422,0.30156216,-0.63751554,1.2289997,-0.5630598,-0.3486849,-0.62180865,-0.6815638,-0.57068014,-0.00082295353,-0.088136725,-1.0134227,0.21672565,-1.6669948,-0.020308191,0.7247497,0.63610494,-0.72378784,0.16577387,-0.32391733,0.79535925,-0.78015894,-0.54560924,-0.9730685,-0.15626784,0.08434381,-0.17512344,-0.93004537,0.6968423,0.30314654,-0.056357373,-0.15060084,-0.7751861,0.15046245,1.4579697,-0.39041144,-0.051081132,-0.49179178,-0.099999465,-0.45225498,-0.4828887,1.6020275,0.15131274,1.3001196,-1.1671647,-0.13389993,0.29832605,0.5480212,0.29814565,-0.7274835,0.19253471,0.6489217,0.54820246,0.54415196,-0.15852264,0.0009151719,-0.8328466,-0.27177188,-0.15570536,-1.8351476,-0.4565046,1.2666006,0.19423047,0.19038352,-0.43100294,2.0622501,-0.16617537,0.059515115,-0.27092308,-0.11915156,-1.7208457,1.3359277,-0.09892124,-0.15807429,0.0027823276,-0.7629141,-0.11557716,-0.1609985,0.33895764,-0.68175554,0.29694203,0.035241295,0.5680644,0.06711445,-0.5310706,-0.72886616,0.026720563,-0.452477,0.6122133,-0.41785008,-0.51400447,-0.2053535,0.09925269,0.10363707,-0.5612751,-0.3530504,-0.35272378,0.66733474,-1.5046043,-0.31776667,-0.02849764,-0.09822226,-0.010585625
R_101,1.661,-0.9198859,-0.34782955,-0.2332309,-0.42790225,0.4345669,0.73322934,0.7653798,0.37990817,-0.109209605,-0.46576384,-0.03359295,-0.6127842,-0.80211926,1.4260067,-1.4840153,0.21059972,0.6970042,0.1525801,-0.05213741,-0.9712462,0.79261243,1.0602211,0.6096465,1.1243575,-1.0263864,-0.19693194,2.7461343,-0.21247758,0.013582756,1.4671648,0.16461195,-0.45937508,-1.4430902,-1.4245393,0.44093,-0.047356695,0.613288,-0.8364536,0.087985285,1.1729447,-0.9360355,0.097242124,-0.3442205,-1.896763,1.3043449,-1.1387627,-1.0516521,0.46124724,-0.4830688,0.28834376,-1.4233432,0.978855,-0.6793402,-0.74661946,-0.6266372,-0.036770146,-0.46138155,-0.34560367,0.9900352,-0.67738533,1.0054132,0.5337398,-0.11275313,0.89736,0.21667938,0.18598156,-1.558418,1.0365441,0.5462058,0.3539088,-0.848597,0.41805655,-1.2613895,-0.10399507,0.36437002,1.2049519,0.5277561,-0.32328698,1.1580526,-0.036940638,1.6017469,0.18967311,0.25249594,-0.6749536,-1.9008901,-0.032265015,-2.1281157,-1.424126,0.8553509,0.2889693,-0.60386145,-0.0134066185,0.88149506,-0.34899634,-0.80693823,-1.1703169,-0.8125058,0.5351459,0.91338986,1.1169412,0.4293247,-0.049581386,2.1612153,-0.25080857,-0.024478873,0.5506924,-0.9194916,-1.2462814,-0.26181158,1.8965061,-0.04247383,0.4115608,1.4914154,-0.7942536,-0.6299909,0.7069618,0.040395513,-1.02248,-0.63676876,1.5287718,-0.20375745,1.4504194,-1.4399397,1.9784225,1.0937474,-0.94180775,-0.8707312,0.33301902,0.060326934,-0.2242622,1.0682716,-1.0173396,-0.05547473,-0.29697907,0.2434046,-0.27685496,0.6473347,1.6687906,-0.2885102,0.7236701,0.8027611,1.6473417,0.24008238,0.24672452,-0.24004658,0.6028868,-0.015898826,-0.44650695,2.0394893,0.57667863,-0.48075852,-0.48646122,-1.0570781,-0.5456565,-0.053312983,1.574651,-1.2939812,-0.28919044,0.12213114,-1.6085407,-1.8916863,0.37020698,-0.74423605,1.1420805,-0.13677712,-0.24326104,1.6802235,-0.34502476,-0.49667287,-0.40852293,-0.9021371,-0.69544923,-0.5416738,-1.1743307,0.48525798,-1.643965,-1.428374,-0.9317532,-0.63971835,0.49361905,0.51708436,0.94222987,-0.026838662,-0.116226904,-0.3181618,-0.040919904,-0.20789813,-0.5221384,1.587982,-0.6794599,-0.25853795,-0.037804004,-0.53501236,0.0027458172,-1.8603203,-1.9147787,0.040944237,-0.3767964,-0.32695508
CONGRESS_109,0.42546225,-1.7669591,-0.6000166,-1.0786753,0.35517368,1.5917872,0.36816412,0.16636112,-0.421358,0.03530278,-0.050047543,-1.2888473,-0.9653165,1.7584621,0.7003665,-1.7793248,-0.8483861,0.15024245,-1.3929943,0.6690385,-0.8893126,1.6391553,0.7981287,-0.10072454,0.93374395,0.48725036,-0.7067718,-1.2684877,-0.7717928,-0.71203494,0.7122418,-1.1478597,0.65349436,-0.63702476,-0.28452298,-1.6509603,0.99441487,-1.0650336,-0.81298685,0.38580927,0.42127156,0.28470102,-0.86111116,0.6551111,-1.133154,1.7284452,0.55629236,0.19755687,1.3305438,-1.271572,0.6059032,0.6028036,0.7462921,-1.1793499,-0.2620813,2.0141969,1.1143303,-0.06574277,-0.13981289,0.36163336,-0.62068135,1.2586533,-1.5820775,-0.73261213,-0.58226013,-1.0071111,-2.1765847,-0.5329446,-1.1309067,-0.24724779,-0.8283302,0.5695633,2.1601205,0.64944327,0.11016347,0.45947796,-0.8319094,1.2344856,1.7568953,0.21018296,0.58234394,-0.8386524,-1.0899734,0.74136734,0.46587494,-2.1127336,-0.75649136,0.68772435,-0.92206687,0.38994431,0.17999186,-0.23126091,-0.38247642,-0.8861881,0.24383356,-0.6367174,-1.177842,0.35155678,0.50672275,-1.5529989,0.043086566,-2.5556479,-1.7847514,-0.5439679,1.8027422,1.0664166,0.052967608,-0.71079516,-0.5958065,-0.4620415,-0.41807508,1.8022151,1.6691614,0.18730746,-1.8593193,-0.026060851,-0.87466496,-0.2471257,0.53131247,-0.24171928,0.91943485,0.77814037,0.014204319,-1.1620702,1.1070023,1.69509,-0.16091047,1.1669896,0.21782976,-1.4312121,0.28344503,1.7768863,-2.8834147,2.6350777,-0.44407368,-0.16605976,-0.9705634,-2.2364411,2.410774,0.6241829,0.72275525,0.17464344,-0.3616522,0.82455534,1.1282111,0.40270618,0.7560361,0.82426345,0.32720155,0.08298557,-0.4904015,0.9280191,0.34486625,0.7298883,-1.0530882,-1.0958962,-0.507005,-2.1608284,1.6336035,0.83386266,-0.85411036,-1.8852365,1.1557939,-1.6146281,-2.8677373,-0.13166699,-0.19685803,-0.14470866,-0.027284006,-0.22939889,-0.009988875,-0.4944262,-1.8908614,-0.906347,0.4204736,0.3846469,-0.96935785,-1.3556424,-1.8402263,-0.9513351,0.5354651,0.69345075,0.62478215,0.6318913,-0.033111006,0.6311908,0.12097228,-1.7523423,1.2557563,0.2392144,-2.1218338,0.3522079,1.322743,-0.3109304,1.1413753,-0.6886655,-1.1000795,-2.11963,-2.231761,-0.6597662
D_101,-0.4809983,-0.90362084,0.91663545,0.48236287,0.6599462,0.53763866,0.4241538,-0.39979163,-1.2121466,0.6163207,0.2016347,-0.63228565,1.2292849,-0.22564612,1.307055,0.27439612,-1.0679517,-0.49901074,-1.181628,0.62116104,-0.96056455,0.41526806,1.7673392,1.1565042,0.42127806,-0.6027568,1.1565604,-1.4907084,0.7431621,-0.6156989,1.0831318,-0.6872119,0.018137334,-1.3849301,-0.015829548,-0.24260159,0.20959416,0.44966155,-0.18259762,-0.8386078,0.7023536,-1.7621075,0.072234504,-0.78027415,-0.3498859,0.44047406,-0.07734206,-1.1922622,1.6502331,0.87139547,-0.4982793,0.41843057,-0.35129452,-0.24677065,-0.41128668,-1.8115216,-0.042794287,-0.20390761,-0.84625834,1.6824856,-0.25270072,-0.26298225,-0.21703131,0.33848172,0.36071277,0.011966957,-1.4155668,-0.9423768,1.8692961,0.08702707,0.85389507,-1.538238,-0.36928365,-0.4444236,1.5178148,0.24146111,1.3085551,0.5424797,-0.16861808,1.3286127,0.61319184,0.9263051,-0.30257738,1.1626959,1.4618965,0.13539258,0.75724983,-0.7787761,-1.0811173,0.1995487,-0.7759403,1.0448118,1.680232,0.7489331,0.09147275,0.67999405,-0.8195207,-1.4947102,-0.47940293,-1.0170449,1.6945701,-0.050182648,1.4906591,-0.8541375,-0.7351084,0.49551672,0.8212277,-0.21251538,0.14475471,0.2934112,-0.27894247,0.81613684,1.2688258,0.4903105,0.36976635,-0.9525598,1.2237786,0.16145755,-0.2739369,-0.7938327,-0.73452026,-0.34764886,-0.6745318,-1.0214,0.7585001,-0.113155685,0.05364828,0.044760495,-0.048831217,-1.2679714,-0.3371045,0.21850139,-1.1643374,0.3715507,0.5765758,-0.3796066,-0.4271243,0.35070524,1.5966756,-0.15571414,-0.6461496,-0.21118209,-0.82237273,0.61992437,0.8816554,-0.82158655,1.2056322,-0.50844896,0.46965897,1.8612561,-0.60891956,0.74231875,0.076796524,0.17235428,0.48819095,-0.19371143,-1.613968,-1.4163923,0.26173517,0.23353957,-2.1085007,-1.1338685,0.05077818,0.28109625,-0.7443248,0.106941245,0.0453376,0.6421518,-0.43165,0.3766197,-1.2510225,-0.13946013,-0.784097,0.39074388,-0.46789035,-0.92085224,-0.6978923,-1.407815,-1.1433878,-1.1095197,-0.13059649,-0.3265605,0.12223799,-0.9850546,-0.8801518,0.7117678,1.5082128,0.42250013,-0.31685227,-0.020915508,-1.225495,2.017522,-0.48357344,0.57196695,0.8754508,-2.958442,0.18672997,-1.2612966,0.03498742,-0.039677966
R_69,0.41942382,-0.21498722,-0.33566958,0.2480635,-0.64276797,0.10040599,-0.60820293,-0.6368736,0.0750762,0.45832142,-0.6713506,-0.30080682,-0.5289215,-0.5839328,-0.33315474,0.13499838,1.2204552,0.38271657,-0.08867813,-0.15835467,0.6121958,-0.5380779,-0.114516206,0.98849267,0.2002251,0.701993,0.4583207,0.057348892,0.8745686,0.7104389,-0.35629278,0.99847317,0.03642916,0.39101967,0.8288631,-0.15741642,-0.9197911,-0.45325089,-0.49066222,0.41576922,-0.4588535,-0.37840104,0.09915735,0.09399395,-0.15496267,-1.2165072,0.22775376,-0.016645227,-0.11470713,-0.27915844,0.7904401,-0.42806116,0.73381,-0.1339616,0.54507256,0.4793032,1.0362508,0.7556748,0.90077215,-0.6945066,1.0939751,1.5080466,-0.33449268,-0.17577127,-0.42634702,0.1313563,0.25494468,0.027141837,0.73920393,0.19840087,0.47212717,-0.26811457,0.42832318,0.30991864,0.57481086,-0.78029174,-0.46319622,-0.271803,0.38939607,0.10531957,0.17922989,-0.6556306,-0.3058752,-1.1670934,-1.7145967,0.056943834,-0.098944895,-0.50285363,-0.13376097,0.25798082,0.000878232,-0.2608278,-0.27509362,0.613301,0.30936083,-1.1082156,-0.30324355,0.78799963,0.09511788,0.40453947,-0.23207696,-0.59417194,0.4676388,0.43822977,0.27391446,0.44565922,0.9547254,0.12476285,-0.50193465,-0.017320476,0.4985285,1.122189,-0.38198185,-0.29980472,-1.0860444,-0.16804603,0.39399174,0.3274699,-0.11175741,0.39607114,0.051606327,-0.30792326,0.75658834,-0.053561788,0.6916628,0.7355369,-0.10572899,1.2614726,-0.5038579,0.84378374,0.5227209,0.93394995,0.3534021,0.20874591,-1.0768511,-0.6318295,-0.75408804,-0.94063145,0.5787821,-0.48064157,-0.17464285,-0.11049747,-0.583126,0.562088,0.49493238,1.6609558,-1.2801846,-0.8822868,0.8423707,0.01590473,-0.5841698,-0.5050872,0.65237653,-0.31177336,0.5245856,0.40233445,0.033343002,0.12629808,-0.34266853,0.7892547,-0.54144037,-0.5229112,0.21994366,-0.4985962,0.114839956,0.20179129,0.18449755,0.2506164,-0.07685284,-0.5090027,0.4077188,0.72787,0.66738456,-0.13012974,0.8478692,0.5313392,0.2758536,-1.1639477,0.7376502,-0.80191565,-0.26259553,0.030846218,0.11474017,0.38101292,0.9759879,-0.30184942,0.103169344,0.11586166,0.39100766,-0.8731575,-0.9796221,0.039890688,0.4066095,-0.4660116,0.012604603,-0.8907816,-0.70057774,-0.44111285,0.6238843,0.13743122
R_56,0.5343307,0.33958942,-0.263791,-0.67527354,0.04274652,-0.4459764,-0.9744057,-0.33247888,0.4179822,-0.04764781,-0.655915,0.05658155,0.7524175,-1.1601052,0.31669202,-0.4113588,0.66938335,0.7896511,-0.3702758,0.005732473,0.039766636,-0.5821004,-0.35042873,0.26501605,0.2886201,-0.58617294,0.026346179,-0.46942824,0.3357051,0.03280117,-0.11234837,0.9135119,0.07566527,0.12967545,0.26196203,0.46831992,-1.0221041,-0.4098768,-1.0790458,1.0800078,0.54839146,-0.29866248,0.28047216,-0.09171406,-0.32133353,-1.0128165,-0.5334545,-0.15018344,0.35697782,0.3707699,-0.11348522,-0.30366725,0.33830217,0.57143474,0.35635567,-0.43240133,0.29814368,1.0979896,-0.006608922,-0.1502827,-0.9178858,0.28292805,0.25375783,-0.024498306,-0.7016115,0.16045088,0.19653256,0.035486702,0.34580654,0.40902445,0.5147012,-1.0847188,0.9760912,0.69495046,0.8163704,-0.30738455,0.40730256,-0.16658536,0.19459514,0.31659415,0.040762596,-0.37674683,-0.2904965,-1.2469536,-0.79232985,-0.3434496,0.1869542,0.6402656,0.02503587,0.7018939,0.6203019,0.1543055,0.45208392,-0.39525166,-0.4279741,-0.10661196,0.0065536937,-0.13714677,0.4368846,0.75426733,0.8925022,-0.17432421,-0.021871433,-0.06043179,0.31592605,0.019880924,1.5339062,-0.2854495,-0.6306369,-0.63298315,0.31144992,1.4661783,0.52432054,0.5769435,-1.379829,0.0862934,-0.23788086,0.48962155,0.18969719,-0.118372254,0.23501103,-0.38073817,-0.30746713,0.30499935,1.268274,0.05264166,-0.049699865,1.0338917,-0.44165564,0.06540304,-0.12356232,0.89217496,-0.77100784,0.5552217,-0.18744065,-0.21827137,-0.63483626,0.4189073,1.0249869,-0.2962306,-0.63170695,0.15564953,-0.450187,-0.6245399,0.852431,1.1420923,-0.8322644,-0.442345,0.24649115,-0.25114,-0.015181699,-0.021544738,0.6992083,0.012936425,0.4219504,-0.8286233,-0.05811952,-0.907584,0.85035807,1.0832136,-0.9485345,-1.2879655,0.44301486,0.009340914,-0.3684114,-0.3230054,0.19089325,-0.022933802,-0.7102388,0.3820809,0.9881989,-0.36735743,0.024861591,-0.072480455,1.1465795,0.31352776,-0.6076602,-0.5749203,0.0416397,-0.24061663,-0.54301006,0.3078204,-0.61057705,-0.34998524,0.8700102,-0.75315833,-1.0640795,0.08747673,-0.81180096,-0.3006847,0.32285553,0.4143517,0.08614696,0.15863529,0.5227466,-0.97613597,-0.07515376,0.0050671324,-1.098424,-0.045508757
CONGRESS_53,-0.22381355,0.064382434,0.0083935065,-0.39512348,0.36550978,-0.5705616,-0.111197464,-1.4998822,-0.98087335,0.46843353,0.4111184,0.95990723,1.4106461,-0.08895975,0.6603479,-1.4546937,-0.37919408,1.3112774,0.12967744,0.06832204,-0.54525375,-0.14957069,0.08302054,-0.18030733,1.2853308,-0.021046475,0.21863991,0.26964015,0.4376573,-0.7384081,-0.2714844,-0.21185482,0.6299501,0.36402267,-0.34736666,0.32647538,-0.8875702,-0.072084405,-0.80608815,2.0916924,0.6387736,0.2942628,0.2058898,-0.09355038,-0.07907058,-0.78982836,-1.2081034,0.82666427,-0.094381824,-0.3640097,0.9858327,0.42422542,-0.2265952,0.06528937,0.03800822,-0.8082979,-1.0547545,1.1872607,-0.33438954,0.30132538,-0.23297164,-0.41157955,-0.4150799,0.2985942,0.65414786,-0.100413844,-0.6252878,0.0604626,0.22998118,0.02307327,1.6793184,-0.99419713,0.40638757,0.42085862,-0.18604168,-0.4129064,0.46472153,-0.36414608,-0.79631215,0.21253143,-0.2752149,-0.2589943,-0.8317741,-0.36130765,-0.7180557,-1.6291578,-0.3879656,0.8060623,-0.35839996,0.91075003,1.2686661,1.3573419,0.88311976,0.05990901,-0.47264117,-0.16741338,-1.1013615,-0.07077205,0.5276942,-0.7439322,0.8626296,-0.7635539,0.62446654,-0.2866485,-0.24589306,0.028480053,0.8126206,-1.5334489,-0.37109172,-0.16859126,-0.3480248,0.14620017,0.25073922,0.24732424,-1.8510902,-1.0240235,-0.60374147,1.1237627,0.75837314,0.5834683,-0.4093292,-0.16803741,-0.32614055,0.70526475,1.4235005,0.7648642,-1.1151962,1.004364,-0.119734615,0.33114913,-0.87383693,0.14716387,-0.7760189,-0.032057375,0.70241183,-0.36592773,-1.202036,-0.8479813,0.39112142,0.0054970365,-0.46459144,-0.14907712,0.2944971,-0.35982373,1.3981549,1.0272887,-1.2336851,-0.46033484,0.13334665,0.2976508,-0.018436717,-0.073417224,-0.1641368,-0.47015873,-0.22925071,-0.327573,-1.3825455,-1.1599765,1.3640814,0.9263297,-0.83733404,-0.4878659,1.9744015,-0.2993975,0.23142776,-0.6770714,0.4517603,-0.71798176,0.7238874,0.93359303,0.7541474,-0.65564793,-0.71954596,0.075647525,-0.2583189,0.41615945,-0.14987227,-0.27615666,0.122752436,-0.41761088,-0.793994,0.53075093,-0.9870473,-0.021831697,0.3695041,-0.15112217,-1.0553528,-0.91457015,-0.5733371,0.79350346,0.3181968,-0.3818228,1.0897598,0.112256676,0.17093068,-0.3346495,-0.40982834,-0.10810557,-0.8762261,0.58655006
D_51,-0.15858431,0.2266805,0.66289455,-0.6971013,-0.31787133,0.21128863,-0.67922443,0.092168815,-0.1748539,-0.9758128,0.39584076,0.44004652,-0.47738385,0.29286253,0.5268291,-0.50910443,-0.7305237,1.0376867,-0.7595023,0.07651364,-0.37933913,0.95915604,0.1199816,-0.17582911,0.53336436,-0.264505,0.43575558,-0.39456525,-0.27477258,-0.029895686,-0.1862974,-0.29023433,-0.3616323,-0.05080223,-0.59263957,0.48000616,0.015032674,-0.32272908,-0.63246804,0.23363325,0.7841666,-0.0791161,-0.60250956,-0.17196512,0.009645457,0.49843416,-0.8518106,0.22920054,0.8328873,-1.0509421,0.46784568,0.5242608,0.24924393,-0.106995896,0.59308594,-1.6377538,-0.5658238,-0.15071298,-0.27424264,0.71555287,-0.5453193,0.15948452,-0.73114204,0.4500738,0.62734324,-0.050245833,-0.83472884,-1.2852076,0.6578668,0.044503774,0.81006634,-0.8606357,-0.17526548,0.7312284,-0.61633164,-0.19044092,0.27543953,0.12295247,-0.3189834,-0.24012543,0.4338738,1.2029221,0.46021125,-0.114432074,0.49881637,-0.44156826,-0.82430434,0.8410675,-0.80908716,0.48504308,0.95996,0.8136685,0.09018297,0.08255169,-0.71413666,-0.4451842,-0.5732657,0.43274486,-0.4076623,0.0811362,0.63860327,-0.5285214,-0.32793853,-0.4608467,-0.2263853,-0.4491216,-0.7054451,-0.022132501,0.11035389,1.2638365,-0.77834046,-0.5179176,0.57751626,-0.048030425,-0.87263143,-0.009629024,-0.045031972,0.33289143,0.50094986,-0.027844109,0.019226404,-0.5597176,-0.20398605,0.93359405,0.57165754,-0.6229097,-0.31451538,0.10264975,0.18190594,-0.31085363,-0.22167383,-0.15093644,0.08206919,0.18408775,1.1377391,-0.6117986,-0.94527626,-0.13548826,0.21440522,0.32675576,-0.44815075,-0.045825783,0.01278913,-0.8809619,1.2908161,0.17961341,0.41829067,-0.51918316,0.26631832,-0.18049341,0.569372,0.49612215,-0.6291851,-0.5942197,0.9777165,-0.15218909,-1.074083,-0.051221814,1.2523675,-0.0742849,-0.48559028,0.31827676,0.5172628,-0.34833038,-0.62611276,-0.16932191,-0.13089406,-0.6923653,0.3768757,0.28540546,0.6538442,0.05533249,0.094445415,0.23154975,-0.6317017,-0.013462398,-0.73810154,0.57772547,-0.20805837,-0.0051407185,-0.45134723,0.3223891,-0.41161674,-0.09489207,0.12271813,0.5361803,-0.4822968,-0.29348293,-0.40966517,1.2142998,-0.09126273,-0.48076624,0.40318066,0.33130363,0.110343896,-0.8683299,-1.0677096,-0.18488887,-0.54765457,-0.12520795
CONGRESS_79,-0.71102875,0.18579832,0.0594586,0.29860607,1.0500416,-0.18475574,-1.1484367,0.10988761,0.11377418,2.3472052,0.3368639,0.04142183,1.6416221,0.485853,-1.5281239,0.40677515,0.9114701,0.16999315,0.7562182,0.6281955,0.79362345,0.31926748,-0.07326914,-0.64479566,-0.8181007,-0.24103649,-1.0921193,0.032786172,-0.5108234,-0.124346144,1.1429648,0.41990098,1.7346321,1.039773,0.16131356,-0.1300651,-0.50324017,-1.0626113,-1.9581524,1.2351571,0.51265687,0.50434756,-0.22193186,0.14961596,0.5488767,1.0495499,0.65303236,0.15618241,-0.24223612,0.2572582,-0.4140593,0.47951958,-0.43232837,-0.49195588,0.17018662,-0.5723251,0.60078305,0.026894273,-0.56276625,-0.2411776,1.5595839,-1.3980817,-1.2609159,-0.43770373,1.5571277,-0.12430258,0.047724187,-0.64168406,-0.45016778,-0.053347953,1.0737321,0.7665702,1.7339228,-0.519644,-0.18055826,-1.5977653,0.008916838,-0.38165376,0.2868685,0.8580443,1.5458727,0.21619919,0.41629133,-0.20940045,-0.4265351,-1.0612943,-0.38933212,-0.6754661,0.14844382,0.12369597,0.23727083,0.07965312,0.037495896,0.12392246,0.31938258,-1.7762606,0.22046256,0.65968657,0.057081837,-0.042791814,-0.9615984,-1.4131618,-0.1741615,0.021483766,-0.7993301,1.1080879,-0.5458589,0.5473114,-0.5531473,0.55712694,0.013145284,0.9607957,-0.5968777,1.0384809,-1.1787425,-0.48440745,-1.5039254,0.38309702,0.04046491,-0.9518912,-1.2455872,-0.50088495,0.8557641,-1.1171346,0.1302636,0.88875496,0.13830268,0.9024166,-0.49024528,-0.0695153,-0.8922128,1.5353671,-0.69174784,-0.7708819,-2.0572486,1.5678368,0.708863,0.7081061,1.8316882,-1.1744294,0.13673148,-0.14374717,-0.26594734,1.798358,-0.91839784,0.47024593,0.5691895,-0.10233005,-0.9727349,0.5718164,-1.1245157,0.2006555,2.4986808,-0.82486117,0.62008214,0.65429026,-0.54887754,0.6835075,0.07097659,0.528714,-0.47930536,0.8359253,-0.39266756,-0.71410257,-0.15679911,0.226349,0.1359017,0.1024401,0.049446657,-0.19404203,-0.8695354,0.9962064,-0.09474869,-0.6870337,0.3685645,0.9229888,0.4833149,0.58840334,0.35364223,2.5627108,0.8755436,0.51470274,0.3245319,-0.5357331,0.4211592,0.5690429,-0.36554945,-0.82242185,-0.048930082,0.06765729,1.189062,-0.09001773,-0.07159006,0.94672203,1.1023057,-2.4195468,-1.1200526,-2.2043307,-1.3489956,1.8015198
CONGRESS_70,0.33141848,0.6393955,0.9808471,-1.0490687,0.23663849,-0.031909905,-0.22409101,-1.3487943,0.029692428,0.056981422,0.14809883,-0.6492176,-1.3194065,-0.29208046,0.06793568,0.37329063,0.7904143,-0.46422473,-1.6470135,-0.09462025,0.37444052,0.08267231,0.14045653,0.52959466,1.3002434,-0.192954,0.39089942,-0.047187723,0.61917835,0.07155563,0.042606145,-0.72002536,0.7432192,1.3402777,1.3916487,-0.23088512,0.2990185,-0.08404231,-0.36909875,0.6182684,-1.1096942,-0.26045895,0.16366147,0.702354,0.00011256285,0.6280009,0.6416321,-0.017368853,2.325265,-0.63962454,0.8325562,0.16258372,-0.9010252,0.6074833,-0.048835576,0.70430475,0.67162305,-0.1942175,0.085946746,-1.0764018,-0.92297965,1.3404069,-1.6300001,0.09398961,0.21503939,-0.1780573,0.034076773,-0.12721397,-0.113932975,0.19461495,-0.06934538,-0.98102033,-0.042519193,0.6842083,-0.1139204,-0.87773937,0.54430133,0.7516587,0.38116157,-0.49162412,0.8580654,0.7416527,-1.3479954,0.003524862,-0.6839271,-1.0468739,-0.7634773,-0.32662097,0.14365686,1.6624322,0.7404444,0.60208666,0.4618694,0.3490179,-0.45654604,-0.8983432,0.92216796,1.105375,0.4096375,1.2537289,-0.4299871,-1.0599209,-0.074011944,0.6018915,0.8383005,0.31975937,0.54978824,0.14545242,0.0012355822,0.97301215,0.3577202,0.28712,0.8398473,0.5780945,-0.6921398,-0.26662353,-0.28362408,1.5993693,0.1846077,-0.5431712,-0.41112575,-0.08060047,-0.39156166,-0.70216256,0.088511616,1.4018561,0.2111157,0.99632907,0.53729767,0.11408868,0.049037553,1.244778,-1.1883402,0.23021536,-1.1800867,0.014168763,-2.0820305,-0.24827735,1.0822638,-0.9789856,-0.18859899,-0.1593828,-1.1731408,0.42640507,0.749088,1.1353447,-0.04338794,-0.5347585,1.2656204,0.8739917,0.124835335,-0.19556215,0.45180795,-0.2774891,0.7541607,0.6257117,-2.4344509,-0.23878306,0.53287345,0.95481974,-1.1920519,0.26792094,0.88745445,-0.9257164,0.963376,0.18376043,-0.4945303,-0.7831888,1.2146637,-0.24573475,0.60437477,0.21760657,-0.8464806,0.8968345,0.5352785,0.53491753,-0.45446214,-0.9974996,0.16241539,0.39534897,-0.023647916,0.18957932,-1.2160236,0.2967289,0.20100565,0.11014333,-2.342229,-0.4269235,-0.118361376,-1.750656,-0.16466573,-0.5064017,0.20421691,-0.23594666,0.4506754,-2.9194205,-1.4072095,-0.6721133,-0.51247203,0.4404396
CONGRESS_80,-1.6318545,-0.78611064,0.08389238,-0.09978346,-0.40925223,0.9817085,-1.4514946,-0.7694139,-1.3651063,1.9754398,-0.30256394,-0.92027235,0.9179552,0.36309767,-1.1046256,-0.13751137,-0.6975264,0.76511985,0.7076929,0.12077273,-0.0050635934,-0.38270208,-0.03410929,0.30902946,1.2283566,0.44896498,-1.3316891,-0.4574638,-0.6134132,-1.710293,-0.021031464,-0.030241009,0.36553276,1.7748374,-0.098893695,1.1171371,-0.1274893,-0.54894334,-1.8431891,0.28891703,-0.77357894,1.3183234,0.09100799,0.19641183,1.3852546,1.71247,0.40386143,-0.6716179,0.21655227,0.7706332,-0.22265562,0.4916707,0.07795343,1.1024814,0.07135927,-1.2228192,0.8620421,1.2493091,-0.08155976,-1.0503646,1.2828948,0.18080422,-2.1467714,-0.89199674,1.0757827,0.21253322,-1.0263207,-0.48286036,-1.0852987,-0.4231162,1.0171589,-0.028528394,0.43314928,-0.57290953,-0.30531046,-0.4244198,-0.29611635,-0.06572712,0.5838991,0.1525291,1.20284,1.2586904,-0.14131719,1.0577644,-0.5505246,-0.9358964,0.12550065,-0.097282946,0.906029,-0.47281072,0.30019957,0.7582652,0.46466887,1.1737921,-0.20382519,-0.9095203,0.5528901,-0.42587057,0.14767615,0.7272174,-0.39782542,-1.1383146,0.33563504,-0.28129572,-0.85944736,0.18730852,0.043472584,0.0047818497,0.9613759,1.4401299,0.085149914,0.7692302,0.6475986,1.0678809,-1.3391386,0.5191889,-2.5607684,-0.3203774,0.5320197,0.31918436,-0.43059862,-1.4566175,-0.22514224,-0.20114565,-0.7829532,0.38744262,1.3622891,0.28516656,-0.3550305,-0.030405879,-0.2623954,1.903087,0.48508957,-0.2778022,-1.5413224,0.5500578,-1.9923153,-0.49856547,1.5049495,-0.41371572,0.22866337,-0.6127452,-0.05480257,0.16826639,-0.8386016,-0.78453916,1.6215795,0.06893,-0.6901707,0.59554446,-0.28962022,1.0929382,2.7697055,-0.5177418,-0.4346039,-0.33358252,0.38877064,0.058276467,2.136349,0.6192611,-1.3709962,-0.62832326,1.7727544,-1.3066492,0.75828624,-0.09127013,0.7184037,-1.8034393,0.23691623,-0.4537321,-1.2302456,2.167951,-0.23379569,-0.9357327,0.057200033,2.0915527,-1.2273751,-1.563223,0.120115444,0.6297673,-0.5421273,0.5528893,-0.7145633,-0.84843314,0.20560831,0.9362729,-1.4011669,-0.17318977,-0.02521347,0.16233954,-0.23162726,-0.16128884,0.74143267,0.6529311,1.2927152,-2.943843,-1.3132384,-3.113577,-0.8813095,1.2978411
D_53,-0.89563924,-0.35682306,0.2469564,-1.030514,-0.93088114,-0.38388655,-0.14266755,-0.103525646,-1.1247438,-0.92674404,0.21605016,0.38244736,0.39238492,-0.1613987,0.24241434,-1.0362401,0.12041132,0.23756334,-0.5121773,0.616236,0.30453086,1.008742,-0.27321133,-1.202012,0.025317356,-0.11169837,0.7517223,0.21386522,-0.7247068,-0.10659534,-0.068841256,0.08190923,-0.29151404,0.018861897,-0.28571367,-0.3849625,-0.5789599,-0.21412817,-0.14530587,-0.33198935,0.14739537,-0.2213746,-0.24045137,0.66470814,-0.04252238,0.4798485,-0.36436775,0.073922075,-0.03590634,-0.6003838,-0.13927342,0.119625874,-0.3950675,0.5211963,-0.0020680935,-0.8071042,-0.78440136,0.0643455,-0.32635704,0.9211195,-1.0706235,0.18823054,-0.72512317,0.1789452,-0.4115137,-0.70379907,0.28403628,-0.35991377,-0.09169895,-0.63449484,0.22420824,-1.1230576,0.15640584,0.18885276,-0.4940035,-0.58010846,-0.96475214,0.6969269,0.5964238,0.1810744,0.3158423,0.9353634,-0.041274395,0.23604791,-0.12868841,-1.2723521,-0.1598798,0.71942616,0.4274652,0.7707362,1.2096252,0.44965976,0.3325745,-0.09535271,-0.19538032,-0.44603196,-0.53891945,0.59826016,-0.24268734,0.07185289,-0.18439612,-0.31743613,0.035138372,-0.21524185,-0.17202461,0.11449684,0.24655883,-0.27203402,0.6838126,-0.7555751,-0.31413803,0.40756238,0.7074112,0.27965236,-0.86026794,-0.2771544,-0.5203211,0.2859173,0.5890965,-0.2559627,-1.4662181,0.3652287,-0.09598806,-0.4512356,0.77688146,-0.19409223,-0.50344205,0.69931036,-0.088546194,0.17771499,0.7264989,-0.23612148,-0.4850309,-0.19767521,0.6177879,-0.32476565,-0.97274005,-0.39474863,0.731183,-0.16599904,-0.045212008,0.25744292,-0.29311708,0.054753616,1.3175317,-0.014341774,0.2788762,-0.40677553,0.22535083,-0.18012932,0.75388485,0.40499258,-0.37284482,0.5325393,0.57613635,0.38477096,-0.27544564,-1.0647584,0.5879451,0.37090644,0.024766706,-0.36198756,0.67521733,-0.26304066,-0.3017283,-0.44856226,-0.6532577,-0.9441228,1.0133458,0.20429604,0.17789611,0.6740271,-0.26377523,-0.24600656,-0.90350497,0.29668623,-0.17774515,-0.49831077,-0.552232,0.45826238,-0.18257973,0.33710733,-0.7212766,0.119407594,0.20126364,-0.40895903,-1.1947279,-0.829976,-0.34965965,-0.378676,0.0028130794,0.14130676,1.0518355,-0.028462866,0.29075727,-1.622201,-0.6030332,-0.23779128,-0.698523,-0.06996534
CONGRESS_89,1.0659196,-1.4389712,1.2019142,-1.894182,-1.0056654,-0.14855942,0.6095257,-1.3933063,1.2784616,1.2406379,-0.046209317,0.62962556,0.8265064,-0.32351682,-0.83661914,-0.028319322,-0.48555985,-0.43174213,1.6830018,-0.19555496,-0.495012,0.20866293,-0.56045973,-0.8001413,0.3819821,0.7508546,-0.5578133,-0.66747266,0.7809818,-1.3116678,0.41221705,0.967067,0.72998595,-0.97049916,-1.3997437,1.1155055,-0.17142686,0.41708297,0.727341,0.25309986,-0.671239,0.84211653,-0.69495064,-1.0063035,1.2044532,0.028178826,-0.8041421,-0.74473864,1.5272093,-0.97105855,0.17186682,-0.761144,-1.2805506,1.584376,-0.7238761,-0.964363,-1.9006166,0.36186132,0.68252784,0.124269426,-0.5562392,1.21846,0.9327773,-2.5326517,0.968135,-0.12379748,0.40105492,-1.7815665,0.12602116,-0.33528218,-0.016899385,-1.1130196,0.4181687,-0.501611,-0.18691549,0.121561565,1.3072219,-1.7741882,1.2673373,-2.29294,0.2716578,1.345138,-0.78437823,1.4615146,-0.048762288,-1.4719228,-0.6981343,1.126741,1.6362631,0.094828874,-0.77624655,0.7896763,1.9686916,-0.3298367,-0.94287616,-0.66500527,0.20901266,-0.55117416,1.196841,0.8746895,0.43053183,-0.97429574,0.4467055,0.87412584,-2.014508,0.3088726,-0.020684404,-0.44617072,0.71450144,1.7381064,-0.52055204,-0.20273669,-0.99459493,0.9560809,-0.565336,0.11675306,0.28635496,0.6851693,3.2340858,0.16957729,0.7935851,-1.3276345,-1.2722378,-0.5725518,-0.23063232,0.7093657,1.2897002,0.59431994,1.1954165,-1.2303692,-0.578679,1.3193052,0.03673565,0.2761267,-2.288888,-0.58383095,-3.0447948,-0.32656083,2.4200537,0.21609265,0.79214257,-2.7307794,2.0734673,-0.49077427,0.9857523,2.3844516,1.8640506,-1.306168,0.78410333,-0.15609637,-0.20171836,1.5440052,2.584256,0.6453042,-0.19679731,1.1422216,-1.0256164,-2.1104095,-0.33336642,0.40644073,-1.0914825,-0.413656,0.6698828,-1.0241814,1.9182518,0.39795244,0.5352126,-0.82279557,-0.9499684,1.6484184,-1.7016494,-0.24442488,-0.5326952,-0.38042298,0.034298614,-1.1556772,-2.2821808,-0.48499954,0.91706103,-1.0039328,0.13839823,-1.6610184,1.9590842,-0.13072976,2.0237648,-0.9712103,0.13245267,0.45764259,1.0469772,0.7254236,1.0481061,1.4718843,0.26399672,-0.706965,0.5999133,-2.571672,-1.2691594,-1.4860412,-0.27341002,0.18084589
R_77,0.41488346,0.1560632,1.0713693,-0.011414718,-0.3415443,-0.24791835,-1.8450131,-0.85978097,0.8658651,0.40420884,0.08177699,-0.12674907,-1.1109209,1.0335611,-0.2034863,-1.0270774,-0.8638055,0.64595395,1.2483175,-1.5463226,-0.026919464,-0.39740786,-0.16152434,0.06845305,1.15155,-0.16182487,-0.85444,0.25430596,0.29084483,0.8759506,1.6002342,0.5794227,0.42688814,1.4033829,-0.43884304,0.43620187,-0.992694,-0.32818598,-1.6704767,1.738609,0.28857675,1.3054322,0.9250939,0.16077924,-0.23795474,0.7909385,-0.15708916,0.47136173,-0.30057767,0.26930052,1.0237671,-1.4603151,1.4185265,-0.33406794,0.24162988,0.6957404,-0.048103835,0.7298332,0.7909049,-1.0374259,1.0272349,0.3398483,-0.04601481,-0.4172231,0.7791987,0.3506323,0.12940535,-0.6192452,0.22686861,0.0040966524,0.07209348,0.319901,-0.54304844,1.8793718,-0.30944514,-0.6056862,0.2551569,-0.55844843,-1.0570546,-0.2258223,-0.8272989,0.33235258,-0.32491767,-0.42453888,-0.9098582,-0.88431484,-0.58338416,-0.31568164,0.29870048,0.41101703,0.47098574,-1.3029935,-0.36679372,0.81254506,-0.83730024,-1.499692,0.04815134,1.413091,-0.37662515,-0.13690402,0.35533014,0.1157147,-0.2096849,1.82624,0.3439318,-0.13556325,-0.37885442,0.7323411,-0.55402976,-0.36645395,0.024035856,0.5500832,-0.22650123,0.41335088,-0.20909686,-0.33769867,-1.0839788,0.4599251,0.17663926,0.21016477,0.7591323,0.045252994,0.31007826,-0.24973148,-0.10092689,0.0015367246,-0.14379694,0.5173973,-0.6173407,-0.60813725,-0.63449925,1.3276693,-0.22179973,-0.16823642,-1.7298046,0.16359161,-0.21048461,-0.7052109,0.6278782,-0.35185316,0.43555713,0.785918,0.42830038,-0.37109813,-0.69520706,0.9557642,0.6281639,0.13880643,-0.7208796,0.6383326,-0.9994778,1.1843187,1.144549,0.5543418,0.17359647,-1.019733,0.58614504,-0.54035,-0.71237874,0.28066993,-0.023281293,0.80213314,0.58420354,-1.3478792,0.571715,-1.0657573,0.75906783,-0.13802628,0.24602762,-0.30199733,-0.07364539,-0.14871413,-1.7864647,-0.03449827,-0.11812163,-0.8571386,-1.0947368,-0.81052315,0.40543342,1.340037,0.26117888,-0.8400005,0.3179422,0.5703723,1.1733612,0.82208854,-0.36363304,-0.56080115,-0.4415183,-0.8886306,1.6377208,-1.5322659,1.2044666,-0.94458675,-0.13669993,0.283428,-1.3150988,0.22578609,-0.21956566,0.32529223
CONGRESS_104,0.79030913,0.8328439,-0.16501336,-1.0645232,-0.10486672,0.90066195,-0.37076166,1.1147043,1.6131859,-0.72745574,1.0516657,-1.6424724,-0.84502053,-0.21643429,0.7732203,-1.144271,0.287524,0.20466365,-0.29144582,0.44641545,-0.64148766,2.1719105,1.1985155,0.6013205,1.5728172,-1.1896899,-0.5314293,0.15014945,1.1206629,-1.1484886,0.32303175,-1.9909238,-1.3472536,-1.2020442,-0.47031623,-0.30229163,-0.9315302,0.3530473,-0.54707825,0.6898071,-0.9511181,-0.0039292052,-1.3542181,-0.42930186,-0.7825096,1.598502,-1.586808,-1.4630154,2.7566164,0.1039438,1.1212375,0.12358764,-0.10495513,-1.2255898,0.35190845,-0.6899627,-0.7519506,0.7197446,-0.5089367,0.30447602,-0.7060716,0.6317755,-1.278097,-0.42193305,-0.0861679,0.51928854,-2.5299118,-0.46113196,1.5563542,1.1382965,-0.23104338,-0.46405926,1.1194054,1.5375707,-0.33728138,-0.6740168,-0.58177483,0.92765886,2.4020627,0.20979552,-1.368525,-0.076300986,0.40235952,1.3334358,-0.32678267,-0.29389918,-0.023672331,0.50464046,0.053476952,-0.21954918,1.1525241,0.64327115,1.0540099,1.2222623,-0.8542378,-0.5250439,-2.2029073,1.5557605,0.53655756,-0.8306361,1.5893916,-1.7240669,0.02217124,0.35944435,1.6267431,1.3582786,0.46135274,-1.3077092,-1.3310821,-1.038903,-0.22295894,0.0040301345,0.051052384,0.4333212,-0.33810642,-0.11941951,-1.1018748,0.991155,-1.1094452,-0.17231937,-0.12139401,1.5576034,-0.5331159,0.111181036,0.5637495,-0.6646482,-1.5759499,-0.75895166,-0.2589689,-0.09670718,-0.33999982,0.36288774,-1.6770128,1.3986094,1.0921687,-0.8762207,-0.91805565,-0.80482835,1.471493,-0.40216386,-1.1134851,-0.09746005,-1.191952,-0.6194466,1.5374426,0.47139975,1.1249857,-1.0301708,-0.33446205,1.512821,-0.9006152,0.30369842,0.80461985,-0.68856406,-0.45461974,-1.6175053,-0.35095724,0.7851242,-0.8914216,1.9344933,-0.5135755,0.33152086,-0.03783369,-0.2564225,0.8271754,-1.0888017,-0.31817532,1.4526051,-1.3534598,-1.56232,0.40677848,-0.21889146,-0.9837306,1.3483744,-1.6078463,0.6110174,-0.40829852,-0.65340567,-0.6581858,0.11038685,-0.4255721,0.5318605,-0.095996425,-0.37875953,-0.5323803,-1.4690026,-0.10364245,-0.80011636,-0.88830173,-0.22851847,-1.368733,-1.22972,-0.6252899,0.34760982,0.11431326,-0.1375717,0.90911096,-0.085112125,-1.2954252,-0.034030885
D_71,-0.42177355,-0.18825452,0.5090488,-1.2472212,-0.2992435,-1.0328374,-0.9847501,-0.19419225,-1.241872,-0.4171853,0.13709988,0.6079831,-0.16659781,0.4499227,0.9635682,0.044296447,0.39393348,-0.17350428,-0.55142134,0.8662292,0.2806512,1.670604,0.19588734,-1.0697818,0.7624564,-0.717151,0.16861619,0.075996615,-0.24561071,0.44359836,-0.4210159,-0.2546536,0.7678474,0.80131936,0.118839204,0.9402621,0.46821445,-0.101518594,0.06482108,-0.5193106,-1.4492383,0.24614224,0.16826534,0.609036,-0.20878239,1.7082987,0.9489267,-1.2389665,1.0796915,-0.71972734,-0.008640473,1.4537663,-0.10303812,-0.24829832,-0.2796258,-0.27744865,-0.4393844,0.9950653,-0.2212705,0.52209944,-1.6970129,-0.40299776,-0.92012495,0.13585953,0.28007737,-0.901576,-0.9142318,-0.85284007,-0.86091137,-0.84747756,-0.4940126,0.1134442,-0.8944159,0.5644353,-1.9184506,-1.1265538,0.099690154,1.4530655,-0.20556585,0.2903089,0.90524167,1.7189037,-0.3464801,-0.08612951,0.57094103,-0.016784012,-0.8263944,1.1109385,0.43759394,0.40464324,0.56330055,0.7480627,0.7826838,0.07765323,0.008978053,-0.54660314,0.7222887,-1.0724214,1.0948149,0.2699924,0.10894277,0.058865484,-0.19255689,-1.3257959,0.89282835,0.6330364,-0.36063167,-0.877131,0.44694108,0.86134917,-0.40042648,-0.11696728,0.059881188,-0.51832813,0.68354553,-0.4394911,-1.2905867,0.8709371,0.16098201,-0.4599244,-1.6015003,-0.86315686,0.42747793,-0.0688744,-1.1910805,0.79811096,0.21687411,-1.3827283,-0.37143978,-0.5128627,0.15269458,1.3983902,-0.52994347,0.21293002,0.5943114,-0.50820065,-0.79115963,-0.04953382,0.6851448,-0.622719,0.26149002,-0.065086104,0.021428708,-0.16140856,0.6262903,-0.05917856,0.6139145,0.048017945,0.1695481,0.112627536,0.9359848,1.4443347,-0.08803884,-0.3317968,0.3757963,0.57187533,-1.4969157,-0.79020214,1.284726,-0.62502927,-0.261563,0.625777,0.9012707,-0.21311446,-0.06535457,0.14241676,-0.7467805,-1.5327188,1.231488,-0.8250623,-0.13447754,-0.029448012,-0.9912416,-0.03427615,-0.26833287,0.7666035,-0.9925175,-0.38633186,-1.0724956,0.36552724,0.20439538,0.34359318,-0.65422845,-0.29971287,-0.78730863,-0.08984512,-0.34824044,0.10668282,-0.07744733,0.02669474,0.5751868,-0.5792196,0.5666018,-0.22501968,0.23268941,-1.9211892,-0.70458996,-0.58740026,-0.058477774,1.1259565
D_107,-0.3361242,-0.4717559,0.33697194,0.28724617,1.7747608,-0.9313687,0.8386495,-1.466249,-0.26378554,0.11270229,0.77163976,-0.3311476,-1.1491816,-0.4831023,-0.38543496,1.6054091,-2.5448267,-0.23534258,-1.2128863,1.5195017,-0.33299425,0.011823942,0.5813455,-0.57139844,-0.22699288,-0.21421635,0.9522231,-1.0016212,-1.0325265,-0.8766692,-0.08032761,-0.79223424,1.9582715,-1.5278887,-0.11233407,-1.0665963,-0.26265803,-0.07533308,1.2261521,-1.056708,0.41102204,-0.47548482,-0.4945551,-0.4495646,-0.8237794,0.8636365,0.1734955,-0.52672696,0.82638043,0.79485464,0.7757811,1.6147242,-0.6804282,-1.0970339,-0.81454015,-0.47009212,-0.37978372,-0.18445934,-0.8117001,4.019742,0.5880158,0.8297572,-2.8424082,0.41440934,0.50549996,0.44126412,-2.4891284,-0.7693813,1.5503641,-0.33442098,0.77481353,-0.28211892,-0.9837842,-0.19270432,1.0492386,0.50352484,0.9407892,0.52014583,0.47412133,1.0608449,1.1566397,-0.030696066,0.031200191,1.6049534,1.2745905,0.19278058,-1.5904161,1.4060117,-0.8369142,-1.0674355,0.080963016,1.0412788,-0.68257666,0.24128272,1.1297486,-1.2788479,-0.3732446,0.2711304,0.25216424,-1.6319389,3.4681673,-2.0645406,0.5911562,-0.64773244,0.44798917,1.5860531,1.4719739,0.7200075,0.6932603,-0.011037626,-2.717366,1.3591677,0.5894191,0.68670493,0.29614466,1.0417992,-0.27346683,1.266849,1.868036,-1.0571294,-1.529974,0.34930134,-0.7977562,0.55291367,0.66365284,-0.52846736,-0.28491908,-0.80187523,0.4872421,-2.4323606,-0.09510364,1.4374657,-1.2309806,0.8400361,-0.086225055,-0.45306456,-1.535351,-2.2168748,2.0831459,1.5726852,-0.10538685,-1.290767,-1.2499539,-0.25987634,-0.52211297,-0.8434245,2.0587742,-1.1159668,1.0514218,-0.7581622,-3.652068,1.9689388,0.2363031,1.477941,-0.6991533,-0.16040643,-2.2549555,-0.7584605,2.4110165,1.5705279,-1.7273084,0.010296622,2.0924075,-1.4552786,-0.70996594,-0.18060963,-0.2613647,-2.1178644,-0.38246733,0.3252599,0.46113712,0.89518684,-0.48445126,1.0856183,0.011669126,-0.7323494,-0.13337307,-0.651878,-0.86756986,-1.8942367,-0.92795837,0.291676,0.71123856,-0.92582864,0.8979042,0.24362953,0.19076803,-1.0125564,-0.043616787,0.32077432,-1.1176965,1.6432174,0.37791777,-1.3178413,-0.36463994,-2.2929275,-0.38561493,-2.4793446,0.30396107,0.11759602
R_43,-1.8494618,-0.7353771,0.39993247,0.92903084,1.7083652,-0.61623657,-0.06384161,0.04590388,-0.47517425,0.13064882,-0.36660892,0.40491372,0.7200178,-1.0297797,0.25341675,-1.4999843,-0.9516581,0.15786308,-0.67072546,0.019449795,-0.4093952,0.67773247,-0.5668926,-1.0372207,0.16843404,-0.78405154,-0.34386194,-0.14873645,-0.029337542,-0.031509094,0.7325281,1.387858,-0.8702297,0.41584834,0.1783531,-0.6333897,-0.9462799,-2.0196435,-0.76658976,1.419082,1.0440509,0.11584372,-0.08849064,-0.8133674,0.2279947,0.074901976,-1.632706,-0.008524099,-0.1794116,-0.035976015,0.24069437,-0.6864306,-0.6982614,-0.9446651,-0.36349732,-1.5047661,-0.519756,0.48211673,1.6521512,0.4056561,-0.7892944,0.15574656,-0.090184994,0.5843643,-0.29289478,1.9369594,-1.1842233,0.40121675,-0.5910944,0.3086396,0.44041023,-0.9712169,0.7741065,0.6050429,-1.0401024,0.7345538,0.43218035,-0.7703641,0.6501219,-0.8174012,-0.62132126,0.09458339,0.81225044,1.0682249,0.22405048,-0.7044985,-1.3061966,0.08097473,-1.8623636,-0.544462,1.170945,1.051071,-0.48263046,0.09492519,-0.5244885,0.06876355,-3.1261501,0.93501544,0.48524126,0.17411935,1.0147223,0.5666104,-0.7244791,-0.5891072,-0.77768224,0.7953012,0.9775012,-0.5656042,0.57825685,-0.5686425,-0.32546696,0.7810041,0.8547426,-0.15857406,-0.2850032,-1.2941337,0.6408461,1.2907584,0.9402003,0.33683914,1.6066855,-0.8916461,-0.40314043,0.08933344,1.6601033,0.38660583,-0.8953245,1.7287221,0.7375347,0.51303524,-0.2717222,-0.760916,-1.01316,-0.91110486,1.1692262,0.5890849,-1.556949,-1.5988284,1.8741997,0.66622573,0.033797044,1.80393,-0.35301995,-1.6507493,2.7967346,-0.21094406,0.09509578,-0.46926168,0.71141726,0.34314686,-0.48734847,0.29782152,0.83040416,-0.41584942,0.19818544,1.2016652,-2.5231755,-0.02840255,1.0859653,0.34480858,-0.54567254,-0.6785773,-0.26903334,-0.042889796,0.4670574,0.4514812,0.5273795,-0.58157414,-0.08983311,0.84174377,0.8263296,0.7246495,1.2644047,0.43767658,0.40694535,0.5729297,0.5366329,0.89595354,0.5236897,-1.7848518,-0.2503914,2.1280375,0.0013021316,-0.56905013,0.45616016,-0.07765583,-0.11069818,1.3467299,-0.951416,0.19855411,-0.33664888,0.81020534,1.5699186,-0.4434382,1.8511899,-1.951696,-0.63383716,0.35546726,0.3654353,-0.2690479
CONGRESS_90,1.1536895,-1.339268,0.88593394,-1.0202494,-0.42569956,-1.0442157,-0.29153717,-1.4133387,0.5031711,1.8293359,0.37265635,0.42802423,-0.37779132,0.24826878,-0.94419247,-1.1179888,-1.128057,0.46568483,0.27580053,1.1633251,-1.3247384,-0.12029759,-1.2039988,1.1339618,0.11489913,-0.8059346,-0.77851456,-0.6499645,-0.035006255,0.18493617,-0.28058782,-0.96512014,1.491337,-1.3411586,1.8470017,2.1349924,0.22639914,0.05266076,-0.2651125,-0.46693683,0.09175024,1.5381985,-1.3792729,1.047817,0.8220767,1.1634026,-1.2706815,-1.3860132,-0.05190609,-0.31291348,0.36437127,-2.5865548,-0.32548833,2.0105379,-0.9582048,-0.71327794,-0.15602107,-0.042425312,-0.2911056,-1.2997968,-0.8794675,1.1229979,0.0062351907,-0.3445239,0.02192411,-0.1253985,0.318237,0.011801067,-0.092332095,0.09157766,1.1725476,-0.6316604,-0.59627116,-1.0109506,0.7265487,0.41577554,1.4551829,-0.10559657,1.3476226,0.10076384,-0.02022921,0.09931395,-0.8860214,0.8966773,0.015997386,-1.2398784,-0.4942839,0.9417735,0.34148508,1.2057272,-0.34298095,0.49435803,-1.0914203,-0.14211118,-0.40973893,-0.4481696,0.4479754,1.5662756,1.2252821,1.295153,-1.2702094,-0.36071864,-1.2066638,-0.8650553,-2.7394004,0.670965,-0.2525071,-0.14001007,-0.43840647,-0.18696852,0.775754,0.15362994,0.37282294,0.32982308,-1.0780495,0.2576056,-0.13147545,0.290571,-0.16477571,0.5534502,0.68618095,0.6452648,-0.7356898,0.1756953,0.46470502,0.940735,0.40400013,-0.6112239,0.7511462,0.006439557,-0.5380876,1.2017388,0.63651985,-0.5514239,-2.0467777,0.13346598,-1.7523613,-0.18596023,0.6442208,0.64188945,0.6215462,-0.83114845,1.0230286,0.90455025,-0.58310765,1.1247485,1.3097187,-0.7384017,-2.001141,-0.19968227,1.2201953,1.8937268,1.2082989,-0.72853345,-0.22427402,1.0537941,1.3916279,-1.3751405,0.8013122,-0.31175804,-0.867625,0.11850471,0.18994421,1.0858274,1.8750384,0.46737456,0.480695,0.2191682,0.08599666,0.43490288,-0.8386428,-0.44194368,-1.5604448,-2.686012,-1.4015036,-1.6748406,-1.5254737,-0.16356964,1.3452903,-0.25788814,-0.23415658,-1.1021631,2.45397,-0.8738021,1.2711813,0.031058123,0.076556794,1.4777933,0.3661421,0.06280376,0.41827396,3.0223453,-0.053636484,-0.31657624,-0.26555857,-0.8514438,0.5564578,0.19910224,-0.4047286,0.42216402
R_67,-0.66734225,1.166891,0.8521156,-0.029389352,0.16055325,0.38101402,-1.2961662,-0.12404488,0.0029749149,0.18314405,-0.325949,0.027298188,-0.6024074,-0.3293887,0.10550056,0.1309894,0.3667734,1.0865636,0.46590453,-0.23330538,-0.07472089,0.3769205,-0.5181124,0.9067318,0.44288325,0.6281215,0.2024412,-0.5087555,-0.22844082,0.6022979,-0.5253481,0.8763195,-0.014020049,0.80643183,0.5539912,-0.6116827,-0.31863597,-0.07246276,-0.12543052,0.87895364,0.36471647,0.5735717,0.46868935,-0.30550855,0.08292896,-0.8175201,0.3089035,1.4341288,0.7305537,-0.1376569,1.4885054,-0.33968073,0.6154294,0.09152291,-0.3113335,-0.07469154,0.34022877,1.3349471,0.4888165,-0.39370677,0.3183844,0.58114326,-0.61394244,-0.79368454,-0.65419626,0.44553283,0.5695458,-0.20934609,1.8579704,0.45839885,0.4248143,-0.9830783,-0.19386786,0.92095673,1.1581706,0.032658212,-0.20461494,-0.20338844,-0.20957458,-0.460999,-0.098336615,0.0018636622,-0.23430277,-0.93589234,-1.6152672,-0.6589321,-0.06153893,-0.9807622,-0.83574873,0.59899855,-0.25540507,0.43387702,0.0014022634,-0.007899941,-0.39654076,-0.5987967,-0.42009446,0.24127218,0.8421893,0.53818,0.17750248,-0.56182414,-1.5536852,0.64808154,0.043677926,0.48943117,-0.24579017,-0.008465322,-0.7477992,-0.040808354,0.79740095,1.4008301,0.30750862,1.177285,-0.92196214,-0.9237939,-0.0061286897,0.5006821,-0.15275621,0.84886736,-0.3540506,-0.6012715,-0.5989062,0.25678182,1.3674326,0.44890746,0.07737163,2.1268451,-0.43656662,0.27054018,0.20544133,0.08957169,0.04188886,-0.65936905,-1.0671778,0.299357,-0.35719174,0.7014648,0.46080703,0.4667045,-0.30673754,-0.76804984,-0.8603025,0.26062506,0.46631232,0.6049888,-1.4788693,-0.041214652,0.4770772,1.0575683,-1.0223762,-0.72036356,0.9988586,-0.49993974,0.25428155,0.46438354,-0.18286091,0.54599035,-0.8599656,0.37576962,-0.28849506,-0.7221036,-0.22759289,-0.20801291,-0.5203697,-0.04413223,-0.33362642,0.85770017,0.24656484,0.6151536,-0.1041654,0.67663676,0.52117085,0.25891852,0.5045931,0.045398362,-0.20774178,-0.72038937,0.45141196,-0.8229294,0.17316349,-0.06217406,-0.4630585,-0.21536414,0.7996215,-0.2762363,-1.4051908,0.68973833,-0.38464066,-0.9234969,-0.4846434,0.93224883,0.33051965,-0.1459152,-0.3383053,-0.3604392,0.1915675,-0.9209802,0.26606244,0.34033298
R_62,-0.28605714,0.41250697,0.3041821,-0.5527617,-0.19652182,-0.28577125,-0.44782546,-0.619462,-0.055534076,-0.011322434,0.10731183,-0.00692961,-1.8770342,0.48087725,0.72114074,-0.3194903,-0.5859199,-0.19534081,-0.02541253,-0.65009546,0.33845964,-0.88178664,0.27096507,0.68067896,0.7841823,-0.73307836,0.56227916,0.28547287,0.011554507,-0.114744484,-0.2137384,0.03217501,-0.6414118,1.1803269,-1.4028659,-0.6913676,-0.7855166,-0.28369972,-0.5370324,0.48034838,0.018194078,0.11075775,0.6177144,-0.96231544,-0.54443794,-0.7123083,0.2872105,1.3043324,-0.53763634,-0.100695245,1.2015358,-0.8915849,1.257227,-0.90985054,0.21373208,-0.049519353,-0.1709699,1.2559677,0.51338273,-0.80715483,0.28151628,0.26208884,0.28720406,-0.3298676,1.4122154,1.4124815,0.5108367,0.010285652,0.7132568,1.5144565,-0.5014007,-1.0122137,-0.9154948,0.4888937,0.37219617,-0.03534062,0.46645695,-0.040676992,-0.37796742,0.05893066,0.45064762,0.6412205,-0.07569138,-0.60452473,-0.7472428,-0.7355779,-0.58539927,0.5214514,-0.8832856,1.1395818,-0.78368086,0.13172735,0.12928475,-0.8377058,0.10751967,-0.7871805,-0.37820855,0.6665939,-0.39890388,0.22020273,1.1269767,0.66105056,0.37463012,0.36185837,0.4144694,0.24318504,1.3292192,-0.48115927,0.60709095,-0.48466328,0.6917728,-0.0051939976,-0.4706764,0.8669348,-0.60771364,0.4314107,-0.44458944,1.4962765,0.7893879,0.47272238,0.26188022,-0.8589909,0.34963253,-0.6831887,0.73324895,1.0737865,-0.5811124,1.3111143,-0.5483021,0.13574877,-0.09036424,0.30362314,-0.47686374,-0.30255994,-1.0975813,0.004869627,-0.7227979,-0.36769262,0.5210288,-0.34502414,-0.98004186,0.74529374,-0.02532151,-0.14689715,0.026598843,0.46353924,0.85188127,0.23969564,-0.034078788,0.36989072,0.030344473,0.6100755,0.19505382,-0.030807534,-0.30225116,0.4448415,-1.7094772,-1.0802583,-0.2834368,0.45010462,-1.6007676,0.11278143,-0.8603034,0.15134434,-0.3895255,0.04329522,-1.131401,1.4015386,-0.07072643,0.13941687,0.08020779,0.10749495,0.6070096,-0.6297331,1.1463217,0.39277276,1.1074347,0.20397645,1.1221341,-0.13412607,-0.114424855,0.78601325,-0.843102,-0.3395996,0.43546727,0.17324169,-0.674013,0.23767622,-0.35443005,-1.0314537,-0.09528839,0.9738181,0.42222697,0.1235943,-0.06914876,-0.7501722,0.6880452,-1.5156784,-0.15605958,-0.37089157
R_111,0.34534228,0.5085749,-0.22107165,-1.6122574,-2.88012,-0.186249,-1.0468876,0.026158214,0.7779702,-0.604263,-1.0226684,-0.48715496,-1.6015427,0.2413582,0.69708025,-2.2268176,1.6353589,0.2401349,-0.73024964,-0.18763734,-1.1241684,1.5784459,-0.51685816,-0.07548197,1.0024887,0.27412984,-1.7946163,0.8948878,-2.4868076,-0.9224048,0.046079174,0.3693615,0.13237436,-0.34259892,-0.7812998,1.0121348,-0.43608496,-1.4249848,-0.9819128,1.084444,-0.4872762,0.7997018,0.9231028,0.054333538,-0.60213864,1.0285553,-1.6135594,-0.50504047,0.66851217,-2.707622,2.4407752,-0.63769704,1.171366,-0.6589915,0.31405693,2.625423,-1.3889585,0.6283003,-0.7054486,0.6970683,-0.98444307,1.358543,-0.20890963,-1.7136972,0.5622191,0.12101621,-1.0539482,-1.964753,-1.4818861,-0.8271873,-0.4504434,0.55890256,1.1842848,-0.60541326,-2.291997,-0.8188926,-1.1871214,1.0323426,0.66648716,-0.092139415,0.06859119,1.8964622,0.08534545,-0.6320867,-1.0027715,-1.4192156,-1.6083902,-1.1371223,-1.5795177,0.70080304,1.3555311,-0.43841723,-1.3626983,-0.12852123,-0.9644911,-1.251887,-0.22897269,0.9924853,0.70705026,1.0077487,-0.64394224,-1.283586,-2.5428274,2.4041536,2.52096,-2.1255448,-2.2436028,-1.0550394,-1.4135144,1.5488845,0.23681816,-0.43809485,0.0026173529,0.51938695,-1.0794437,-0.34254986,-2.4546318,0.70249444,-1.5862978,-0.22377731,1.6232641,0.7666604,-0.2487808,-1.6560946,1.5182581,1.733145,-0.7065605,0.3404346,0.63831884,1.2430153,1.1197668,0.09506529,-0.37849227,0.19765548,1.6194329,1.2517234,-1.0231085,-1.0241226,1.4967848,-0.5342825,0.7219491,1.6263562,1.2247267,1.0905751,1.487377,2.224072,-0.16869868,-0.359756,-1.207581,1.4781454,1.2285022,-0.29572448,0.2859836,0.056879096,0.0095255235,-1.4730725,0.5277262,-0.39385906,-0.34205753,0.2733668,0.8859882,-0.5452885,1.8983121,-0.58593184,1.8418254,-1.0264572,-0.45486456,0.6336215,0.35796258,-0.6804247,0.3329106,-0.8527677,-0.101561025,-1.2360235,-0.33707228,1.0188986,-0.9030324,-0.3016396,-2.0894644,-0.7319132,2.2754812,0.86933565,0.48707494,1.3814152,-0.6727552,-0.49339557,-1.0704093,-1.0314411,-0.14262272,-1.0126429,1.2051505,-2.6769857,0.89388156,0.4196181,0.1994784,1.9433883,-1.392451,-1.9352,-1.4721891,-0.47617266
D_75,-0.5622469,0.12977618,0.3006126,-0.6878226,0.6544503,-1.1742527,-0.42750692,0.11813018,-0.86185926,0.2726583,-1.3611071,0.106513,1.0949843,-0.2821307,0.16358551,0.75843513,0.2585336,-0.05956751,-1.2600505,0.017919075,-0.14520822,1.0666621,0.36063492,-0.16077462,0.19277452,-0.4526112,0.46128964,-1.6664158,0.31096113,-0.6055463,0.33841372,-0.5913144,0.30602384,0.560169,0.969635,0.15434304,0.079090714,-0.88047594,-1.127995,-1.050451,-0.026105968,-0.88054603,0.568369,0.43857956,1.2569555,-0.6164278,0.6984517,-0.8535939,1.9621334,-0.5921377,-0.37692845,0.994463,-0.088844806,-0.06594319,-0.51909363,-0.5106001,-0.7293097,0.11320502,-0.3765721,0.32014254,-1.8227427,-0.46226963,-1.3064542,-0.4524651,-0.061601967,-0.57742494,0.5109411,-0.3724596,-0.44120774,-1.9409943,0.8486465,0.2725618,0.9700373,-0.23921132,-0.35505614,-1.0088162,-0.4749909,2.2267463,0.74883527,0.16088274,0.7175795,0.7545851,-0.19526908,0.14447547,0.12975937,-0.24154544,-0.77466863,0.5660356,0.9907637,0.9214498,0.87082237,0.913776,1.757056,-0.0017527894,0.5967662,-0.27022964,0.9564744,-0.83424455,0.014358095,-0.35940742,0.526772,-0.25430423,-0.6792826,-0.667799,-0.034351505,-0.12690096,-0.04417051,0.96198165,0.77428436,-0.17363587,-0.45641336,-0.0018035041,0.56713414,0.98225665,-1.1944488,0.032369457,-1.3337997,1.3083199,0.09791455,-0.4609633,-1.179869,-0.60660386,-0.41187143,-0.35449114,-0.54388565,0.78817236,0.14409852,-0.3576298,0.8255836,-0.5074232,0.47981206,1.5099926,-0.32485256,0.049398728,0.121833526,0.10465413,-0.87270385,-0.11662396,1.2550895,-0.19219099,0.5262498,-1.1880769,-0.091935225,-0.27070305,0.5604726,0.055590957,0.18549055,0.64955056,0.27724436,0.14607099,0.77649873,-0.5969398,0.49022713,-1.0525892,0.38112694,0.45427963,-0.9193824,0.29758808,1.0257059,-0.3647193,-0.3795072,-0.104423776,0.5194539,-0.13986982,-0.074869476,-0.25841725,-0.8152523,-0.85149074,0.9133076,0.3538917,-0.649059,-0.8285412,-0.89744747,-0.12698936,0.8116702,1.0678468,-0.5911336,-0.07399581,0.3121776,0.78810185,0.525616,-1.1920999,-0.40732655,-0.7948151,-0.73331076,0.61515945,-0.43296215,-0.66898,-0.005894004,-0.3094556,-0.74679357,0.00026542234,0.08344526,0.44280398,1.330475,-2.4660501,-0.2853768,-0.3658439,-0.70471257,0.22522919
CONGRESS_57,-0.08483571,-0.11636858,0.6474708,-1.6853919,-0.04649559,-0.5378537,-1.0670804,-0.83076197,-0.6967712,-1.0672959,0.5833763,0.7690805,0.47005257,-0.52879417,1.1930214,-0.7641742,-0.6891197,-0.06998472,-1.5450884,-0.20354463,0.560781,0.24827811,0.3056495,-0.48541117,-0.3523766,-0.57404715,-0.37156114,0.9485525,-0.8475641,0.47024325,0.84144765,-0.37485,0.5028212,1.1022004,0.49123463,-0.062440958,-0.7766671,0.3607809,-0.08939953,0.8882521,0.40818492,-0.069406,0.3628178,1.0086793,-0.22535421,-0.22490583,-0.77854085,0.14146833,-0.18087032,-0.8387253,0.9875421,-0.120879576,0.17417611,0.053696394,-0.9926315,-0.5442771,-0.4108207,0.40920588,-0.13282911,0.64029175,0.552075,0.14231315,-0.24727269,0.09426638,0.4467128,-0.13027929,0.5025979,-1.2163223,0.26826566,0.19551143,0.30753648,-1.5158868,-0.998757,1.1337428,-0.03394804,-0.57036924,-0.6502539,0.007574372,0.82733643,0.22953528,0.6080776,1.0905834,-1.1575166,-1.2355992,-0.81785667,-1.9428651,-0.5280353,0.7334882,0.24996673,1.2251443,0.53957254,0.5229838,1.1778991,0.12800862,-0.6536853,-0.05373356,-0.48941937,0.5624526,0.40568987,0.58177775,0.79566056,-0.81081784,-0.22011456,-0.50848264,-0.1012195,0.7287983,0.36465013,-0.83650684,-0.22165272,0.24824221,-0.25100335,0.06919286,0.66207004,1.253945,-0.99419713,-0.44725093,-0.39085385,1.4656736,1.6519752,-0.05811882,0.64830244,-0.4292237,-0.22966987,1.4627557,1.1036286,0.5690275,-0.8973846,0.37459072,-0.22749923,0.74379134,0.12321934,0.93986297,-0.97799295,-0.50556904,0.31396613,-0.64794487,-1.4666821,-0.45875442,1.097031,-0.80433595,-0.10426729,-0.5731652,0.50089043,-0.6623242,1.2645459,0.2103548,-0.2959365,0.046255372,0.6209081,0.10470103,0.95016474,-0.9236043,-0.2841072,0.14732632,0.84589314,0.034982745,-1.126962,-1.0058384,1.2941355,1.1236417,-0.9118438,-0.49887472,0.8124434,-0.67135656,-0.678326,-0.17964004,-0.45545116,-0.7904023,0.93452024,0.62630713,0.71073335,-0.46639675,-0.9817224,0.08426674,0.57864034,0.701359,-0.30931282,-0.6304184,0.25981843,-0.5880547,-0.14485395,0.04742536,-1.6698012,-0.36172333,-0.41468903,0.10254652,-1.4052871,-0.7655348,-0.9898626,-1.0741138,0.66303647,-0.23674695,0.489265,0.09497499,0.70428824,-1.3338891,-0.9249456,-0.6808283,-1.9719002,0.5796986
