,0,1,2,3,4,5,6,7,8,9,10,11,12,13,14,15,16,17,18,19,20,21,22,23,24,25,26,27,28,29,30,31,32,33,34,35,36,37,38,39,40,41,42,43,44,45,46,47,48,49,50,51,52,53,54,55,56,57,58,59,60,61,62,63,64,65,66,67,68,69,70,71,72,73,74,75,76,77,78,79,80,81,82,83,84,85,86,87,88,89,90,91,92,93,94,95,96,97,98,99,100,101,102,103,104,105,106,107,108,109,110,111,112,113,114,115,116,117,118,119,120,121,122,123,124,125,126,127,128,129,130,131,132,133,134,135,136,137,138,139,140,141,142,143,144,145,146,147,148,149,150,151,152,153,154,155,156,157,158,159,160,161,162,163,164,165,166,167,168,169,170,171,172,173,174,175,176,177,178,179,180,181,182,183,184,185,186,187,188,189,190,191,192,193,194,195,196,197,198,199
Con_37,0.18833978,-1.1811591,-1.3003736,1.1139221,0.39816868,-0.3926482,-0.7205371,0.382537,1.1191958,0.92395324,1.188888,-0.8061677,-0.23416321,0.50479484,0.09697529,-0.43865472,0.83115906,0.24304384,1.4904292,1.3805761,2.2115712,0.10403602,0.18380645,0.4893631,1.2988559,-0.16072717,-0.3487821,-2.2620761,-2.7572017,-0.13670057,-0.645395,-1.1953701,-1.0366611,0.7101253,-0.33943012,-0.050185107,0.48774663,0.44240624,0.44588187,0.70153075,0.4893348,-0.42026627,2.200043,-1.792278,-0.31815788,-0.9214352,-0.22638305,1.1634585,0.8563854,-0.122715935,1.8061941,0.6743088,-2.225417,-0.25283232,-0.037798803,0.40624213,-0.24424584,0.4911224,0.27001598,1.5191876,-0.47492182,0.46053332,0.8386193,-0.05597702,-0.0750526,0.75754917,-0.2876669,0.4452543,0.27650914,-0.054626055,-0.86212623,-0.15410575,-0.28596035,0.104711175,0.50638354,0.35247815,-0.18671557,-0.6120855,-0.14767449,0.2606529,1.7164371,1.2163745,1.786227,0.80047506,0.55891335,0.8284363,0.029010976,-0.25403538,0.16624969,0.53939956,0.52237624,2.0253227,-0.39916578,-0.8578201,-1.4925659,-0.93505836,0.65704775,0.42457214,-2.8056235,-0.992404,0.11482359,0.73522913,0.41969833,0.36929303,-0.78095365,1.7217469,-0.80179346,-0.80245644,-0.73984325,-0.51944846,1.233594,-0.3119573,0.06270562,0.19123048,-1.8382468,-1.9802399,2.1276355,0.0017413022,0.5163285,-0.552419,-1.3600552,-0.23304854,-2.7420185,1.0580355,-1.3153812,-1.697573,-0.56845486,-0.93359804,1.6842822,-0.27388656,-0.724685,0.107910395,1.3387744,2.651521,-1.0650505,-2.6440241,0.3894506,1.9793806,-0.77297866,0.49398792,-0.29976806,-0.8720963,0.53741753,-1.0493681,-0.634856,-0.5304099,-0.40896866,-0.25415578,-0.9501739,-0.33809638,0.97599804,-0.94629353,0.008624041,0.26142508,-0.05569462,-0.5074756,0.10556291,-0.38852555,-0.7106607,1.6414429,-0.4198285,1.1197461,-0.11444419,-0.024795825,-0.46101826,1.4045038,-1.5846604,-2.0132434,1.9085426,-0.49525592,0.20174319,-1.540925,-1.8441093,0.17657962,0.131119,-0.112238996,0.08740527,-0.9660105,1.1550065,-1.891371,-0.36746335,0.57913154,-1.0041724,0.9408965,0.42392698,-0.6034324,-0.9421529,0.32386047,-1.8839514,0.8460182,-0.05759728,0.9124697,0.93385607,2.0951889,1.2953285,-0.3889888,-1.670149,-0.15547802,-0.6947334,0.32791308
PARLIAMENT_52,0.20367874,-2.343799,-0.6833776,1.287876,-2.1781893,2.2043452,-0.086682975,3.1174135,3.0353467,-0.4111945,2.4358091,-1.2702402,-0.75278956,4.754776,-1.0522902,-0.30530816,2.0022798,-0.6869186,-3.5869477,2.296382,2.3050435,0.62824035,-0.9942439,3.8523126,-0.5083784,-0.6431805,-0.11826619,2.3906176,-1.4146876,0.47702736,1.027314,-0.39002743,1.1717396,-1.5993885,0.5190994,-0.52142495,-0.37859112,0.5334769,-0.4583351,-1.3548478,1.7071438,-0.5988158,-0.224205,1.9489133,-1.6925837,-0.21227536,0.4726102,2.3557017,2.264927,-0.5198134,3.4658463,1.3897662,1.3623668,3.048446,1.2326938,1.3208854,-3.3804681,0.834396,-2.6352344,0.8629195,-0.68075955,1.8773081,1.1142689,0.87422085,0.9554693,-0.21115775,-0.9746085,0.9447252,0.09071688,1.9720663,-1.4483646,-1.5488535,-0.85783046,-2.3438902,0.0017810569,4.2706637,-1.5657805,1.7343868,1.3530173,3.8530262,-3.3413246,-2.408578,0.5899745,0.6687699,-0.62423384,-1.2402556,-0.74417037,1.8217111,-0.8788427,-0.3371334,0.75494665,-3.798304,-1.0507443,-0.10703008,-4.042725,1.0349135,0.55209047,0.37646282,0.74935573,-1.7010595,-2.686085,0.6501158,1.6702328,1.5193055,3.107281,-0.24101499,-1.4538872,-1.9624004,-1.4058049,-1.450362,-0.7568953,4.076676,-0.6380084,-0.053701837,-0.84837776,0.23824963,-0.69071376,1.7422605,0.6778829,-0.05084991,-1.8593671,0.53370833,1.2616888,-1.0663943,3.3242848,0.07933272,-0.1163618,-0.67222536,-3.3912678,1.7461284,-2.4221718,-0.36447012,1.010042,0.8749463,-2.0429237,-1.4169185,-0.58581555,-1.1735741,-1.1279354,-3.4470177,-2.6740532,-1.0970631,1.9525288,-0.7109762,-2.1522696,2.0668416,3.2847493,1.214022,1.2016177,-1.0417255,-0.00901741,-0.80738956,1.7781738,1.7317675,-3.8583722,0.3053589,0.38949817,-0.7874113,-0.17547952,-1.5993485,1.2232566,-2.5719762,0.8360722,-1.4869463,0.20812699,2.170417,-0.37964085,1.5426545,-0.24729429,-2.5453613,-0.17388609,-0.7471547,-0.6838988,0.18261895,2.6593761,-0.64149535,-0.39637202,-2.9669087,-0.12970145,0.024642877,0.83993745,2.0625973,0.9841122,1.0133561,0.36278266,-0.07470077,-0.46295115,-1.3338805,0.42208225,1.5986916,1.6316471,3.309738,-0.42600763,-1.364546,0.6386883,0.37095675,1.4039068,0.7294611,0.46524134,-0.54204595
PARLIAMENT_51,-0.050012548,-1.0794113,-0.41629168,0.97702825,0.7665822,-0.5829845,0.6610388,2.3535252,0.24340636,0.61132395,1.1684644,-0.1230891,0.7667815,0.3902437,-2.7093248,-0.5984521,0.5584007,-3.3701386,-2.2159803,-0.13248959,-0.21951775,-0.3938387,0.55319285,2.4080472,-1.2940966,-0.6972919,-0.93194443,0.20582438,-1.7063462,0.7320824,1.5505364,2.683667,0.2311733,-3.4759045,-0.19644548,-0.82254547,1.1236055,-1.5319022,0.07849984,-1.4741488,-0.004763587,-0.29063407,1.0144881,-2.2230477,0.18385892,-0.9593796,-2.0041416,1.2979167,0.46147132,0.4766913,-1.9169354,1.3258829,1.6976866,1.8395374,0.7368734,3.5891664,-1.9509585,2.2134755,-4.2289844,-1.8651537,-0.70852554,-0.4625269,3.5228467,-0.13675302,1.4102294,0.86704487,-1.1272994,-1.4160043,1.7803912,1.9810448,-1.3182778,-1.0162374,-0.9510131,-0.633897,-0.41650227,1.1818646,-0.0349625,3.0531874,0.33430827,3.8279521,-2.3216007,0.32153794,-0.13730437,0.60708535,-0.3898142,-0.5040464,1.9260322,0.87363946,1.1125413,-1.4725947,2.1107457,-1.7322094,-1.8431138,-0.11716559,-1.037575,-0.23646301,-1.2547449,-0.8993964,0.18105207,-0.7419059,-1.6199172,1.996481,-0.9458285,1.1319003,0.84220123,-1.2937764,-2.0398078,0.32617727,0.072063334,2.9160552,0.57065463,0.88269347,-1.1826636,-1.836976,-0.8528287,0.6772475,-0.18742445,1.0898482,1.9037125,-1.0054979,0.30514896,-0.2599661,1.8318316,-1.8542986,0.88176084,1.3176581,0.4500093,-0.26910287,-0.9570207,0.6437256,-2.3798015,0.48278984,-0.08890031,0.32446757,-1.377735,-1.7357498,1.2449962,-2.6302645,-0.66833776,-1.4579,-1.3055307,-0.18870914,0.9763856,-0.38509643,-0.79885304,1.2563726,1.7942787,-0.76709735,-1.0905426,0.13241808,-0.3566711,1.1313766,-0.18608476,-0.2441154,-3.1286833,-4.130079,-2.0785768,-0.9447157,-0.24327578,-1.99179,0.7121563,-1.4375075,-0.75212324,-1.9698639,0.08470231,2.3789585,1.432816,1.6413399,-2.2327929,-1.4599992,-0.09072994,0.49351957,0.71294004,-0.99114484,0.13979208,0.36220035,0.478954,-2.1505764,-0.40987912,0.97739136,0.19460598,0.4504241,0.2999463,1.774874,-0.034043252,0.6914326,-1.0286388,-0.18332238,0.7548341,1.4489812,-1.9911656,2.1051388,0.8831103,-0.79059196,1.2147678,1.0745801,-0.54752433,-0.32762125,-0.24180241,-2.0361574
Lib_49,-0.25260922,-1.760349,-1.0570624,-0.12224492,1.429168,0.5197022,0.8919451,-0.23802161,-0.15873872,1.147387,-0.6887541,0.001758233,-0.44399494,-0.24849558,-0.94118315,0.5581326,-0.7291374,-0.4071237,0.22201674,0.28016895,0.094473146,-0.6212603,1.2051024,-0.68477285,0.39184073,-0.95362556,-0.60470355,-0.28855455,0.22327659,0.39833003,-0.7759574,0.77012104,0.028746096,0.7399494,1.1787271,-1.3661609,0.040251594,-0.3265982,0.013656304,-0.43294352,-0.3225778,-0.48458833,-0.63984215,0.5586658,1.0146606,0.1983594,0.11382343,-0.47795945,-0.60237056,0.2712484,-0.9607535,-1.299891,-1.1370924,0.17307904,-0.58432084,-0.06194846,-0.8206861,-0.21179624,-1.4262168,0.95845294,-0.11560212,-0.7564647,1.6463478,0.73546416,0.5305337,-0.5480942,2.0535362,0.7063619,-1.4011997,0.78870827,1.5275385,-0.7456819,0.33784464,0.10000758,-0.2025805,-0.56603676,0.42633057,0.697045,0.40835896,-0.47828233,-0.21571052,-0.7691977,-0.3686287,-0.76543933,0.13336337,-0.08689882,-1.9821684,0.23723648,-0.5683627,-0.57998234,1.9121954,-0.0035784284,-0.8865576,-0.17545575,0.68453485,0.18595278,1.231054,-1.0979896,0.74949384,0.06559331,-1.2650349,1.8698179,0.67667276,0.21260594,0.8582942,-0.22019961,-0.6355805,-0.82651925,-0.8223971,0.21067254,-1.495505,1.191786,0.17771474,-1.5913393,1.9739169,1.4511695,-0.51204187,0.53558403,-0.2682423,-0.6663966,0.27803823,0.9998424,0.034626573,-3.315174,0.036446095,-1.7008884,1.5928466,-0.47630218,1.2194294,-0.7334074,0.10502028,-1.1742281,-0.69616646,-0.19579977,-0.6582677,-0.30257952,0.40125647,-1.5535609,-1.9774545,-1.364331,-1.3153965,-0.09616083,0.10274402,0.35210815,-0.45244193,-0.9029444,-0.015329985,-0.1581039,0.6007438,0.5355009,-0.27212444,0.7020019,-0.15246703,-0.16514827,0.88688374,-0.4535701,1.18163,2.5649407,0.44520405,-0.8708391,0.6721913,0.73547673,-1.0778241,0.6176742,-0.9545968,-0.5078244,1.601762,-0.30943307,0.6848034,0.317255,1.1799061,-0.62844115,-0.9802908,0.29680136,0.44075027,1.203031,-0.39771286,0.21130028,-1.7795428,1.7452018,1.1716465,0.43529928,-0.033827312,-0.915116,0.043536842,0.77898306,-1.5078055,0.5009447,0.61103386,-1.5152055,-1.2815726,1.23032,0.9257223,1.0501024,1.748109,0.11311553,0.091163635,0.71865857,-0.53331494,0.030379655
Lab_51,-0.48524338,1.2234979,-2.021748,-2.015382,3.5482924,0.8594623,-0.4703703,-0.33983034,0.6616995,-0.09773691,-1.2841946,-0.0946878,1.4788046,1.5905051,0.5682381,-1.4938983,-0.040203482,-1.2005655,-0.8495174,2.1897693,-1.6518763,0.9605314,-0.8773299,-0.58744144,0.20659567,1.9047269,1.7849493,0.82039917,-0.9538697,-0.8925555,-2.9829986,-1.5675876,0.03852844,-1.5723933,-0.4230395,-0.3695499,-2.1252284,-0.87803495,0.46037552,1.0311399,0.41514212,0.19631721,-0.45790127,-1.1396047,-0.48063552,0.7060721,-0.74998766,0.6048019,0.47446918,-0.14045566,-1.4278152,-1.1168624,-0.26571274,-0.2762573,0.17595705,-2.5928564,2.3905227,-0.7767097,-2.1021497,-3.0437949,0.50111014,-2.3256338,-0.19877361,2.417837,-0.25997892,-1.6279176,0.56824756,-0.89283866,0.0038296445,-1.2658225,1.6763351,-0.86351556,-1.5421157,-2.198759,0.14823325,0.27137372,1.5110735,-0.65023917,1.3629962,2.8607738,0.62230915,-0.5399717,0.53032696,-1.2912375,-1.3762265,-0.98044723,-1.0190821,0.05233457,0.4612805,-1.0570946,1.4795387,-1.2283539,1.3732989,2.1344924,0.52318907,-0.88323075,-1.2259097,-1.099808,2.406639,-0.16370128,-0.10212969,0.18089236,-0.10846962,-1.4682242,2.708767,0.8267475,0.08989768,2.1609404,-0.3488912,-0.7670412,-0.24721074,3.8017063,-1.0540987,-1.490793,0.73118603,2.1678548,-1.4531357,0.54385585,-1.382829,0.20065354,-0.6340837,0.35522267,2.7608032,-0.01777021,1.4642693,1.2805678,0.3770761,-0.17104827,-1.3292687,1.8580091,1.3344826,0.29956216,-2.3062086,-1.1991172,-0.9865114,0.86109304,-1.2027705,-2.6835616,0.03214846,-0.88724685,0.38211307,-1.8641652,2.2047904,-1.4388994,0.1228252,1.2492831,-0.23599707,-1.8599253,0.5486162,0.023531826,0.56571954,-0.34475908,0.6379853,-2.0770988,0.69658804,2.5273955,1.219333,-2.1615222,-0.17808881,-0.19079244,0.28283203,0.703393,1.415124,0.83901775,0.4286043,0.46890363,1.1275258,1.557419,-0.11457349,-1.3984649,-1.868595,-0.3609726,1.1878988,-2.6953647,0.6121516,0.4668332,-0.4369856,0.3559997,3.583279,2.6277263,-0.291655,-1.3364124,0.701315,0.6224422,1.9945644,0.37399498,0.052436177,-0.43032226,1.5939436,-0.17056178,-2.3700032,-0.6203563,0.70199966,-0.28761327,-0.44337618,-0.8273683,1.7145965,-2.3270164,0.27744386,1.1301981
Lab_53,-1.6445372,1.6528695,-0.9211823,-0.08904503,-0.7358258,-2.3065245,0.34813192,0.8523418,0.17298405,-0.53305143,-0.68506026,-0.70955783,-0.59655607,0.11396298,-1.247979,1.3394282,0.41391596,3.546158,-0.8472007,1.141945,-0.0710227,2.1414263,-1.5291417,1.2820016,0.07570468,-0.89918053,0.68304366,-0.5721852,-0.8821328,2.0009177,1.3262926,0.77057827,1.0779786,3.114316,-1.0317276,1.2043068,0.5783537,-1.0024837,1.236853,-1.3898903,0.97292006,0.82532245,0.57263625,0.059356038,-0.3936924,2.4892874,-1.3490559,-0.3156574,1.9841963,-0.018279482,-0.24744347,0.8508707,0.03643388,0.69009155,-0.5159191,0.24640419,0.8121714,1.6257735,-0.3166188,0.18005098,-2.1923227,1.1482315,0.2705111,0.9068922,2.4606535,0.21119316,-2.3288882,2.3694544,1.119277,1.4562842,0.9890122,-1.2505224,-1.9043181,-1.3230656,0.5793798,1.6845274,-0.9458849,-0.06516091,-0.31822836,-0.47940105,-0.029893635,1.838337,1.5687718,-0.2850556,-0.552596,-0.9681803,-0.52651894,0.2454823,-1.4971176,-1.1226883,-1.5291555,-1.3435304,-0.9911504,2.2774582,0.5584571,-0.6066478,-0.6380281,0.7494509,-0.073669195,0.79819953,1.2181028,1.281113,-0.3312859,1.9865847,2.007239,0.831343,0.25413746,-0.0497288,-0.93168074,-0.24105212,0.42861116,1.1520628,-0.40562552,-2.268008,-1.7113354,2.6148455,0.41604385,0.99080336,-1.1552954,0.8094246,0.07577647,-0.21487609,2.2494552,-0.8263076,0.32408598,1.5290297,-0.06953901,-0.7553779,-0.6153652,0.27612728,0.13413973,0.30076063,-0.71656555,0.11413442,0.30628175,0.12897259,-0.93974674,1.3759379,1.731869,-2.1249366,0.81863964,-0.569431,-0.7908733,-0.33207008,-1.2463634,-0.0064095976,-0.2985553,-0.7206498,1.9353669,-0.95371026,0.12245534,0.42596823,2.346934,1.1791644,0.23137486,1.0643163,1.2528293,-1.2510211,-0.30738735,0.4373474,0.35020563,-0.68192047,-0.304727,1.5374163,0.5295514,0.5837219,-0.15437107,-2.3074186,-1.5780753,0.70771,0.43727747,-0.92656064,-2.5280166,-0.026356546,-0.97458744,-0.37842172,0.30623576,-0.08122983,0.6625816,2.0094867,-0.41080832,0.32060513,-0.79505527,0.06274896,1.8519813,0.52960646,1.3518884,-0.5272342,0.12195353,-0.48698798,-0.1463138,-2.2840798,0.7023378,0.36590958,-2.1979682,-0.61754596,0.17299539,-0.4714554,1.5086731,-0.8357773
Lab_41,-0.56943715,-0.17135222,-0.96034056,-2.2266836,3.5258825,0.063480295,-0.23860832,-0.06034343,0.9250726,-1.4031587,-0.008190598,-0.26322836,2.1229832,-0.6146986,-0.2844706,1.0139942,0.967114,-1.1175262,-1.5636528,0.02980132,0.10241659,-0.40451708,-0.3255428,-2.4130332,1.2187673,0.46501046,2.2919495,0.85875785,0.48053774,-1.5832479,0.2852019,-0.57778996,1.2671934,-0.30855086,-1.4879402,0.73373663,0.15572746,-0.2706757,-0.73638004,0.2131878,1.0845076,-1.6966884,1.2001323,-0.18082403,-0.3612586,1.2812468,0.94256544,2.7542424,-0.6315685,-1.2183479,-1.9270563,-1.0786818,0.14906894,1.2917943,1.968673,-1.690031,3.1859715,-0.120389245,0.6108073,-1.6908932,0.4432336,-0.73600775,-0.86701715,0.34578058,0.615197,-0.939951,-0.0571833,-0.82338774,-0.012132636,-1.6669154,2.706724,-0.25822312,0.6435232,0.5894575,0.30901158,-1.2257234,1.6736398,-1.069278,-0.035931926,1.2587564,-0.2973852,-0.061257012,-1.4186032,-0.17489876,-0.48621175,-1.1415975,0.49645814,-0.111048885,1.564694,-0.3746375,0.3435468,-2.1082332,1.7313384,0.16848321,-0.21000674,-1.3649786,-1.4825199,1.5947545,-0.21733184,1.0971595,-0.30076396,0.55396855,-0.34522957,-1.9863105,2.282374,-0.19345129,0.26177445,1.1648024,0.5946566,1.1834426,-0.59921044,3.0884986,-0.5240484,-2.7409575,0.35591426,1.4580722,-0.11150758,0.18630075,-0.22569613,0.29817155,0.79726,0.30670476,1.2252468,1.3895289,-0.58455414,0.88455075,-0.19363317,0.50260574,-0.5278063,0.33427656,2.2646933,-0.48010227,-1.668027,-0.20071794,0.22790168,1.6166257,-1.0639321,-1.8970973,0.8185976,0.31419155,0.6467317,-1.117865,0.6583357,-0.29342282,0.8234619,1.4815935,-1.4744585,-0.5894475,-0.61904556,-1.3743191,0.6527312,0.02167955,-0.60497946,-1.6226106,0.9180838,0.83809614,0.41278782,-2.2921,-0.72162557,-0.054197676,-0.6710112,1.9469396,2.0546646,0.7760807,0.4143859,1.143011,0.938791,0.5549281,-1.8101372,-1.7069362,-1.7978545,0.4863617,-0.54720676,-0.44195405,-0.5108466,-0.2956964,0.32400152,0.7194129,1.3442771,2.386406,0.42853653,-1.7656817,0.60327435,0.26891175,1.7932884,0.8144768,-0.7035705,-1.2458903,1.7484777,-0.38998562,-0.6025078,0.16884266,-0.6728331,0.1444353,-2.1313217,-2.6665735,1.710832,-1.4969501,-0.7559289,-0.011452402
Con_51,0.9444123,-1.0836933,0.6076395,3.6274536,-3.2501779,2.0345554,-0.3087421,-0.66143227,-1.5772182,0.25748977,1.2902876,-0.69751143,0.22106256,3.2246246,0.8461367,-0.67330915,0.35427102,0.008126653,0.43726912,-0.5916438,-0.08111091,1.108989,-1.6005993,-1.4727345,0.6977468,0.0008164763,-0.76792943,-0.3426199,0.06527031,0.1983237,1.7776449,1.3256893,-1.7520396,0.73112935,-0.5553463,1.9762462,2.4317687,0.3634945,1.1897584,0.7290799,-0.5618315,-0.3227171,-0.5718342,-1.0576121,0.6072136,-0.5673327,-0.35877424,-1.3960004,1.9186678,-0.8238696,4.1485286,2.369734,0.31005615,-1.9037637,-1.049965,1.4532896,0.5230236,-0.102573745,-0.035571724,1.716735,-0.73731524,3.4706407,0.2203605,-0.70543987,0.46793675,0.72752684,-1.1751169,4.195054,0.8602541,1.3602937,0.42691132,1.0708225,-0.50618887,-0.48535678,-1.2929475,2.2292383,-0.00423209,0.45179078,-0.20940268,-0.54255474,-0.8692472,0.17012016,1.8040483,-1.2588563,0.91289264,-1.7598023,0.94348097,1.4748564,-0.4957043,-0.7928471,-0.89143986,0.009268692,-0.92679816,-1.1987058,-0.5591954,0.6814244,-0.29189467,0.40251088,0.42970347,-1.1818373,-0.622927,-1.1598266,0.70047843,-1.4238695,-3.311265,0.8072781,0.049022526,0.8680505,-1.8280761,-2.5381768,1.2305603,-1.6640677,1.6043639,3.21818,-2.6278677,-0.034247905,-0.112638965,3.0623844,1.6135842,-0.40185508,0.6004432,-1.058648,1.1052847,-0.024112144,2.511176,-1.0566472,1.2885282,0.02177753,0.5212718,1.6446085,-0.6748565,-0.44574648,4.1354656,-0.69252753,-0.9742171,-1.8683751,-0.13440336,2.0380726,1.2961181,-1.5969883,-2.0644183,-0.4031282,0.12807006,-1.3652867,-2.5916464,-1.225572,2.1028051,0.022781838,-1.5125042,-0.4030159,-1.5255194,0.90646833,0.67666596,0.4365358,0.80116856,-3.181667,-0.36573908,-0.17156,-0.81634235,-0.37496963,0.3141098,-2.7631955,-0.91382504,-0.12726566,-1.5354372,0.65142846,-0.3153561,-1.7815802,-0.5844287,1.390663,1.6527326,-0.107484795,-0.42647496,2.8192954,-1.8686819,-0.05457352,1.7320048,-1.5095687,-1.3121895,-1.2913944,-0.9565627,1.8066001,1.5489411,0.81702065,-0.55251837,-0.4569943,1.577843,-1.6488526,-0.7136006,0.31274238,1.3658189,1.9027103,-0.14387,-1.4935713,1.3348972,1.4992985,-3.3421965,0.32762823,1.5775055,0.46656337
Lib_55,-1.197321,-1.7932171,-0.09892571,1.7386184,-2.0390956,-1.5092343,-0.15102103,0.6210389,-0.79259944,-0.21280408,1.404324,-0.5805646,0.2607212,0.07033604,-0.6505203,0.28165957,0.49401185,-0.5345151,1.4507989,0.5131603,0.4523623,0.47642738,0.7836622,0.41653195,-0.9735845,0.12610227,-0.85122246,-0.45069382,0.04354134,2.0814345,0.42705175,-0.16071305,-0.6737839,0.36213908,0.3493622,-0.7716118,0.04118097,0.3749197,-1.7901766,0.005575633,-0.082958125,0.8320887,-0.4673303,0.7368286,0.24914114,0.39304334,-0.4569057,0.010403168,-0.59895563,-0.17116192,0.3943593,-0.4782956,0.85837924,0.8265225,0.30767795,0.36881772,0.22668716,0.2032097,-0.85408145,0.3945735,-0.9156326,-0.083752334,1.134205,-0.87376785,-0.45721248,0.019970953,-0.5103041,1.5841858,0.06921614,0.6023981,-1.5479474,-0.31422228,-0.7016784,-1.2423159,-0.97457385,0.052299567,-0.6288863,1.0339599,0.9168208,0.9419083,-0.9101734,-0.22951548,0.6568548,2.0464528,0.107892916,-0.3990327,0.32895702,-0.57739305,0.77635133,-1.3608872,-0.086653836,-1.6317238,-1.6147265,-0.17643982,-0.41807687,-0.97537756,0.38261268,-0.09444098,-0.032599248,-0.7197781,-0.98492765,1.5204386,0.1282413,1.168571,0.3102914,0.12121775,0.27853343,-1.0492907,-0.33013344,0.43069953,-1.2992865,-1.0529011,-0.47862375,0.46254033,0.16198295,-1.2207978,-0.43624842,0.41736135,-0.26591608,0.22397366,0.422927,-0.019738056,0.71253633,0.62115294,-0.73311234,-1.1088289,0.48004055,-0.0073249005,0.5598129,0.085448265,0.79292315,-0.15495004,-0.24534592,0.04538104,1.48169,-0.75685424,-1.4124117,-0.0759224,-0.07070392,-0.27770472,0.26971272,-0.2036898,-1.3358744,-0.9503984,-0.2924901,0.1638661,-0.1853896,-0.6377512,-0.22066158,1.2546061,-1.0401611,-0.9967153,-0.4522217,-0.20246083,0.15236177,-0.4791009,-0.8689025,-0.36712152,-1.4156872,-0.88491386,-0.29530653,-0.025363658,-1.2973125,-0.22622159,0.100947745,0.34473598,-0.4541821,0.57307136,-0.12798564,0.12892142,0.3100462,-0.22582935,0.28886244,1.7513398,-0.4848881,-1.1042755,-0.8253561,-0.49118105,-0.56765467,0.43083864,-0.57725275,0.99103016,-0.48094073,-0.043298602,0.88435173,0.3859163,-0.2022363,-0.6699285,0.5156904,-2.116061,-0.16799623,0.41894525,0.19373946,0.33994702,-0.04562241,0.47216302,0.4598441,2.0686493,0.97642404,0.3452526
Lib_41,-1.0629302,-0.6490864,1.2513199,-0.9794304,-1.14866,-0.51499873,0.23914742,-1.1134171,0.018311987,-2.2102652,-0.021993967,0.34441093,-0.1874827,1.3007575,0.29821956,0.076290034,-1.0966092,-1.7936746,-0.008692522,-0.6986996,-0.23457809,-0.5602082,0.29775274,0.8467964,0.15362176,-0.9360596,0.29972056,1.3102674,0.7945603,-0.92002666,1.179889,-0.39863172,-0.46831754,0.40016913,-1.448403,1.6109992,0.91231275,-0.1995582,0.085196085,0.4437405,1.7151362,0.12662698,0.25236645,-2.0484567,0.51061326,1.1808732,0.2962865,0.41784295,-0.67912626,-0.7962763,-1.2024736,-0.83442456,-0.12534423,0.38701934,0.40690026,-1.9332962,-0.37906495,-0.6025842,0.62107193,1.2127931,-1.0305278,0.46171087,0.11123492,0.46713325,0.93698925,0.6034198,-0.7757776,1.0541207,-0.28746912,-0.3937127,0.9037051,1.2517571,0.9530929,-1.5944109,-0.45376575,-1.6800988,-0.74532074,0.18795688,0.41057542,0.64116573,1.0097108,-0.63125926,-2.7653115,0.35379967,-0.33463028,-0.5222953,0.04456966,-0.3032628,1.1119142,0.78274333,1.0573473,-1.0114679,-0.39630076,0.41866964,-0.95633733,1.6689467,-1.3047552,0.21037178,0.15345156,-0.86241335,-0.7313478,0.09942038,-0.9650114,1.1406494,0.896109,2.0194235,-0.6337412,0.5741816,0.8709767,0.91218215,-0.107266776,-0.0838808,0.9922437,-1.317215,0.6236476,-1.9738135,-1.1357021,-0.41953033,0.11924173,1.0271045,-1.9588723,-0.34137315,-1.8812952,-0.36060798,-0.7448653,-0.07134758,-0.13911125,0.042906627,0.74903166,-1.7564118,0.77068037,-0.8213727,0.45686793,1.4175074,0.95320994,0.32387733,-0.5917776,-1.1932977,-1.0869284,-0.4422332,-0.10853723,-0.45312414,-0.94623923,0.68925434,-0.8473583,-0.92526644,0.631651,0.18159744,1.1507541,-0.7890402,-0.19118232,-1.2192008,-1.1163481,2.3273256,1.1301218,-1.4225881,0.21312295,-0.03897238,-1.2721058,0.48252314,-0.77674645,-0.2620497,-0.7862775,-1.6528106,1.6681577,0.35136455,1.1541561,-1.0882161,-2.0503185,1.3725219,0.25281683,0.62806016,0.75886446,-1.1932403,-0.34360588,-0.3466492,-0.0969039,-1.8714134,-0.96930975,-0.8949969,-0.14965063,3.09188,0.60601664,-0.74040675,-0.5798178,-0.091716826,-0.5153897,0.47020903,-0.44665563,0.1022852,1.5016669,-0.03556559,-0.08481642,0.48361778,-0.59087294,-0.4147599,-0.12196866,-0.5634906,-0.4491401,-0.5140874
Con_46,1.0598675,0.42277575,0.56426436,0.09549142,0.42120165,0.9669296,-0.50198984,-0.6527294,-0.77046,1.0534625,1.8325663,0.23558553,0.8428325,1.0766793,0.11698982,1.177818,0.6839386,-2.0641093,1.4413098,0.57317007,0.02163668,-0.42972538,-0.331644,-0.25086206,0.28462052,-0.14794971,0.096446246,0.8076114,-1.1890134,-0.45290104,-0.5829231,0.68771714,-0.16549507,0.87795335,0.15709633,0.5121474,-0.029520541,0.87176067,-0.73523533,-0.021281848,-0.3897569,0.8260641,1.6129286,0.008670658,-0.8498864,-1.0884336,0.35359558,0.21433784,0.930732,0.03186573,1.6402973,0.86809534,0.39645037,0.2931863,-0.07789228,2.213086,-0.60729134,-1.1357868,-0.51942617,-0.0043573948,1.1385868,-0.39398947,-0.2778646,-1.039328,-0.44002566,-0.4702311,0.27675283,-0.38759148,0.93990034,0.8823537,-0.0012946322,0.6974498,-0.36402616,1.7804023,0.55100644,-0.5015536,-0.54063886,0.94054174,0.056177694,-0.21494322,-1.1132092,0.5085473,0.61018926,0.20533292,0.4505761,0.9061033,0.8451317,0.5215373,0.9285941,0.5883129,-0.06062828,0.28146827,0.29777017,-0.6805675,0.11322647,-0.6679384,0.5251006,1.3139096,-0.79388916,1.2236178,-1.257504,-0.047342155,-0.16863324,-1.7392056,0.062208444,-0.67384183,-0.109514676,-0.07246372,-0.08240318,-0.7264123,0.08197434,-0.57266194,-1.1412222,0.87380826,-0.71037096,-1.6042435,0.0896825,0.9843582,-0.8539041,-0.010787174,1.4088,-1.0417587,-0.90530807,0.6392645,0.01769873,-1.2421706,0.5710323,0.48467648,-0.4203806,0.34578478,-0.7354529,-0.2230035,0.9268024,0.40757155,0.54598385,-0.4419444,-0.21659885,0.77144563,-0.15374407,0.63083625,-1.7209883,0.8249645,-0.1282482,-0.21002398,-0.35232916,-0.5401851,0.37606716,-0.50793433,-0.9124586,-0.22761743,-0.47661358,0.98669696,-0.25089732,-0.49505672,0.42139494,-1.1773388,-2.178794,1.6007745,-1.0512908,-0.32109633,1.3648031,-0.9633185,0.5154281,-1.2763253,-0.20126216,-0.33340934,1.4233358,1.5826054,0.19704726,-0.2161228,1.0223849,0.124798626,1.1752521,-1.0630761,-1.1716806,0.66531247,0.8046178,-0.6816036,-0.18620661,-0.77507794,0.79994833,1.713097,1.0560623,0.30791536,-1.6038319,-0.27733704,-0.36227605,-0.079103984,-0.66961783,1.9069666,-0.5275139,1.7436327,-0.14398392,-0.005686834,1.2880164,0.59092224,-0.98632026,0.18513106,0.8902038,-0.043226093
Lab_44,-0.77682936,-0.33082175,0.23942523,-0.9254288,0.15087888,1.4606478,0.64322567,0.4280082,0.11237707,-0.8433112,0.3878314,0.38119483,-1.2761999,-0.77733564,-0.17819802,0.29481775,0.2552149,0.6714299,1.0258396,0.94968146,-1.1844718,-0.8781453,-0.15658599,0.66355795,0.7498564,-0.6613396,2.7689111,-0.15571511,-1.4395827,-0.2654441,-0.19727468,-0.55307513,0.6184998,1.3166094,-1.5443029,-1.196128,1.8671838,-0.8908995,0.29580978,-0.6019953,0.5851742,-1.1028094,-0.72044134,0.6295358,0.56492025,1.0389524,-0.87219495,-1.6905923,2.357417,0.48028022,-1.5898787,-0.15627675,-0.5093004,0.7501706,1.417388,0.025519243,1.0975574,-0.99834096,0.89106613,-0.6234961,-0.5107886,1.0705343,-0.21940324,0.17036378,1.3993783,0.52635753,-1.8239694,-1.363825,-0.19649692,-0.6445163,1.3340262,-0.7299538,-0.7195006,-1.5130935,1.2059306,0.5025941,-1.845586,-1.8323191,0.5017089,-0.5532996,-1.6178269,0.8829702,-0.37371975,-0.8507017,0.73766917,-0.6319874,-0.26304802,-0.4415629,0.39725867,-0.43346322,-0.69950557,-1.0446523,-0.48741457,0.31295264,-0.57448745,-0.10856374,-1.5709066,0.93938535,-0.38926142,-0.57522964,1.0614698,-0.119020365,-1.9179904,0.92132396,0.8541609,0.32489184,0.13445385,0.011188433,0.49529958,1.0146947,-0.47641265,1.7393521,-0.16449946,-1.553396,0.0018323164,2.5559857,0.114134796,-0.78346336,-0.86811215,-0.39604145,1.2954112,0.2244996,2.7873664,-0.31471768,0.21652977,1.4676666,-0.23140556,-0.7950835,-1.0367764,0.23988895,1.3580942,0.794026,-2.0939496,-0.014878496,1.1163675,1.1208674,0.9436292,0.904593,1.4590505,-1.7261665,0.62621665,0.8362386,-0.5917986,0.32242334,0.15552466,0.7441358,-0.31447253,0.5285036,0.95829695,-0.2180447,-0.09230312,1.0373633,1.4137667,0.38440895,0.3744163,0.2964778,0.47707608,0.20261244,0.36515462,-0.5628725,-1.130929,-0.26453185,0.004202089,1.1086305,1.4172237,1.0017049,-0.97155863,-1.4343575,-1.6963676,-1.0581509,-0.30367383,-0.7464701,0.030721484,0.8319328,-0.08413866,-0.53592974,-0.85957456,0.24219112,-0.7357976,0.5530688,-0.43436462,-0.45717186,-0.41379353,0.8305556,1.8223873,1.289712,-0.43615907,-0.25254616,0.6109949,-1.1601278,-0.6695207,0.050893046,1.0745761,0.43360326,-1.6161901,-1.4833294,0.5248105,-0.9747098,0.9846497,-0.8573807
PARLIAMENT_40,-0.46890545,-0.37697086,-1.9112296,-0.35400876,-0.5336952,-0.45623153,0.669515,3.0475779,3.127264,-0.75758594,3.0459008,-0.4260967,0.43107194,1.808635,-1.6481086,0.816282,2.2884476,-1.405083,-1.2552546,1.712373,-0.23905398,0.64600503,0.46883145,-0.36664525,2.4392934,-0.11895518,2.0308244,1.8185184,0.06575113,-1.1003902,0.872916,1.0158533,0.091505244,1.4484427,-1.7575619,0.8652142,1.000436,0.73428136,-0.006815009,-0.9375143,2.6539955,-0.799345,-0.43349832,2.070854,0.6134659,0.4026419,-0.32310086,2.5542827,1.4583813,-0.33821565,0.8246794,-0.36738363,-1.0828644,1.5462927,0.58598226,0.7737277,0.68582433,-0.44735065,0.3738602,-0.6673238,1.8669227,-1.316968,1.8331513,-0.60576755,1.2661977,0.53318447,0.39522937,-1.7958637,-1.3911139,0.53594124,1.2149991,-0.9430761,-0.42476365,-0.6563705,-0.5075473,-0.57663846,-1.1990136,1.2979196,-0.9663291,1.5829475,1.1029749,-1.2419827,-0.37604478,1.0084195,0.19603853,-1.1953857,1.0503626,0.77125,1.6321794,0.17884031,2.542315,-0.3849528,0.021962477,-0.3533968,-1.8305583,1.7185775,-1.5004246,-1.2337714,-2.1579914,-0.7524116,-0.35959134,0.7623643,-1.6385972,0.93796825,1.2142477,-1.9727856,-2.569814,1.2491559,0.008347621,0.6119778,1.2642269,1.2917701,1.7004367,-2.271549,-0.8460092,0.28109732,0.34043023,-0.50077605,-1.0134532,1.4399129,-1.3423905,-0.7387675,-0.10730396,0.22774892,1.7830907,-0.33837107,0.77655107,-0.7708613,0.5245882,-0.068159655,1.5861462,0.13510679,-0.15495417,2.312479,1.2730242,1.0364878,0.39701954,-1.2156802,0.6375341,0.71354276,1.5365968,-1.0328068,-0.5266655,-0.5269746,-3.1061776,0.70920455,1.5037475,-0.20415564,-0.4824633,1.6158707,0.36085597,-1.9247994,1.143881,-0.3435022,0.15461208,-2.228067,-1.4826736,-1.5097408,-0.9513091,-2.1010823,-1.5794913,-1.1020513,-1.9327533,1.4765754,1.1787772,0.22137801,1.206674,-1.5117512,-3.1055377,1.7860981,0.7704111,-0.15177758,-0.66655993,2.3561943,0.282819,0.1468443,-0.84897137,0.3256388,-0.8678943,0.43886614,0.9225132,0.9364761,0.54175586,-1.7272832,0.7744724,0.115097225,-1.4055153,-2.6193993,-0.20318928,2.3353946,1.4812436,0.5862674,-0.89679563,-0.9664178,0.8524656,-0.8757198,-1.4757009,-1.3677715,-1.6405569,0.41690123
Lib_47,2.4853253,-0.50423837,1.7957453,-0.09197089,-3.5157418,1.0624858,0.5956107,0.18764861,1.0687921,0.90459085,0.08621517,0.14079699,-0.00875941,-0.06806095,0.8954073,-1.2900181,0.28384066,0.2214296,0.77237034,0.13718168,-0.3542861,0.17544459,1.2751747,-0.7010322,-0.910552,-0.5375836,0.21399556,1.914196,0.45771855,0.16648345,-1.233622,-0.47377232,-0.08519746,-0.44068244,0.06420574,0.9679133,0.98538476,0.47314355,0.4897892,2.2367797,-0.24064653,0.08174687,0.05921859,1.3505139,0.8321545,0.50660264,-1.6860121,-2.1068609,-2.5019476,-1.1371098,0.3357299,-0.3742098,-0.9824672,-0.79715407,-0.39221483,-0.5531339,-0.12779626,0.5130125,-0.7585996,0.59105617,0.17837115,-0.007889011,-0.6933107,-0.5366646,-0.5095187,-1.6736841,0.7690678,0.921486,-0.59578234,0.26683843,-0.95760274,-0.7353514,1.86906,-0.3152936,-0.2044463,0.5315051,-0.30886585,1.6656228,-0.9819963,0.92745227,-1.5497373,-0.1408898,0.24815446,0.34660846,-1.5686138,-0.13520364,-1.199958,-1.2501422,0.8844515,0.31214046,0.09059949,0.50168115,-2.395766,0.29671982,0.23946708,0.62296116,0.0020822615,-0.5862324,-0.7313854,0.41166222,0.03763193,0.96882063,-0.14965011,1.255847,-0.32002595,-0.29072765,-0.3307774,-1.3885145,-1.6128953,0.45744738,-0.28749672,0.14770453,0.34391043,1.5813719,-0.24565847,-0.6795999,-0.51619846,1.0962305,-0.5683863,-1.0504397,-0.3091171,-0.5421977,-1.2426317,-0.59887314,0.89003897,-1.9502014,-0.6621169,-0.80086464,-0.8219404,-0.73410773,0.272557,-0.13977249,0.64547175,-1.273605,-1.1980934,-1.1615152,-0.6132015,-0.89004093,-1.235482,0.24474709,-1.6340772,0.3381741,-1.0270126,0.95133054,-0.50112975,0.25117925,-0.41326278,1.320971,0.24966237,0.2438824,1.2744049,-0.5699784,-0.9718964,0.37229204,0.86693823,-0.8880802,-0.47686943,0.65463376,-0.006676058,-0.11438986,-0.053227685,-0.16133414,-0.08246189,-0.7418523,1.318503,-0.96681285,0.50829697,-0.5547326,0.068493865,1.8053483,0.93890536,-0.95471746,-0.18446572,-0.17967051,-0.609537,0.50427973,-0.024006274,0.09112325,-1.4125851,0.101787426,0.7874167,1.9745723,1.611994,-1.0777336,0.1775671,1.3847518,-0.09952914,0.57540995,-0.30855122,-1.1692984,0.2880189,-1.1876243,1.0894475,0.13901386,1.3081475,0.5772234,-0.75380856,1.470396,0.4551851,1.3622941
PARLIAMENT_42,-1.6022868,-2.2697597,0.9619783,0.3039945,2.1885748,0.37530273,-0.47152072,2.9610202,0.9479902,-1.6767821,3.1014638,-0.92217684,0.03760289,1.2177769,-1.5036767,1.9528115,3.2071762,-1.2837785,-1.5236644,0.94590425,0.5363813,-1.0957291,-0.16682802,1.8779233,2.828169,-0.93852377,0.7345263,0.15160352,-0.32033455,0.18977357,-1.4490002,1.3176063,0.84287024,2.7435083,-0.97681385,1.0002792,0.6198004,0.085644975,-0.83457655,-0.8906247,1.2583404,-1.9349954,0.92540896,1.7146664,0.7813537,-1.2019428,1.2878559,1.4573764,0.51452774,0.3925794,0.27581218,0.4412983,-1.0313365,0.72356755,2.1020224,0.40594327,1.8466352,-2.4503982,-0.029477661,-1.8230673,0.31126612,-0.8217775,2.285246,-0.41354337,2.345748,1.0661168,-0.8242164,-0.24583921,-1.458992,0.9282756,0.27818438,-1.4508076,1.2837576,-0.48802105,0.27269134,-0.56699485,-2.3205934,2.071147,-0.33728543,2.9274802,-0.5863839,1.4531902,-1.9763492,1.1285363,-0.889747,1.802396,-0.7025985,1.6248754,-0.23352034,-0.7669661,0.8304755,0.4704518,-1.4736551,-0.97150964,-3.1934273,-0.1770611,0.6391126,-0.40814587,-0.5248316,1.3745878,-0.24635868,1.2423826,-0.62814015,2.2474747,0.6913679,-0.75239384,-1.9567087,-0.23199293,-0.2747251,0.9684557,-0.8024046,-0.18616,1.0201043,-1.0374091,-0.335516,0.8027967,-0.091837764,-1.620927,-0.59091336,-1.4159819,-1.3761438,-0.18400306,1.2109327,-2.1525805,-0.6588138,-2.074133,-0.43419728,-0.47319204,0.29377368,0.30377984,0.22856963,-0.013429293,-1.177952,-0.78391194,-0.11528665,-0.033281315,0.212003,-1.7184008,-0.59814817,0.04778366,0.18461782,0.45848024,-0.42683935,0.25467232,-1.2029287,-0.7235118,0.39380053,-0.7811441,0.31019366,1.3871696,-0.012737108,-2.4003704,0.8060181,0.5319052,-0.63609946,-0.660069,0.25736418,0.44843683,-0.9848694,-3.836792,0.87627226,-2.0646443,-2.5627186,-2.372933,1.1150994,-1.1912456,0.8895442,-1.4146259,-2.428618,1.4239532,1.2797265,0.09491457,-0.75033,0.6154844,-1.735597,-0.020660326,-1.2117455,-0.077086486,0.28230545,0.43734914,0.7411849,1.5330495,1.0841452,-1.6506076,0.08991173,-0.19217642,-1.5544531,-1.7583119,1.173061,1.9910631,2.1289432,1.8288542,-0.19752762,0.33487472,-0.69605047,-0.116376,-1.3559306,-0.50936097,0.8372888,-0.54677904
Lab_42,0.67775106,1.2378559,-0.28113356,-1.987416,1.2754998,-0.8173273,-0.79166734,-0.5948197,0.4460365,-1.1460711,-0.30955523,0.69992554,2.0579224,-0.85912186,-0.86738425,0.14979406,-0.62996286,-1.2219511,-0.6797029,-0.3187856,-0.16595303,-1.3590189,-1.8795271,-2.2490819,-0.038889825,0.56548816,2.9620085,-0.9904671,1.2612875,-2.0811408,-0.5319338,-0.16639866,1.1954126,-1.3530402,-2.1707196,-2.4715207,-0.7549084,-1.0445476,-0.03441418,0.77422214,-0.28888947,-0.26729432,0.87804353,-1.0874637,-0.8603713,1.3353305,1.0057515,1.296217,-0.62405944,-0.20259072,-1.897615,-0.20934507,-0.8012685,0.85908204,1.4789234,-0.50517976,2.431453,0.20591903,0.98097694,-1.0883467,0.50448954,-1.0325415,-0.8983809,0.54941076,-1.1344048,-1.6072744,0.4488532,-3.963497,-1.1011554,-1.5900542,1.7683686,-1.175711,-1.3826233,0.5309271,0.3200351,-0.12210142,1.336241,-0.14284198,0.3489304,0.7814798,-0.21322763,-0.9449177,0.37091863,0.37766278,-0.92892784,-0.7137386,-1.1572629,0.20608014,0.9261246,0.14850895,0.8205647,-1.5018352,1.7208831,-0.37452862,-0.22472382,-1.8630126,-0.51167357,0.11905142,-0.6990308,0.8553775,0.21444775,-0.22104576,-0.36281055,-1.3989972,1.8307065,-1.3567973,1.3865814,1.6577576,-0.8880114,1.9607353,-0.95688903,3.7672205,-0.9954126,-1.7754037,1.0055776,1.5936294,-0.32258692,0.0011536676,-0.14389884,0.37168908,2.2548428,-0.07956432,1.9422381,1.8610725,-0.26707834,0.1948521,1.351199,0.30414817,-0.6365184,1.1838502,1.7425599,-0.98860586,-1.7773268,-0.6257232,-0.15484357,3.1797585,-0.7127812,-0.85519665,0.6573759,1.7889038,0.2829454,-0.8244243,-0.6501119,-0.72080445,0.75618726,0.6313538,-1.5283813,-0.72107613,-0.36381277,-1.6264136,0.98062456,0.18875848,0.68606585,-2.4678354,-0.88042414,-0.04749282,0.3459302,-1.4106519,0.1335695,0.60063696,-1.7392536,0.7656858,1.2842805,1.3683257,-0.6018318,2.2289646,1.3001202,1.4389312,-0.68248844,-0.85628235,-0.56222636,-0.2519441,0.32611325,-1.98385,1.0765418,0.42868987,-1.1225916,1.7105983,0.7896364,1.3184443,0.88593715,-2.4572968,0.70732695,1.2889119,1.3477193,0.11508351,0.50017,-1.8392587,0.84679335,-0.42166737,0.09943397,0.11790333,-1.8376894,-0.10682513,-1.8964292,-1.6674993,1.6767447,-3.111858,-0.75844455,-0.034909878
Lab_55,-1.9271888,-0.2123457,-0.34797782,0.423944,2.3799825,-1.0383761,0.44657147,0.09169125,0.3173789,1.135238,-0.09987826,-0.8485083,0.77069044,0.040724605,-0.31496662,-0.0015565756,1.0832973,0.30811468,0.024083154,1.7109536,1.0400305,2.1376038,-0.9322405,0.9186591,0.5235648,0.4931119,0.61474407,0.7347954,-0.8409027,1.1051083,0.20024198,-0.32804754,1.010238,-0.0017403291,-0.5435012,-0.61076474,-1.5390075,-1.3582207,-1.0151948,0.747775,0.7398855,1.2181189,-0.19316423,-0.10277732,-0.8580762,2.0153964,-0.32982442,0.36942568,-0.9943441,0.31132028,-2.1397145,-3.3310118,0.72900015,1.131095,1.0622141,-1.0272819,1.7921917,1.2642933,-0.7066476,-2.1053913,1.102116,-2.9053257,0.48541436,1.3020306,-0.96215594,-0.4419146,-0.8389259,-0.8548334,-0.3044666,-0.92008364,-0.710144,-0.39104462,-1.2194673,-0.23753795,0.11480837,-0.066246636,1.8031659,-0.044212967,0.26402336,0.07675019,0.68447566,0.2691852,0.94012666,0.40549633,0.032761432,0.90174377,-0.11225557,-1.3789074,0.518348,-0.29358026,0.15807362,-1.1609675,0.41705126,1.4430727,0.20727919,-2.8288627,-1.7556772,-0.15272331,2.4803708,2.2163196,-1.4672179,0.27636933,-0.5907622,1.7044983,2.3217397,0.44669336,1.7637624,0.038973425,-0.9449276,1.2365146,0.5636397,1.0823084,-1.4695634,-0.8352444,-0.24589026,0.57712066,-0.1841692,-0.09120604,-1.5730801,0.40617278,1.0846093,0.27557802,1.7619901,0.14930595,-0.9222813,0.39098373,1.3830007,0.3157168,0.3783069,0.7978202,0.1709563,0.32699567,-2.1390867,-0.885679,1.5939503,-0.09132864,-1.4877505,-2.465506,0.22108008,-0.35547194,1.3244665,-1.0935364,-0.031225625,-1.5518351,-0.1512288,1.0429482,-0.58011365,-1.9288349,-0.29165694,-0.074561946,0.07118502,-1.6834971,0.2282413,-1.7207236,0.14751041,1.4371532,0.4424159,-1.091752,-1.0410886,-0.55396855,0.6621886,0.33204907,1.45112,1.3034661,0.41075993,1.2129183,0.58794,3.1747396,-0.5714821,-1.4962635,-1.6146854,-1.2553414,1.1110879,-2.0181289,-0.09288242,-0.8951707,0.22321746,1.3180057,1.5627675,2.2216015,0.21155502,-1.0846765,-0.26696703,-0.42935812,1.341904,-0.40684706,0.92741257,0.04437283,1.0026892,-1.0773959,-1.6353005,0.07210733,0.4253663,-0.26669094,-1.1476873,-1.8160621,3.1000257,-0.70766425,0.052672066,-0.1411743
Lab_39,-0.6794855,-0.43746084,-0.4817758,-0.18407719,0.7067485,-2.6911635,-0.3461475,1.1857927,1.7994998,0.048035827,0.864157,-1.5111543,-0.5595314,0.8279401,-1.8613052,1.780773,1.9224545,0.4706339,-0.3622871,0.039149355,-0.58695173,-0.034495763,-0.35254306,-0.91154367,1.8903688,-0.084200725,2.0187702,-0.3519193,-0.6056625,-0.097415306,0.64287215,-0.58693296,0.42087796,0.5660764,-0.5978933,-0.70357996,1.5169952,-0.5493657,-0.43748468,0.9342634,0.23289369,-0.8788769,-0.87968403,0.25956726,0.6622304,2.222776,0.26549414,0.7459959,0.65737826,-1.1077164,-1.4780033,-0.22061719,-0.2741766,1.4787947,0.4533677,-0.22493963,0.9429204,0.79868627,-0.04921058,-1.0635202,-0.19907895,0.27579236,-0.15131882,-1.6559738,0.6735362,0.4379209,-0.5410321,-0.99925095,-0.34407154,-0.8881139,0.6812414,-0.7234867,0.21763314,-1.1529423,-0.45811144,-0.012440322,-0.0006766322,-1.1449852,-0.6144328,1.1790136,0.107889555,1.5868548,0.08268971,1.0298837,1.1023531,0.113023564,-0.047614977,-1.190787,-0.007957742,-0.4155112,-0.065536775,-1.2615329,1.2541881,0.8362614,-2.363482,0.38978398,0.05667273,-0.52338195,-0.15843385,0.044992708,0.823073,0.68786937,-1.2695092,-0.34195518,1.1434323,-1.2389153,-0.3645531,0.280356,-0.48337045,1.4970794,-0.93595904,0.912875,-0.9499986,-0.22247645,-0.26898652,1.5319852,0.54355013,-0.9520453,-0.8434523,0.38051397,-1.4382201,1.2606126,1.8787228,-0.117579214,0.93442106,0.563674,0.38227218,0.5057912,0.009338826,0.428465,-0.18015337,0.34275144,-1.106839,-0.8392921,0.8839083,0.8943217,-0.056687973,-0.2919892,-0.2945978,0.62543523,1.2667358,-0.5662896,-0.6330263,-0.7432396,-0.58369094,-0.017760335,0.8661095,0.530296,-0.039614014,-0.50491977,0.3534839,0.8879888,1.9334563,-0.5334758,0.929232,-0.2996651,0.16488548,-0.22818871,-0.5409497,-1.0269688,-0.9474984,0.61428374,0.59929,1.2296822,0.08442596,1.7043017,0.68780535,-2.1834574,-2.5496342,-1.2149953,-0.64403313,-0.5249606,-1.0498934,-0.1331719,0.12926488,0.5044742,-1.2171892,0.36867258,-0.9526234,1.6778326,0.53351647,-0.33035386,-0.15568125,0.14313778,1.2637454,1.186433,-0.6014117,-1.2920125,0.46346053,-0.17018239,0.7793083,-0.4238578,-0.82810104,-0.4476432,-0.16383705,-0.95385456,0.3877479,-1.7826246,-0.32387748,-0.65387756
Lib_52,0.0016687744,-0.443482,0.67089003,-0.4477324,-0.6542659,-0.26346257,-2.294795,-0.545203,-0.3763512,-0.4604716,-1.095288,-0.38142213,-0.29502797,-0.31646687,-1.0250818,-0.7707376,-0.7956172,-0.7085203,-0.70649946,0.32142338,0.24066935,-0.4505274,1.9565669,-0.31598094,-2.1996133,0.36144516,0.040160004,0.7968159,-0.28742173,0.62679744,0.5027357,-0.7689906,-0.45224395,-0.82796323,2.1239376,0.6685506,-0.05284649,1.1137123,-1.1005068,-0.75511134,0.050004035,0.43569437,-0.36511168,-0.4094774,-0.11159932,-1.2669837,-0.18413429,0.20309791,-1.3661317,0.37680066,-0.038898375,-1.2420933,0.06715031,0.4440931,-2.0207374,1.0096643,-1.1462921,1.377512,-0.14789614,-0.93254006,-0.847929,-0.27724943,0.2898873,-0.24265778,0.097830586,-0.32176507,1.0276598,-0.7461002,-0.46850228,0.27574307,-1.7620149,-0.27895424,1.3290234,-0.2838836,0.6101202,-1.0178363,-0.37548128,0.39610514,1.0745753,0.7624462,-0.60062164,-0.27391106,0.5765329,0.6127637,-1.1598061,0.36036497,-0.28307834,0.867207,1.4643462,-0.22402926,0.48350707,-0.1475305,-0.33726093,-0.1633594,0.2906612,0.1976326,-0.3778993,0.86911666,0.16069871,-1.4557456,-0.38018912,0.67654544,1.4143771,-0.94677204,-0.14309953,-0.36159414,-0.058860045,-0.51084495,-0.49928805,1.378541,-1.2589313,-0.47889712,-1.0961808,-0.6071638,1.9407572,-0.3477748,-0.49771014,0.44216532,-0.9697277,0.34207338,0.6358497,0.96610266,1.4839317,0.12474912,0.1185314,-0.58688307,-1.0268924,0.844974,-0.30136433,-0.0049186265,-1.1663169,0.59181637,-0.60487205,0.4207965,-0.049092457,-0.48918504,-0.6466631,-0.41332364,-1.6660416,1.6240854,0.5305047,-0.6661145,-0.22253436,1.1173228,1.1571084,1.681248,-0.6000344,0.6732192,0.27634344,0.5954721,-0.8406621,-0.1415242,-0.39336842,0.45215836,-0.6458648,0.7332101,0.0081528,-0.66373825,0.37854075,0.28610113,0.006239954,0.20905808,-0.4163894,-0.21464857,-0.6330473,-0.16659237,0.06777156,2.1072543,0.47888786,-0.34525332,-0.21980172,0.31309628,0.31036052,0.8495464,1.5644897,-0.24252976,0.621094,-2.3875747,-0.5904289,0.16115479,-0.27013245,1.460173,1.2881416,-0.6612836,0.88254315,-0.081955686,-1.8987194,1.0931122,-0.7725338,-0.28611258,-0.66624165,1.5285677,0.85530376,1.2234048,0.3290906,1.7461592,0.4381231,1.4158044,0.80453074,0.53277975
Lib_48,-0.89841753,-1.5189877,0.12063088,1.0464333,-0.41231552,-0.22523567,0.33530408,0.7590877,0.039534703,-0.21738312,-0.55298406,0.43543935,-1.7542456,0.8534824,-0.4317146,-0.9064431,-0.53689224,0.0096084075,-0.52615273,0.06325772,-0.5468723,-0.49468642,1.796056,1.9470264,-0.73874074,-2.035436,-0.7249149,2.0498416,0.6799062,-0.25184134,-0.13789734,-0.38209683,-0.3113201,0.63333935,1.041914,0.40502924,0.45333758,1.0072699,-1.0222577,-0.7748465,0.10366718,-0.6609832,0.19016518,1.4785255,0.65306365,0.12864938,-1.134927,0.21375065,0.076232195,0.20663951,-0.25756872,-0.37390336,-1.27522,-0.6781439,-0.7782767,1.3725239,-2.9251187,-1.1897206,-0.32743058,0.37135783,-0.3168673,0.093637675,1.7635981,-0.19155519,0.36330354,0.033792436,2.2292936,0.09691941,-0.16422644,0.5773468,-0.5530518,-1.0231624,0.23126756,0.079226,-1.3235013,-0.4462923,-0.54986525,1.6788591,-0.24659228,-1.1904917,-0.121820636,-0.55796516,0.19404809,-0.6622614,-1.1517761,1.4516283,-1.0376011,-0.7257255,0.20428377,-0.032074973,1.2142031,-1.0791775,-1.3755422,-1.2868606,-0.7456426,0.6620221,-0.1013413,-2.3789144,0.13436835,-2.1631777,-0.5962842,2.5634463,-1.7546369,-0.5886235,0.15845954,1.2608216,0.6778305,-1.1277937,-1.8464528,1.2192442,1.8193878,1.9487919,0.087518856,-0.24105676,-0.4049213,-1.7362137,-1.0353708,-0.8165929,-0.26458162,0.117548674,-0.7076658,-0.13651648,0.25130412,-3.4775121,0.67134434,-2.2247338,0.9481534,-0.17992143,0.4388295,-0.9335874,0.12941596,0.37471777,0.2526585,0.4254891,-0.1272489,-0.85573477,0.25581935,-0.49301624,-1.1595064,-0.21840617,-1.4317577,0.8065211,-0.32453537,0.38991815,0.5492758,0.61280185,0.6523003,1.115841,-0.71014345,-0.2163835,0.37021616,0.015045878,-0.37096238,0.9781903,-0.40230122,-0.5898693,1.3324858,0.88106906,1.5421562,-0.58209944,1.5003552,0.19643328,-0.13027744,0.44161683,0.69815403,-0.9332499,0.38683048,1.3198284,0.7440969,-0.7054198,0.4247482,-0.23088855,0.18447532,-0.8048979,0.37769547,1.0103781,-1.3170532,-0.08896494,0.10971066,0.60670733,-0.32010216,0.3253634,-0.6652713,-0.2944393,-0.8031667,0.61797184,-0.14920236,0.302012,-0.419443,-0.84332365,-1.8095068,-1.1698302,-0.092650376,-0.21295923,-0.21228567,0.8125501,-1.1398059,1.8341367,-0.6910106,0.7785953
Lab_43,-1.2873924,0.71751297,-0.47362456,-1.3869385,-0.094205216,-0.15406296,-0.12690465,0.13450561,0.7180433,0.10761194,0.56855965,0.6631061,-0.9113508,-0.2802677,-0.7951271,2.4579346,0.6886415,0.95938003,-0.16383193,0.18974257,-0.7246792,0.38155892,-1.332531,1.2284197,-0.51417595,0.5760876,1.4317714,0.11961748,-0.18073623,-0.58061206,0.013064373,0.9419219,1.7763658,0.58830047,-1.3229098,-0.077315144,1.5426366,0.13803545,0.18722591,0.18913272,0.0049966937,-1.276999,-1.0685291,0.3338757,0.6042747,1.0190607,0.33048648,-0.37878948,1.2798626,-0.4277454,-1.2562373,0.2828278,-0.44349805,0.5442543,0.6705367,-0.3131914,1.489707,-0.00885957,-0.13595195,-0.014317652,-0.18011063,0.34436068,-0.07927728,-1.2995687,1.1437821,1.2976257,-1.1134644,-1.1495774,-0.7362134,0.141248,1.7334988,-0.972986,-0.18102598,-1.2228485,0.8311457,-0.6215266,-0.68250775,-0.745864,0.15399037,0.52016973,-0.15905629,1.1934984,-0.24883853,0.80182785,0.6948384,0.69874305,-1.174999,0.11883869,-0.04514875,-0.70253503,0.86162215,-1.665236,0.53784597,0.04670144,-1.0938499,0.6095461,-0.8154825,-1.1877803,-0.66213447,-0.13308147,0.62142223,0.07989153,-0.17563428,0.47470024,-0.02538034,-1.3770766,0.3992882,1.1077939,0.795495,0.25816578,0.18758166,1.5576987,0.026463622,-1.1816794,-0.9304739,2.506095,-0.06776352,-0.2529645,-0.45061332,0.37100276,1.6768818,0.9037349,1.9661039,0.06289772,0.16613118,0.4169756,-0.031740334,0.5351764,-0.92655253,-0.041006804,0.55649626,0.2031731,-0.9361143,-0.39852017,-0.43520546,0.8732427,-0.467753,0.113583334,0.22545552,-0.30624762,1.1245317,0.7439658,-1.4980913,0.44828084,-0.014299235,0.24103902,-0.80452174,0.12895572,-0.35691383,-0.21868739,0.7012553,0.971059,1.2880651,-0.7298114,0.3387035,0.6228666,0.08296207,-1.2986574,-0.3103184,-0.79211146,-1.7367009,-0.47802913,-0.9538769,1.2628715,0.7494969,0.36330414,0.42375243,-0.76323384,-2.4292886,-0.35432765,-0.8694833,0.5802108,-0.5502915,0.21947111,-0.73760533,-0.10708407,-0.3049962,0.24310711,0.03321018,1.0441806,-0.45066318,-0.62258273,0.4287526,-0.6661493,1.2421432,0.2244038,-1.0877485,-0.41027114,0.37493294,-0.6047017,-0.31389707,-1.2009394,-0.2167306,0.25909394,-0.68953454,-0.053737476,-0.0019734493,-1.9260283,0.07570778,0.43926975
Lab_40,0.24072224,0.45055407,0.7844059,-1.7564684,2.3926518,-1.3925362,-0.99718505,-0.93738294,-0.5087422,0.85156,-0.6493416,-0.53730005,-0.6073593,0.45023754,-0.20444153,0.6851415,1.4282601,-0.16844262,-1.4387993,0.49016318,-0.57871723,-1.2223043,-1.5681268,-0.78991145,0.90296763,0.057380587,0.8388444,0.42224467,0.25804687,-0.5783542,0.042594895,-0.21677093,-0.25505024,-0.77748585,0.2208061,-1.0736282,-0.5691044,-0.8192562,0.10258424,-0.07065737,0.6528339,-0.8680488,0.81306237,-0.20708367,-0.66559374,0.9236365,0.5583316,1.307398,-0.45833558,-0.745288,-0.8782826,0.52350277,-0.5290073,-0.15808141,0.42779142,-0.99520475,2.159727,0.5617325,-0.18525001,-2.487733,-0.86662734,-0.08445458,-0.015521239,-1.5766047,-0.11688849,-0.7562206,-0.7410027,-0.7159922,-1.0937438,-1.0848955,1.8456614,-1.6848593,-0.55254877,-0.14734076,0.52453876,0.62957686,0.45309284,-0.101813905,1.0107172,0.6825897,-0.6638626,0.105679356,0.19432846,1.1864469,-0.09936013,-0.595728,-1.6248722,-1.2239051,0.4306928,0.32195216,-0.46094164,-0.92141706,1.0170921,-0.28360257,0.24821362,-1.2699682,0.9547617,-1.4831622,-0.041600898,2.0025737,0.5686415,-0.17276745,-0.6267825,-1.0475099,-0.24765725,-1.0752585,0.8769507,0.17464279,-0.48302338,2.1504798,-1.3326846,2.1980138,-1.0863853,0.09817551,0.23911753,1.3973166,-0.49746886,0.83434874,-0.35424754,0.86136466,0.3851079,-0.80896854,0.66896456,0.2424874,0.9500885,0.22483134,1.0658174,0.38016617,-0.5982587,0.40671045,0.1821391,-0.2333024,-0.76077396,-0.9832625,0.8660903,1.3358893,-0.14738709,-1.9066721,-0.71498656,1.6015661,0.53961587,-0.23946677,1.2456697,0.87039375,-0.27945092,1.509282,-0.68297523,-0.54141283,-0.7390046,-0.42106667,-0.3384803,1.3475566,-0.20754364,-0.95470566,-0.22150889,0.15848684,-0.27937445,-0.7901941,0.8453221,-1.149725,0.14298041,2.0993698,1.693073,1.6284517,0.6162761,1.1978917,1.0419838,0.86719674,-0.87808144,-1.1043537,-2.9565713,0.30435374,0.16403,-1.0066373,-0.2841429,-0.29338223,0.5228115,1.2424763,0.59763634,1.3427906,0.13281488,-1.7083642,0.54188496,0.41020077,1.7933137,1.3502302,-0.08338066,-0.4002222,1.833161,-1.1850388,-0.55383897,0.16095807,-0.9604416,-0.17036296,-1.5937337,-0.46523976,0.8789926,-1.9522673,0.25331184,-0.020141479
Con_55,-1.1680335,-1.6780838,0.043116767,2.4019544,-2.043769,-1.2307494,0.2694491,0.025787275,-0.85442,0.48399273,3.2309344,-0.856289,0.14792924,1.4117454,0.61499447,-0.73501164,1.8731679,0.49829608,1.4022547,1.009397,0.4214529,1.8113768,-0.05285178,0.7697245,1.2791677,-0.25105548,-0.63143647,-1.0810117,-1.3643608,-0.089440875,2.4718993,0.2725876,0.9349151,1.2159938,-0.10656027,-0.37773204,1.6095594,0.88810724,-0.018387148,0.25528055,0.0907975,1.2609224,-0.2276627,0.7495596,-0.56535566,0.16019076,0.48710465,0.41707572,0.90264213,0.8595797,1.7251805,0.38794565,0.8422593,0.6101203,0.7293032,1.6541402,-0.3468884,1.5195763,0.5720816,0.82038033,0.29210383,1.155614,1.2408592,-0.31489772,0.41864824,0.15164325,0.051101618,2.325182,0.2141942,0.6219605,-0.68709695,1.1163995,-0.25301698,-0.0061000832,-2.5870562,1.1921645,-0.09484809,0.8813419,0.42043802,-0.89558625,-1.17769,-0.27372214,0.9274411,0.53225034,0.75627,-1.107276,0.4099327,-0.5379711,-1.2284805,-0.36382928,0.27003726,-0.6845746,-1.0914882,-1.0846325,-1.2653881,-0.6591809,0.3024931,0.5334858,0.8107313,-0.4267344,-1.1646783,-0.9104403,0.64254147,0.61447334,-1.4179827,0.64165944,1.1739421,-0.8769542,-0.89609295,-2.1104338,0.16997734,-1.3199914,0.14532706,1.6789411,-1.0167918,-1.7029377,0.7466891,0.73721796,0.8134915,-1.0232497,0.15685846,-1.4717607,-0.031107247,0.70863396,-0.19943255,-0.5355874,1.3819593,0.29797524,2.4445913,0.067020886,-0.32663786,-1.420629,1.7034625,-0.398772,0.75573015,-0.72327524,-2.310168,0.6215882,0.9623889,-0.9756555,0.5891526,0.66118246,-1.5649682,-0.8681856,-1.2603427,-0.67333186,-0.32293418,-1.5807618,-0.68213063,-0.5564133,-1.4803034,-0.013945326,-1.2303425,0.37566343,-1.1333274,-0.7924507,-1.0799558,-0.08579718,0.36075622,-2.4327345,1.171351,-0.419606,0.016720284,0.2548533,-0.8250137,1.5277926,-0.6755108,-0.19115616,0.03481383,0.7226805,0.3911817,-0.28361434,-0.05008929,2.6820912,-0.9016254,-1.3854959,0.50950944,-0.042868868,0.64472175,0.16913535,-0.39535484,1.2249569,0.32855856,-0.079473905,-0.56952673,-0.12541,1.1644789,-0.63235027,0.21341844,-0.5647907,0.8677455,1.4795151,-0.64155823,0.12905629,0.6391795,0.41509452,-1.5293432,1.1600336,1.6678507,0.08588072
Lab_47,1.8817227,1.2682508,1.2747935,-3.1401422,-0.6658508,-0.7229729,1.1201073,0.4109977,0.44222373,0.74626523,-1.199878,-0.065816544,-0.45492038,-2.248527,-1.3602544,0.9333886,0.8043524,1.2350857,-0.08376826,0.98398924,-1.7746353,0.009920217,-1.045796,-0.8253614,0.44886488,0.5347313,1.2318071,0.8279501,-0.80518067,0.98501927,-0.3647094,-0.067653134,1.2934703,-0.071581714,-1.3512539,0.8930422,1.799622,0.05239772,1.8226242,2.252891,0.009904296,-0.007968362,-2.0035446,0.7195141,0.8674773,2.5707328,-2.1160288,-2.6136835,-0.09511855,-2.1656442,-1.7391653,-0.17529723,1.0875915,-0.33830696,1.4607612,-0.2742529,2.2921894,0.045709882,-1.2600137,-1.434995,-1.1779362,1.1640321,-1.472498,0.20682885,0.38776687,-0.28136012,-1.1097412,-1.1637783,1.2892439,-0.12914331,1.63928,-3.2385664,0.70456684,-3.0010228,1.4759905,-0.34813422,-0.74116725,-0.4412505,-0.88862985,-0.2824379,-1.4692254,0.60556245,-0.76738113,0.29844573,-0.42669854,-2.2231846,-0.1903599,-1.0262581,-0.61253184,-0.5885913,-0.48167244,-1.4497924,-0.9431367,1.835432,-1.4932384,-0.9474125,0.8524388,0.71000475,-0.08841731,1.2314363,2.9302306,0.19719733,-1.2783059,0.9852776,0.614955,-0.7581339,1.0947998,0.5034669,0.00846429,2.521474,-0.25336477,1.1366117,-0.72866905,-0.22733998,-1.9836082,4.0056,-1.2406342,1.1294129,-0.42046183,-0.060367595,0.9415029,1.0170674,1.3551332,1.4886138,0.93274516,2.1965747,-1.2763796,-0.88636035,-2.6853094,0.07638815,-0.15177822,0.5504593,-2.001345,-1.304432,-0.48086452,-0.05275527,-0.68563247,0.02497885,-0.71381116,-0.13008712,0.83487624,-0.0095508285,-1.0641056,0.25468424,0.28753495,0.5117781,-0.12521282,1.2103403,-0.43122292,-0.5967898,0.7071693,-0.06636315,0.63715076,0.3721425,0.45126495,1.630455,-0.21582508,-0.19949079,-0.5108905,0.4799031,-1.2610658,0.28793463,-0.242932,1.2749808,-0.2064479,1.4943609,-1.7912276,-1.2610201,-1.4631894,0.51088303,-0.02149286,-1.1290656,-1.6592666,0.5959549,-1.0826167,-0.21671456,-0.13397163,-0.48323536,-0.86691684,1.8692784,0.46937966,-0.5774754,0.5565438,-0.2848622,2.2061179,0.6756506,-0.8956059,-0.5228075,0.5318171,-1.9143242,0.8384222,-2.7257328,1.1749154,-0.4819282,-2.123916,-1.4581547,1.0027112,-0.25035328,1.0020827,-0.17357467
Lab_52,-1.6241325,1.6057153,-0.47143346,0.34559885,0.07254219,-1.7525382,-0.5294993,0.21771008,-0.7895024,-0.6596074,-2.232537,-0.9732075,-1.7298746,-0.3170878,-1.8769557,0.83947825,0.20240688,1.210388,-0.42713916,0.9650156,-0.29203525,1.1752348,-1.6249961,0.18889242,0.19578514,-0.007069857,0.61728877,-0.42959747,-1.3891938,1.4440956,1.7847673,0.08151456,1.1040086,1.2249436,-0.14051245,2.1851132,0.19780196,-0.49254563,1.3506954,0.42791122,1.2656924,0.31672227,-1.6526097,-0.6344388,0.96999544,1.4933873,-0.83702326,0.61763895,-0.6336357,-0.14218964,-0.0021366044,0.25535274,-0.29690418,0.060251474,-1.66286,0.81128967,0.72348166,2.2731073,0.2319964,-0.7295547,-2.2393415,2.1496582,-0.17721424,0.40348217,1.477917,0.7447484,-1.7020555,1.222617,0.6155617,0.7666097,-0.06512071,-1.0287775,0.17284314,-1.8717273,-0.75505465,0.80025077,-0.45933297,-0.53134906,-1.2613751,-0.36471733,-0.188069,1.8099174,0.09305025,-1.4722807,0.6075139,-2.8698964,-0.74132186,0.5809915,-0.11210697,-1.5514472,-1.1855279,-1.4597213,1.2463214,2.3238635,0.7545589,-0.09237062,-0.8806206,1.3903342,1.0845143,-0.3135672,1.4534664,1.0118984,-0.3958558,0.5057348,1.3165296,1.0863932,1.6792046,-1.0271541,-0.4985445,-0.17175335,1.2429218,0.65530205,-0.19315015,-0.96747154,0.32696465,2.1868155,0.71956044,1.1809522,-0.7504876,0.26712808,0.25913957,0.09175375,2.8515556,-0.42004323,1.3607613,1.4632095,-0.30947646,-0.01979372,-0.882714,0.18212725,-1.8872283,0.5853832,-1.3828442,-0.804861,-0.062318712,1.8108141,-1.7646252,0.012575224,0.21570611,-0.40297905,1.4115645,-0.03837892,-1.9350088,0.03443572,-0.13233423,0.27722347,0.06101451,0.90271986,1.3644252,-0.8597537,-0.6118727,2.3293552,1.420649,-0.47604448,-0.41909304,1.4751202,0.32495546,-1.9051895,1.0566609,-0.063955195,-0.64579505,0.4327592,-0.23467906,1.2682506,-1.0296046,1.0380896,-0.07189702,-0.48169422,-0.4805803,0.5554787,0.22397287,0.0020153841,-0.710215,1.3592024,0.008620681,-0.5288312,0.81961256,-1.7347302,-0.41211733,1.02443,-1.3997682,0.3155275,0.023622632,0.08330947,1.584163,0.65516686,0.39830762,0.56534183,-0.30132574,-2.0217142,-0.4428499,-1.4688946,0.8932637,0.6747074,-1.8303758,0.8327007,-0.393213,-1.1866121,0.65382737,0.110037975
Lab_45,-0.7387407,0.16599719,1.4866531,-1.9049867,1.4902693,0.21792284,1.4453064,-0.65288883,0.91046566,1.6648816,-0.25008106,2.5778809,-0.67014617,0.15127414,0.3126706,0.76540715,0.53977996,-0.022631926,-0.796146,1.7597883,-1.2991347,0.25560078,-0.25033662,1.7830888,-0.2889461,1.3342721,1.0959272,-0.5297338,-0.45949394,0.18807565,-0.4802678,0.34869334,0.6837453,-0.5116026,-1.9745965,0.19414838,-0.7324654,-2.2504635,-0.7413527,-0.50922114,-0.26162416,-0.857132,-0.39905924,-0.79000735,-0.4754136,0.8024482,-0.6708124,-0.48001197,-0.07702854,-0.61773306,-2.945653,-0.046208303,0.086457565,0.80791575,2.2007344,-1.3596127,1.285504,-1.3988793,-0.8467921,-2.4878995,0.2195243,-0.6735806,-0.20045625,-0.41040206,1.186341,0.41449252,-0.72776616,-1.6604933,0.51372486,-0.19249538,1.3722535,-1.2872783,0.7762926,-1.1537917,-0.18560565,-1.2441641,0.24510105,0.4874711,0.3854295,-0.75335026,-0.2141333,0.26959354,-0.05312298,-0.06741894,-0.3014252,0.031209787,-0.20230821,-0.13500577,-0.51666933,0.37569317,0.25853264,-1.5040753,1.2285314,0.1365865,-0.45201948,-1.7236614,0.35923353,-0.07164904,1.2906975,2.0945306,-0.21033315,0.4516562,-0.041968964,1.7655971,1.909789,0.66365963,0.19192149,0.13942364,1.545717,0.51259136,-0.9050105,1.934423,-0.5865673,-1.6006504,-0.6160514,2.112326,-0.9646145,-1.2634462,-0.56568545,-0.2659087,0.25819618,0.6342554,0.9233847,0.85874784,-0.32348543,0.90204227,0.12170992,0.5220603,-0.6546228,-0.41554835,0.9814588,1.3931022,-0.90578645,-0.72145534,-1.2737505,0.39193153,-0.6649453,0.29128847,-0.075066306,0.7087421,2.0866125,-0.73810995,1.0244386,0.26319787,1.7703949,1.1871291,-1.6082267,-0.3015009,-0.24169198,-0.9044037,-0.2879197,0.6953691,-0.1017633,-0.31448427,0.6347007,1.7927437,0.83015186,-0.8080493,0.57349247,-0.5235856,-0.59800965,0.4094081,1.918965,1.5633792,0.29024294,-0.92920506,-0.40903842,0.7996875,-0.7305732,-0.6873049,-2.154925,-0.10021641,0.343083,-0.9121258,-0.062128004,0.58548635,-1.3105439,1.2127534,1.9046943,1.500114,0.07487119,-2.449142,-0.7566392,0.6823338,1.5223472,1.1067158,0.7294626,-0.056788668,1.1769423,0.6208866,-1.077748,-0.9319328,0.2577843,1.2602956,-2.7193286,-1.0732163,1.1797726,-1.8745435,0.04867588,0.5256436
PARLIAMENT_44,0.44143316,0.7365499,-0.44019884,-0.82680535,-0.13124871,-0.9235743,-0.19486612,3.290967,0.12941253,-1.2899657,1.804976,-0.78731,-0.116058215,0.168201,-0.79767174,2.824723,1.3525283,-0.56900036,-3.0195813,2.3649998,-0.93046546,0.027134385,0.37543252,0.6333799,2.2055547,0.3040701,-0.5737241,2.027762,0.14885758,0.6996111,-0.61415935,4.468755,0.6121922,0.6268592,0.08259227,1.3721215,-0.3964013,0.3245298,0.99321526,0.0015348933,2.03692,-0.8240466,1.4622034,-0.42771652,0.50436616,-1.0939671,0.16266678,1.673503,1.7089617,-1.9388617,0.7102615,1.796878,-1.0567496,1.754265,0.78299737,0.6803347,-0.5658542,-1.4058819,-0.6635034,-0.4347718,0.7042143,0.8347325,1.5739915,-0.6836651,2.0657854,-0.8250127,1.0865806,-0.9092685,-0.23311067,1.5812396,-2.1042738,-0.13318646,0.22433381,0.601922,-2.316926,-0.23579559,-0.8802421,2.6288,0.29648483,1.4106654,-1.3032423,1.0937914,-0.26737094,2.00978,-0.087070204,1.5954051,-2.6608546,0.97334,-0.45028502,0.8501765,2.3598912,-0.097478196,-0.030178852,1.0172261,0.3927663,-0.23173706,-1.376221,-1.3736377,-2.8198664,1.5298868,0.4011108,-0.42945564,-0.0720723,-0.4478002,0.63562644,-1.9133292,1.1647129,1.2983692,0.13471192,-1.2494662,0.6568526,-1.4023025,1.2495326,-0.7592098,-0.4924872,1.3429621,1.6916996,-0.33664364,-1.7792773,-0.7452341,-0.030839056,2.131833,1.0456704,-0.17659435,1.1284964,0.08088799,0.7568283,-0.9687667,-0.17995353,-1.0052654,-1.355436,0.15491456,-0.16068584,-0.53324443,1.2697353,0.29879484,-1.6055309,-0.757443,0.2548233,1.4291393,-0.32289544,0.6002566,-2.0991225,-1.057652,-0.77509326,0.45832962,0.2516519,0.0073380964,-0.19272234,1.75601,2.0629928,-0.08841127,0.47304156,-0.1011723,-0.017966602,-2.5727508,-0.86702704,-0.5950737,0.020751154,-3.287321,0.7371532,-2.5873852,-0.28784075,-1.2242205,2.0775874,-0.6976515,2.0189755,0.15569429,-2.073622,0.7396465,2.7172654,0.51745933,-0.2934418,0.722626,-1.3823988,-0.32382533,-1.2218853,-0.8056593,-0.520754,-0.4369407,1.5079311,0.82859564,0.5796603,-1.8160673,-0.9305116,-1.3373811,0.36491618,-1.2981609,-1.3789434,1.7944324,-0.057659682,0.7460847,-2.1253207,-1.0724852,0.92602384,0.93699145,-0.8779422,-1.3494684,-0.33639166,-0.8850233
Con_50,-1.0971084,0.32883796,1.5815636,4.347254,-2.3183603,1.2075711,0.5079221,0.4179502,-0.9473322,1.5773493,0.4665638,0.15553364,-1.1030922,0.22087269,0.63359576,0.33796895,-1.040875,-0.36610568,1.0686971,-0.60972494,0.20402585,1.612066,0.18684967,0.9779905,-0.1248402,-0.36009198,-0.8827109,-0.69596064,-1.9216075,0.9315184,1.5752026,2.1389458,0.4011721,1.1671999,0.51401854,2.3893433,2.235993,0.4531853,1.212444,-0.6110985,-0.4936402,-0.088786446,1.0398581,-0.4923592,0.5933175,-0.55551946,-1.0444028,-0.6699004,1.6138886,1.6167511,3.4525454,0.65086013,1.3978523,-1.7902845,-0.54669344,4.070108,0.013127855,0.7746493,1.973705,2.1985548,-0.21756674,2.818008,1.2292101,-2.5313623,0.25379083,1.0012183,-1.5017648,3.3401535,1.1122669,1.5869318,-0.9262908,1.443508,1.0357959,1.078931,0.14653777,0.18823223,-1.2160064,-0.24785972,-1.7505013,-1.410406,-1.0765194,0.2526005,1.1388783,-1.4773378,1.0986149,-0.36007845,2.1005836,-0.69069934,-0.4329295,-0.9564389,-0.49608317,1.3098929,-0.9381271,-1.562716,-0.18551855,0.46861672,-1.4897358,-0.033770826,-0.41185427,-1.2452806,-0.058443826,-1.6397725,0.3496843,-0.06599372,-2.4592772,0.0004248105,0.38734627,-0.4878982,-1.3051913,-1.3976436,1.9098479,-2.1438885,1.3412585,2.5680172,-2.4446075,-1.3063811,1.2040223,2.0556026,1.5915964,-0.5566671,1.5795661,-1.0155061,1.0889266,0.50405216,1.1548858,1.9322275,-0.01027509,0.7346386,0.89026576,0.49351212,-2.115328,-1.1147891,3.0492847,-0.19697957,-1.3451012,-2.2619169,-0.14310513,1.0443791,0.9823678,-0.14145619,-1.0334839,-0.28142416,0.1988874,-0.55315423,-2.315875,-1.0120105,1.3097645,-0.45182198,-0.3483395,-1.0561293,-2.0093937,1.412786,-0.0071306527,0.6710039,0.5182884,-2.9837797,-1.5734332,0.7118673,-0.9298803,-0.6913268,-0.5012917,-2.3419414,-0.79012877,0.08966681,-0.9601248,-1.0131056,-1.195507,-1.0334537,-1.137205,1.1778723,1.1316409,0.032112256,-2.0743155,1.3669933,-1.3186978,0.930467,0.94322264,-0.960676,-2.3888087,-1.663246,-0.02734984,2.2229834,0.35820192,0.047755595,-2.699922,-0.6374628,0.07189829,0.29738876,0.27463198,0.40470868,1.1232508,1.2022469,-0.9466713,-0.33572257,0.1424944,2.6115322,-2.6028104,0.01126037,1.232473,-0.63165444
Lab_54,-1.5081145,0.44976375,0.1894427,0.67006135,-1.0406531,-1.2689251,1.2685102,1.2508541,-0.3338075,-0.9166746,-0.45029393,0.14656283,-1.43293,0.5064675,-0.17603956,1.2964514,0.07255777,2.1298172,0.975063,1.1406027,0.81020594,1.3334076,-0.9366974,1.045562,0.8522955,-0.6023189,0.34669173,-0.21979186,-0.8534304,2.498665,2.1926384,-0.17719774,1.2817923,2.1614797,-0.5478598,0.7723504,-0.10735689,-0.5016282,1.5859141,-0.43486303,0.48663747,-0.06848005,-0.3923511,-0.0983247,0.9153596,1.4609104,-1.191374,-0.57218444,0.8032695,-1.6246274,-0.013795743,-0.80295795,-0.16963926,1.0498722,-1.2422519,0.2755068,1.5861248,1.2744966,0.51804256,-0.0020059822,-2.0299978,0.81530946,0.80539316,1.2215688,1.5378889,1.4105409,-0.9082676,0.37721598,0.7201882,0.31409448,0.5220539,-1.3149775,-1.2442814,-2.2552538,0.04698734,1.3166292,-0.02580907,0.4357647,-0.4807982,-1.2419428,-0.92639107,1.8688946,0.9204486,-0.7842223,-0.16933109,-1.1091186,-1.1570022,-0.861286,-1.3006083,-0.19267133,-0.8019876,-1.2773403,-1.0352163,2.258498,1.2642026,-0.5172167,-0.4651354,-0.1853164,0.3144521,-0.2140816,0.59472185,-0.33435073,0.30887964,1.0013922,1.9185739,0.6608273,1.5417585,-0.6448805,0.54945654,-1.0852745,2.016762,1.0383866,-0.27596465,-0.8911906,-1.9427539,2.3456676,0.92357016,1.1751306,-0.6817231,0.8105262,0.44842556,-0.18299401,2.2325842,-1.079908,0.0044608247,2.5962377,0.5410648,0.44628328,-0.50889736,0.20039171,-0.70989954,0.62025386,-1.3113785,-1.2184266,1.7523583,0.49456403,-0.6030661,2.200684,1.9641503,-1.4431679,1.5086042,-0.5883199,-0.79862404,-0.45304382,-1.2766199,-0.36436084,-0.9097503,-0.42982465,1.5505337,-1.2915372,0.29748768,-0.35189974,2.9022408,0.025566338,0.27960056,0.37750417,2.7572403,-1.0336702,-0.61073035,-0.1840786,-0.66311336,0.41606563,-0.9633951,1.3118742,-0.8113723,0.28815246,-2.5278852,-0.7168798,-1.7144606,-0.018399475,-1.2981359,-0.46834144,-1.3528981,0.3471665,-2.297544,-0.11723282,0.57543784,-0.23247129,1.2394493,2.2368917,-0.5584595,-0.37059513,-0.67030025,-0.1823672,2.1530652,0.5647201,0.5721187,-1.036832,0.5052052,-2.4592845,-0.15317936,-1.0737643,0.19806235,-0.14736226,-1.290046,0.019034699,1.9394761,-0.94808304,2.1108098,-1.5865026
Lib_44,-0.17278564,-1.8683162,-0.14509949,0.84624493,-1.7731575,0.9968433,0.17189716,0.3427002,-0.55659324,0.07052468,1.8890096,0.47092995,-1.3777368,0.80432475,0.54294354,-0.47844627,-1.3433241,-1.0516542,1.0419781,-0.21500257,-0.22837673,-0.29390293,1.0250759,-0.014602048,0.68675756,-1.203654,1.3568674,-0.14533906,0.029841492,-0.9328013,-0.6396984,-1.8865818,0.4189429,0.66631836,-1.1074578,-0.4226274,0.52015054,-0.6796693,-0.67967224,-1.4331034,0.33445615,-1.3325033,-1.210877,-0.18000239,1.4186493,-0.38011715,-0.18145342,-1.3720605,-0.36502105,0.79840326,-0.64234525,0.043719705,-0.587172,0.7935599,-0.77521706,-0.016754344,-0.85678333,-2.1405282,0.6100394,1.0659987,0.20962745,-1.1300625,1.1129084,0.21817213,0.28187832,-0.9005847,-0.5004332,-0.8068578,-1.1421238,0.45217407,-0.623014,-0.046344113,-0.017105918,0.13581513,0.5913646,1.4742088,-1.4147587,0.09936382,1.2408795,1.4140611,-0.3001746,0.16326016,-0.23076963,0.905079,-0.24218944,0.5419062,-0.34549916,-0.2914039,1.0750291,-1.0334779,0.7148344,0.00915005,-2.0516875,-0.5412158,0.0072628926,0.1377346,-0.41553143,0.43056783,-1.4713291,-1.8069663,-0.060154177,0.48385084,-0.903396,0.74166465,-0.032319352,0.6122823,-0.86440736,-0.41967052,-0.21338873,-0.14320374,-0.8381022,0.28510973,-0.09602113,0.23575565,1.0621876,-0.3720152,-0.6281587,-0.007982581,-0.016140606,0.12271677,0.21127036,-0.8633669,0.06313476,-1.3691736,0.49350625,0.6607933,0.45019636,-1.6575794,0.5238757,-0.86434954,1.0970266,0.9679944,-0.22185734,0.06146215,1.8748057,0.019253623,1.215612,0.26313236,-0.26287824,-1.3016554,-1.4262596,-0.39137635,0.40770555,1.4508141,0.41168097,-0.33981943,0.19823422,1.0906608,0.56843144,-0.0048967567,0.70868206,-0.5491704,0.5503533,1.6239262,0.37095597,0.5124931,0.11798091,1.7022488,0.34307787,-1.0806499,-0.40898958,0.28812268,-0.3476454,-1.5112165,0.45704666,-0.3358384,0.19381993,-0.6783891,-0.5881175,-0.7644084,0.13922197,-0.9453311,0.7117428,1.7312169,1.6166406,-0.27184093,0.85636127,-0.03273074,-0.71703476,-1.4340581,0.017303802,0.96768934,0.25951794,-0.39969653,-0.16908172,1.8047142,0.07394495,0.09520476,-0.3709084,0.0929623,-0.13582855,-0.5451743,0.5094537,1.3718868,-0.18515,-1.0630536,-0.6160013,1.366449,0.60219055,-0.2654657
PARLIAMENT_37,-0.7838582,-1.3005198,-0.37860397,1.2620562,-0.59513587,0.05332164,-0.30093452,2.1012502,0.2986196,-0.5813831,2.6415336,-3.4383016,1.9037507,0.557339,0.6717427,1.039695,1.4718721,-1.2362319,-2.8491611,1.6700188,-0.42347527,-0.83403164,-1.5025898,2.2232132,1.4878485,0.48067603,2.1381128,1.212417,-1.2794785,0.4581053,0.843365,1.2047544,-0.4013452,0.44225892,-1.0141132,0.29791048,-0.21218662,-0.6849961,-0.07336983,0.24788502,-0.013543915,-0.65391,1.3067626,1.185085,-1.1030505,-1.4815271,0.79837155,2.9222617,1.6242653,-0.88844305,0.49187246,1.467807,-0.5933661,1.4675126,0.5631996,-0.12629576,-0.35227215,0.2612882,0.6262816,-0.104096726,0.9885401,-2.1421964,1.029687,-1.3994027,2.2256813,-0.86491,1.0024302,-0.28325048,-0.4726719,1.0422462,-0.6968927,-1.0874897,1.8944842,-0.49647367,-3.0428312,1.1028267,-2.6067398,2.7512968,1.1125757,1.5050234,0.5986027,1.2469325,0.20039941,3.3116603,0.74564224,-0.58593637,0.16626085,2.5913002,-0.01893077,0.06176269,0.76502734,0.63036793,-0.37422356,-2.046291,-1.9767355,1.5950712,-0.3615661,-1.6835319,0.4153309,-0.13759308,-1.3008881,-0.74298906,-1.7627257,-0.10976986,0.89250636,-3.2370088,-2.5571415,0.6546023,-2.4119008,-0.48238236,1.1997651,1.5877813,3.484162,0.24808504,0.5510554,-0.8813302,-0.24152839,0.19204,-1.5858783,0.84356576,2.0595217,-2.8879516,0.109188855,-2.863357,4.0102773,-0.35986057,0.72174245,1.3962046,-0.9237795,2.1806812,0.33828986,-0.54224396,-1.2531178,0.10479802,0.4067396,2.7950952,-0.017950585,-0.13861832,0.6421206,-0.17250414,0.3358709,0.3402041,-0.36464462,-3.0799563,-0.50344676,0.67017454,2.0430624,0.75970376,-1.3110821,0.07642736,0.2973355,-0.52981555,2.5143335,0.13849537,0.30165115,-4.2411766,-1.8321614,-0.8545969,-2.7914355,-2.2288198,-0.06514481,-2.258022,-0.46590632,-0.14999567,0.050596863,3.2345665,1.7760125,-2.1785476,-3.461965,0.6528472,-0.20293562,1.086482,1.0404603,1.0631807,-1.1868149,0.77939713,0.11138348,-0.658858,-2.266372,-0.722236,0.8188847,0.1717931,3.7189133,-2.5057368,0.7155879,0.4766213,0.5689144,-2.0485632,-0.23625906,1.5243906,1.200587,1.8359598,-0.5942117,-1.853328,0.30474824,-0.58541673,0.84084266,-2.864938,-1.641085,-4.0498905
Lab_38,-0.3785952,-0.12987652,-0.44701433,-1.0443972,0.88805276,-1.8405915,0.80905193,2.327261,1.2458136,-0.19045389,0.7936987,-1.8555315,-0.5742444,0.47353548,-0.42374456,-0.17390533,0.85965586,1.0805166,1.7778571,-0.4017631,0.27441743,-0.5021802,-0.64492464,-0.38321948,-0.28993687,0.21509504,1.1208245,0.41942334,-1.2299519,0.040836234,1.5898035,0.017078048,0.16420527,0.019694256,0.40871775,-0.15856045,1.2467662,0.07565741,0.34010655,-0.17417027,2.1382809,-0.95810914,-0.42489052,0.019504342,0.3502938,0.63310385,0.111438595,1.5747621,1.218437,-0.14960392,-0.785804,-0.8341344,-0.25614125,-0.31399953,0.2664128,0.054466683,1.3949767,0.6290307,-0.75255716,-0.7425394,-0.5636879,0.7949153,0.14322282,-0.4194301,0.9960057,0.37328178,-0.5743856,-0.2753552,-0.18428719,-0.49715453,0.5179639,-0.7207258,0.019845003,-2.0203748,1.2113955,0.66345155,-0.8948009,-2.660547,-0.2590957,-0.13330723,0.77054644,0.98648417,-0.18995796,1.2703309,1.0449057,-0.7308771,-1.1024349,-1.4734832,0.68718475,-0.5899737,0.07604976,-0.60528827,1.2124944,-0.070317715,-0.43985504,0.95034266,-1.3247072,-0.95348483,-1.4613419,-0.282395,1.4455409,-0.29340893,-0.8276235,-0.3919641,1.5606029,-0.98806304,-0.16369635,-0.08208927,-0.24057758,1.8141706,-0.014647517,1.1911976,0.48429325,-0.13376285,-0.41448614,1.9318268,0.5822321,0.62152886,-0.29123703,1.0720737,-0.09341195,1.2791679,0.89413905,0.22182384,0.88512737,0.7449439,-0.2596319,0.2637316,-0.28585857,-0.085387744,-0.08377035,1.3520776,-0.31218567,-0.0004588992,1.4659531,-1.0998425,-0.03171757,-0.3174847,0.012400971,0.10136123,0.8404618,-0.25048834,0.74762386,-1.073774,-0.13062435,-0.25293854,-0.5562985,0.54721373,0.4347883,-1.1628704,-0.39451015,-1.9738609,1.0742469,-0.11855364,0.28325158,0.54014444,0.6756485,-0.017917542,-0.84774786,-1.4096837,-1.1507295,-0.6301556,1.0371051,2.674079,0.64616305,0.9965797,0.21062008,-2.5378702,-2.129453,0.6062399,-0.9441615,-0.9201909,-0.41700736,-0.54567486,-0.95230484,-0.1288852,-0.024568379,-2.2763953,0.39924657,1.4529204,-0.44006133,-1.2991118,-0.075868495,0.019632129,2.665684,-0.8574119,-1.1101233,-0.1865979,1.3238848,-1.8688419,0.5605741,0.26201415,-0.39588475,-0.5416711,-0.8149063,-0.4267719,1.5316588,-1.0338408,0.098423064,-1.9391755
PARLIAMENT_46,-0.3173057,-0.71293294,0.51464075,-0.63313216,-0.12268556,0.52885455,-0.40579936,1.7658863,-0.09019334,1.2845589,1.6296287,0.067244075,0.6914733,1.161929,-1.0779593,1.4533322,0.9902788,-1.0646322,-0.29572403,0.9825545,-0.17805699,-1.763238,-0.6400629,1.0731455,1.7224028,-0.71920586,-0.5166642,1.5091839,-0.567661,-0.06398426,-0.77898115,0.777292,0.23707953,-0.112637185,0.1782566,0.5490996,0.1910215,1.0323509,-0.2388758,0.81683475,0.39843774,-0.7171553,0.023602778,1.1945393,1.40921,-0.8425344,-1.3173592,0.8127401,1.595627,-0.16694297,1.4219741,1.2905067,-1.1645993,0.6459058,-0.0625368,2.608658,-1.0761111,1.3867228,-2.0123663,-1.0775448,-0.9410405,0.27195272,1.1847916,-0.019215863,0.5462929,-0.3095572,1.8233749,-1.0521834,0.47485656,0.6223337,0.9133974,-1.0440749,0.99971956,1.1295017,0.28884706,-0.46537074,-2.3381708,2.540748,0.53378385,0.62175363,-1.4425365,1.3321416,-0.282129,-0.8711342,0.11000209,1.3897302,0.9074353,1.4611056,0.84333265,-0.03690803,0.8557201,0.24164447,-1.4891233,-0.44055358,-0.9106614,1.0051124,0.2417861,0.26172897,-1.4325978,0.14185297,-1.5615228,1.2021621,-1.2365192,-1.084998,1.7394493,-1.8810709,-0.47812432,0.96296686,0.057986077,0.59942555,-0.9532991,0.561366,-0.21066692,0.033823874,-0.8183181,0.61447877,0.64780784,1.2662071,-1.2238246,0.062023956,1.8454075,-0.8408511,1.1427559,-1.4667599,0.60237056,-2.5146813,0.21013135,-0.16304417,-1.9462725,-1.0798811,0.23031554,1.1503874,0.17637861,-1.2270108,1.5987804,0.29500765,-0.942079,-0.9646897,-0.20383306,-0.7561986,-1.3018334,0.6788555,0.32659152,-0.99861395,-0.6055663,-0.18383063,-0.8212544,0.8709499,-2.2443638,-0.21122773,0.27464157,1.2768981,0.7039479,-0.51178294,0.15424493,-1.3761246,-1.399792,1.2294997,0.8471948,-2.5317938,1.2773737,-1.6475444,-0.21598738,-0.7588768,-0.60838115,-0.3885284,1.3159956,-0.5728431,-0.6477172,0.32421452,0.22344775,-0.85371363,-0.51957273,0.063199915,-0.06949589,-0.71175146,-1.0473588,-0.36035523,-0.50483537,-0.049063303,1.5360751,0.42233416,1.5057937,-0.6221271,-1.1822882,0.92202544,-0.5590641,-0.5292942,-0.17792225,1.5554954,0.28388074,-0.8941241,-0.79608,0.5693014,0.27621537,-0.4469322,-0.8104235,-0.5346947,-0.47669157,0.89415056
MP_TAG,-0.2699109,0.25548714,0.009701616,-1.390979,-1.9847785,1.9187095,-0.13052541,-1.4824097,1.8409196,0.1078315,-1.2721641,0.20464751,-1.2319286,0.01096177,2.5223923,-4.0890484,-0.8647411,-0.13842978,1.5547956,-3.1524665,-1.0365165,-0.34425676,1.3657482,0.70620227,-0.66925406,-1.2433823,0.7261389,-3.3316996,2.82771,0.20757619,-2.2788353,-5.0770354,-1.2032326,0.5427626,3.5310848,-2.018019,-1.9150847,-1.6217905,1.4152992,-1.2032336,-1.6813544,-2.3029137,-2.0415504,0.56268245,-0.2367841,4.215558,-1.2125201,-0.89061004,-0.22285415,-1.4556535,0.98114806,-1.7827822,-1.2696692,-2.9022915,-0.36415908,-5.065333,-1.0579937,0.046974402,2.5958505,0.9225598,1.4305925,0.17199096,-0.7469363,1.8243537,-1.6049007,0.25746426,-0.15990633,-0.20133851,0.20288032,-2.9975514,-0.8981035,0.11564377,2.4686437,-3.4111059,0.22566523,0.092826545,0.7849514,1.9863886,-1.7513243,-4.6498265,2.1041188,-2.4985752,-0.28202856,-1.2987152,-0.43378758,-0.8178408,0.20843114,-1.4901538,-1.4611233,-0.32376748,-1.1764255,-1.6464847,2.2875426,0.032029055,1.3617346,-0.9282227,1.6422073,0.30135405,0.2840835,1.8905842,0.26667833,-1.4950683,3.5282855,-1.7740778,-0.62021667,-0.5440425,0.14398138,0.30029792,3.173407,2.3832269,-1.2919421,0.5458462,-2.4656327,0.45594925,-0.6117016,1.1858206,-2.3741965,-1.1599206,1.5277007,0.5888586,-2.794541,-0.58101696,-0.9754568,-0.69999295,-1.1427513,1.8125734,-0.1623178,-2.2831275,1.2824154,1.1733096,-0.5039419,-1.5246544,-0.06429951,-0.40515003,-0.61247766,0.84713787,1.5980153,-0.32996544,-2.2743976,0.57328826,1.7363156,0.7425586,-2.1313782,1.8743302,-0.23012549,0.80576974,-3.5686471,-1.8264993,-0.17012955,-2.4621387,0.5688619,2.2971542,-0.8494823,-0.39789432,0.9595698,2.0531168,0.21117692,0.45197102,0.9660289,3.0600424,1.7334447,2.1507885,2.86332,1.4955604,1.1981808,-0.54212177,-2.3034453,1.3470154,1.8826135,-1.278969,-0.30915707,0.016390223,-0.31093293,0.81110775,-0.16888596,-0.9326661,-0.22031601,-0.4295751,2.314491,0.07073968,0.9614156,0.3432093,0.69599086,-0.0897647,-0.53915757,0.5390176,1.1397368,1.7847832,-1.6321228,-3.2354765,1.921965,-1.4725953,2.0344055,1.4201087,1.6326364,0.6472415,1.2568415,2.1024377,0.7169077,1.0858835
Lab_46,-0.77665126,0.18725117,-0.7949712,-1.5860627,0.6327517,-0.879587,-0.60177773,0.47013727,0.4967176,-0.3279209,0.16281548,-0.21519569,-0.5125102,-0.011783484,-0.5894503,1.0177144,0.46704853,-0.030500256,-0.016436309,0.43071795,-0.767361,-1.5127738,-0.7592399,0.1540917,0.28160295,0.04463475,0.24637769,-0.1850123,-0.62739646,-0.49452153,-0.18588531,-0.07456686,0.7229221,0.20979334,-0.013422084,-0.037474334,0.4797372,0.2956572,0.7551655,0.18797502,0.7048028,0.15891425,-0.65354204,0.5623661,0.84298533,1.126041,-0.15859506,0.13875698,1.8544998,-1.3305358,-0.11101522,0.18347445,-0.65865844,-0.31241837,0.9624182,0.2057316,0.62341887,0.037135556,0.04807306,-1.3672485,-0.21125333,0.0943234,-0.11649178,0.88417333,0.0019073049,0.15568113,0.18571137,-1.0313586,0.7177628,0.10701486,1.3675077,-1.4752895,0.541239,-1.8657504,0.79241616,-0.7698802,-1.0447389,0.0321009,0.8939017,-0.9218069,-1.4214023,1.3292118,-0.36283255,-1.3943166,0.53783816,-0.07895154,-0.48382348,0.51098084,0.5284579,-0.31639266,0.07779303,-0.6919117,-0.39817315,0.6624637,-0.67711717,0.0049945954,-0.09462982,0.2244904,-0.6055506,0.568879,0.999067,0.4793768,-1.0562959,0.39938763,1.8480659,-0.22850132,0.72819257,0.6007446,0.018005855,0.43166646,-0.8890095,0.85775596,-0.44143054,-1.0219973,-0.86841077,3.7248645,0.73549485,0.19937696,-0.6468804,-0.46418777,1.1620214,0.24417701,0.40197963,0.21019432,-0.0033317578,0.8404621,0.5405277,-0.07133699,-1.205144,-0.34278813,0.57817554,0.30607727,-1.783962,-1.5276672,0.7940907,1.1406159,-0.7409263,-0.36148855,0.57135105,-0.36386138,0.69817,-0.11426779,-0.095913604,0.2654787,-0.14027905,-1.0643781,-0.8058971,0.3226439,0.09011907,-1.6420081,0.31991607,1.0393062,0.899557,0.20342198,0.106096156,0.9882153,0.091993414,-0.20043185,0.8990122,-0.7506175,0.59565616,-0.37820753,-0.13859618,1.020492,-0.6159884,-0.056745734,-0.15276267,-0.8634848,-0.23014566,-0.18737914,0.030364737,-0.36233333,-0.957165,0.6306724,0.26038396,0.10445539,-0.87557083,-0.48667413,-0.30304298,1.3666369,0.5534988,0.06281767,0.3111712,0.019308561,0.8132092,1.1033564,-0.4313103,-0.55283105,1.2949232,0.082843766,1.2620083,-1.0380695,-0.56347346,-0.09217327,-1.6611308,-0.7025413,0.557334,-0.78353286,-0.65416235,0.5663147
Con_49,0.26851737,0.041003488,0.061983917,2.4151406,0.28786197,1.3424678,1.2736461,0.65384346,-3.1077704,1.4566958,1.6928506,-1.2530261,-1.0967194,0.36513937,0.3145986,3.0099146,-1.4038147,-0.8423092,1.5031036,-0.5420565,0.10389072,-1.130131,0.03612724,-0.44145447,1.4656405,-1.4848819,-0.9035903,-0.64479643,-0.7090226,0.18366311,2.2787805,2.792842,0.6059854,1.5815661,0.061667427,1.0414922,3.222975,0.8737076,1.2359066,-0.19598925,-0.58331805,0.40390202,-0.087251045,-0.6841034,1.4491239,-2.0290153,0.15189968,0.97345173,1.0218347,1.0834706,2.5870907,1.0453767,-0.12417537,-0.997168,-0.23686983,2.001122,0.01583223,1.1247844,0.7055491,3.4205956,-1.1213162,3.3260264,0.46001533,-1.3501108,0.82459134,0.49394888,0.4443981,3.504226,1.0449976,2.083019,-0.5457712,0.42292634,1.2126646,0.7150686,-0.09777757,1.2088832,-0.70367426,-0.019086724,-0.051595584,-1.5244741,-0.39603224,0.023794893,-0.0048751645,-0.5195125,0.25465384,-1.8229793,1.5973128,1.5487069,-1.6957088,-0.7446107,-0.3217643,0.29183125,-1.10788,-0.9713361,-0.16007763,0.9828064,0.85545486,-0.28023946,-0.95924926,-0.6605241,-1.4295489,-0.11558313,1.4242549,-0.29908314,-1.6864309,-0.14829753,-0.9983911,0.2658371,-1.3856922,-1.726069,1.0577393,-1.9203476,1.679521,1.6559727,-0.7701208,-0.63503677,-1.2637606,2.5241525,1.1373724,-1.155357,1.3127078,-0.57705545,0.7028977,-0.39382064,0.92482007,0.5868645,1.992106,-0.6972615,1.0005965,-0.93768585,-0.7487447,-1.9910116,1.4662781,-0.2154049,0.13507104,-2.238033,0.59860677,2.4301405,-0.29058722,-1.9262812,-1.2837061,0.92566913,-0.110749215,0.85754853,-2.6936622,-1.8166145,1.3826212,1.0483061,-1.300414,0.1000042,-2.123566,1.9162401,0.6927253,0.94433403,1.1860358,-4.722659,-0.9127206,1.6452749,-1.3915019,0.00875843,0.24649134,-2.0414271,-1.0616273,-0.24381757,-3.209431,0.79558676,1.187223,-2.2231245,0.18231323,1.5226521,2.3223596,-0.37778908,-0.75754625,1.0342021,-0.7165043,0.6991632,0.4141162,-0.7540207,-2.890989,-1.2941177,0.2864059,1.5144897,-0.078278966,-0.3050802,-1.6952556,-0.2588902,-0.6174032,-0.23550454,-1.183126,0.8176344,0.1574338,2.5862358,1.4238671,-0.2554376,2.0961847,-0.036140006,-1.0249226,0.49125448,1.8283521,-2.011725
PARLIAMENT_47,-0.2195036,-1.6814071,-1.1151912,0.8930385,1.689725,-1.3434237,-0.13063489,2.5096457,-1.2825123,0.71285874,3.2651188,-0.17047803,-2.0031626,0.65113974,1.6314641,1.4765664,0.49448386,-1.0259666,0.31344774,1.4056432,-1.125305,-0.82617235,0.6548836,3.1574774,1.41719,1.1272826,-1.599509,1.3591048,-0.2186594,-0.6092514,-1.3017954,2.8381727,2.0286727,0.6625105,-0.11409839,0.69957495,-0.5752433,0.995084,0.63488203,-1.87192,1.9618174,-0.06974341,2.5893645,2.3624954,1.5361378,-1.9806825,-0.52781886,3.1349266,3.2181265,-0.7702205,0.47726327,0.08572779,-1.1588483,2.7862513,0.66404957,1.968055,-2.7022338,1.4109844,-0.9974047,-1.6248835,-2.447049,0.11444264,4.0555725,-1.5344778,0.9799792,-0.16009364,0.9424547,1.3765485,0.16503163,0.8718428,1.0387782,-0.17817041,-1.2893782,1.4779602,-0.027194722,-1.5804006,-1.3775728,0.3850755,1.9055194,0.8892854,-0.35559696,1.3211876,0.44795963,-1.0080913,0.66707265,1.8272997,-1.3610896,1.7364373,0.07621949,-0.0075858263,2.2342918,-0.19995777,-0.6306482,-1.902037,-0.24544117,1.3289983,0.27411523,-0.16956335,-1.8532656,-1.5719472,-1.6656303,0.47045082,-1.1903201,1.299992,2.5485134,-0.38687462,-1.1659732,-0.81844825,-0.43088087,-0.40905032,-0.92836094,0.97431594,1.23251,0.026700152,-0.037670147,1.3194207,1.0584669,0.8136521,-0.48420838,-0.29327217,-0.10732607,0.00206894,2.366086,-2.4352279,1.561224,-1.6816387,1.5858468,-0.700552,-1.9716103,-0.7416373,0.08516686,0.64894956,-0.6887569,-0.4316924,1.1573746,-0.54727954,-0.9834991,0.1621116,0.5250349,-2.5485148,-0.37016413,2.025035,2.5540867,-2.1209555,-2.5842285,-0.823824,-0.2193847,0.9724032,-0.28798646,-0.4082131,0.8437569,1.6316164,0.21751136,0.5154693,-1.0721693,-2.9830873,-0.47626594,0.9175527,-0.23162894,-3.5509765,1.2916514,-1.2326771,0.5370492,-0.63184625,-0.116550945,0.20165618,2.1702127,-0.72121394,-1.5180291,-0.03863127,0.56425005,0.30086008,0.43187943,1.0794052,0.22129628,-0.24971347,-2.3640835,-0.9801468,1.5470587,-0.87385046,-0.51311326,-0.2449127,0.18534075,0.32137996,-1.9550897,-0.14028615,0.31278783,-0.45741037,-0.5748552,0.9932214,-0.43821165,-0.052296,-0.3105491,0.32820955,1.227073,0.9815763,-0.8977517,-0.09967562,-1.3313254,-0.45187986
Lab_49,-0.8112172,0.7546109,-0.54005724,-3.3720036,4.578389,-0.45370418,1.7935662,0.03915122,-0.29157016,0.73116803,-1.9136754,0.20733857,0.9772974,-0.84462386,-0.65842646,2.2103915,-0.24404794,-0.29085007,-0.41737747,2.0500793,-1.4600216,-0.73258185,-1.333725,-0.5187918,0.9799516,1.5675925,1.9208096,-0.63921934,-0.18835771,-0.7116447,-1.598142,1.6456624,1.3286823,-0.12476345,-0.35808012,-1.1392062,-0.66766,-0.73392826,1.1941566,0.5035721,-0.41199252,-0.8433322,-0.19296126,-0.95381194,0.13661303,0.7170237,-0.69903904,1.4955347,-0.69889504,0.35821092,-2.8227248,-0.20157695,-0.06365172,-0.32490075,0.07135923,-0.9907225,1.6064339,0.19655254,-2.1318178,-1.9608496,-0.15562932,-2.0332263,0.6677272,1.3487967,-0.043890882,-0.068103604,0.89562535,-1.8925989,0.22235346,-0.1749012,1.5575366,-2.291036,-0.39633298,-0.29295638,1.442715,-0.8551668,0.591142,-1.5894148,1.6244895,0.73656136,0.12195581,0.39851728,-1.0645378,-0.3244434,-0.40082508,-0.95607877,-0.85886794,0.22297268,-0.6212608,-0.9840409,1.8503327,-1.4588423,0.5491355,0.4773278,0.30407324,-1.4718231,-0.47342575,-1.0401633,2.032248,0.6983865,-0.41449988,0.9318033,0.40597382,-0.4786602,4.012823,-0.1325495,-0.10758503,0.72229785,0.7018563,1.1710348,-0.91871554,2.449824,-0.38040644,-2.2856724,0.72338724,2.8258188,-1.8238033,0.9616441,-0.46299806,0.09062505,1.0362868,1.1885232,2.7372444,-0.33596706,-0.19806206,1.7886113,0.76635176,0.54669493,-0.7008865,0.2924188,0.3140974,-0.9694138,-3.5552301,-1.7116545,-1.1413045,0.6739751,-0.10168026,-2.3532834,-2.0634644,0.14949587,0.08477788,-0.42362285,2.3408155,0.33192515,0.30024603,1.2708017,-0.87411153,-0.44760263,-0.09859085,0.45741105,0.18741445,0.7209314,0.56637496,-2.0514705,0.66520244,1.5204778,1.2660012,-0.37156683,0.7285891,-0.5251493,0.24422629,0.7549636,0.72422296,1.4871953,-1.9588517,0.675151,1.6251078,0.7571184,0.2475588,-1.0677015,-1.4925723,-0.8420931,0.5894169,-1.5867485,1.617557,0.39038643,-1.2738627,0.89551866,1.0928112,2.0047202,1.6692057,-2.407352,-0.06989903,-0.15526575,1.3880317,0.28612667,-2.207297,-0.075171,1.0524133,0.56786597,-2.0608852,0.74779725,1.9237924,0.22601256,-1.3166615,-1.236321,2.0698528,-2.581633,-0.6593146,-0.34947476
Con_47,2.8968656,0.67214054,2.9908597,-1.0797136,0.80473334,1.7992072,0.009861158,-1.6028141,-0.5547768,1.2910019,1.0605693,0.8652533,2.0014424,-0.56365216,1.0579923,-0.48982194,-0.52596164,-1.4668076,1.2706636,1.562877,-0.10756089,0.57752883,0.45987028,-0.0025191377,-1.1138296,0.32989419,-0.811921,1.2993232,-1.5806441,-0.8276327,-1.2880517,0.38296095,-0.69420075,-0.12875406,-1.0952647,1.750962,0.6092394,0.22276343,-1.3956889,2.6095479,-1.0883408,1.6191578,1.0535933,0.8338666,-1.7050438,-1.7879901,-1.2420098,-1.692935,-0.6543027,-0.24641332,0.15846129,-0.091346905,0.7837534,0.4113606,0.087126024,0.97301984,0.5259245,-1.022114,-1.7098508,0.6833628,2.667135,0.38864613,-1.1773309,-0.8075062,-0.9070731,-0.5919573,0.65355194,-0.01367409,1.1074972,-0.06482272,-0.39806643,0.55132693,1.300982,1.3052644,1.4603125,-0.2762245,-0.15816577,1.4554346,-0.53490996,-0.1357258,-0.8360725,-1.5975133,0.31137472,0.38643375,-0.81335527,0.13995945,1.004642,-0.32291752,1.3395431,1.3513968,0.34318638,1.1851691,0.13080986,-1.727915,-0.7960506,-0.043964744,0.23654592,2.0928526,-0.97274166,2.576285,-0.59476024,-0.93857485,0.21335053,-1.4812961,-1.9883425,-1.1946529,-0.0778087,1.1114582,-1.700579,0.4032103,0.90764153,-1.011972,0.58246833,2.1781597,-0.6279991,-3.35578,-0.33832052,0.18905047,-0.045200277,-0.07185364,1.2241223,-1.7507911,-1.7170103,1.6887262,0.46576235,-0.43549418,-0.70390755,0.06280646,-0.651117,0.5270843,-0.9515118,-0.7538216,1.5083063,0.21455002,-1.4764235,-0.9832939,-1.1104455,0.22050317,-1.2486359,0.45819122,-2.2377064,0.9140985,0.2019211,0.16169165,-0.24301945,-0.19910745,0.5706582,-0.86704206,-2.8060331,0.057949074,0.12775552,-0.39757043,-0.76019025,0.047015168,0.018702019,-1.3280293,-2.880923,1.9654506,-1.066829,0.41927359,0.4807034,-1.393636,0.8207136,-1.2018188,0.9502841,1.065783,0.67276746,1.098072,0.93864,1.4489866,1.0782682,0.006964507,1.3929567,-0.42906347,-1.4610753,1.0244615,0.6481104,0.13150549,-0.66829604,0.17352498,1.5505097,1.8862913,1.6831843,-0.7630597,-1.5142432,-0.54521626,0.59894675,1.391597,-1.1673179,2.336262,-0.71056706,0.73421884,0.9131535,-1.3713468,2.6040204,-0.09063316,-0.2133228,0.17484823,2.027069,-0.4623556
Con_40,1.0757239,-0.09247241,-0.21419273,1.1680957,0.52802396,-1.174407,-1.9311783,-0.19197652,-2.1718156,0.2097186,1.3186007,0.058332603,-0.6649034,0.19495504,-0.15257187,1.1880594,1.1791592,-0.17665283,-0.06747079,0.6695943,-0.66856205,-0.20026445,-1.3958901,0.0035309414,0.6677175,-1.9413719,-0.9025507,-0.73072606,-0.795094,0.2588573,0.47784787,-1.1037004,-2.0163128,0.5158955,-0.18543871,0.27715892,-0.53557396,-0.7647934,-1.2096286,1.0211824,-0.12790963,0.5869181,0.46967483,-0.7901608,-0.06621095,-1.5307918,0.80372703,-0.13161327,-0.38339502,0.23232149,2.1556754,1.7924775,-0.41449827,-0.6384125,-0.8008427,1.2765647,-0.059113733,0.70185304,-0.7575232,1.7352027,0.41899237,0.6605331,0.7883673,-1.5253812,0.19420572,0.25275475,0.17529638,3.001552,0.6137867,0.21585849,-0.75707626,-0.3904555,-0.012004093,1.1627741,-0.87519544,1.1383336,-0.9400862,1.2649099,1.105998,-0.98668337,0.19207421,0.4758303,2.1503754,0.67522615,0.59437335,-0.63613915,0.12438771,1.2515024,-0.06791784,0.2594969,-0.3780862,0.80646455,-0.58347034,-1.1503264,-0.5428745,-0.81331676,0.6049416,-1.3913728,-0.6611688,0.3823938,0.41963017,-0.6363529,-0.7320443,-0.4089706,-1.6461457,-1.5957884,0.6331808,-0.615693,-0.4668311,0.21987146,1.0908267,0.35148814,1.1043274,1.6687545,-0.4678621,-1.6735358,1.6002086,0.9591957,0.3521343,0.14450032,0.6412882,-2.4804554,-1.8540065,0.35666582,0.6461666,-1.4427165,0.91982216,-1.6433089,0.42295602,0.78864986,-1.3491628,0.023845708,0.84309506,-0.28268477,0.38329178,0.3223975,1.0795811,0.85005236,0.8888774,0.5662775,-1.0641515,0.37037176,0.8413011,-0.42012694,-0.92937976,-1.2061692,1.2392193,-0.1294596,-1.5369844,0.6427955,-1.4844588,1.1157857,0.22091256,-0.25149325,-0.66993934,-3.0507216,-1.1550823,0.040376257,-1.2949558,-0.6553331,1.5131447,0.106561765,-0.50104123,-1.5549744,-0.0929427,1.3768361,0.13794494,-1.5787958,-0.9506802,0.018640723,-1.0041767,0.35823065,0.39544627,1.2711453,-1.158298,0.79984725,0.79173756,-0.3566227,0.12737028,-0.5518237,-0.16833116,1.3772337,0.63335544,-0.35290086,-1.3366207,0.29026502,0.523544,0.1428648,-0.4054424,0.90469986,0.55295527,1.7698407,2.2718766,-0.74611473,1.7484928,1.8785535,-0.79169756,0.30391958,0.976905,-0.6371378
Lib_42,0.79274714,-0.78391933,-1.2243699,-1.2271103,-1.8078266,-1.7790345,-0.5317607,-0.4721729,0.14230172,-0.9039178,0.6389146,-0.4463212,0.44069868,0.8219521,0.15360914,-1.3360195,-1.6496633,-1.0171717,0.76420325,0.028399222,-0.40351602,-1.4301664,-0.6415673,-1.1533659,1.4702183,-1.1278666,0.8910085,-0.78828555,0.08958906,-0.6055284,0.6285458,-0.96510744,-1.2750607,0.5465632,-1.0565171,-1.4455705,-0.20090342,-0.002125299,-0.060403865,-0.8504549,-0.17138739,0.7637856,-0.9489646,-1.4606371,1.3227551,0.29446873,0.9256733,-1.0116028,-1.712534,0.41160548,-0.8391556,0.37280926,-0.51711655,0.8238085,-0.6371975,-0.1911487,-0.785784,0.07434895,1.2542319,2.3345838,1.7350991,-0.82529426,-0.57192165,0.55884534,1.1268761,0.78128916,0.8084735,-1.5307184,-1.4842136,-0.4685059,0.50703055,0.6516035,0.4448435,0.6091102,-1.2082677,0.6473241,-0.7187672,2.084776,-0.51559603,1.1457585,1.4927759,0.01692249,-1.2512226,1.0740145,0.25040677,0.0436316,-2.49051,-0.3039199,1.0913498,2.2808824,1.1374307,-0.3882404,0.028626518,-0.04995747,0.23620524,-0.40468386,-1.7119033,0.02207895,-1.2789313,-0.6009494,0.43987703,-0.5618716,-1.2306674,0.5707815,-0.7715715,1.0037969,-0.4444097,1.3207569,-0.85048383,1.0973521,-0.07993531,0.28665194,0.009965773,-0.36998487,1.4682424,-0.5991004,0.09882563,0.047888976,0.5345724,-0.097477965,-7.569627e-05,-1.6685644,-2.5175037,-0.88025904,0.5138442,-0.3063137,1.2332544,-0.8497236,1.537486,0.5292485,0.7087326,0.6235577,-0.25467783,-0.6679614,1.998234,0.02673299,1.1463755,0.14379564,-1.6121534,0.6423626,-1.3963077,-0.8248015,-0.54192644,1.1392609,-1.137619,0.0023997892,-0.8376736,1.495164,2.5155675,-1.5051211,0.71099323,-1.705693,-1.769322,1.330773,-1.2625265,-0.53978765,-0.5664539,-0.23781332,0.082963414,-0.39184275,-0.71093506,-0.5047163,0.70190763,-2.5040598,0.41559276,0.7288226,0.7069893,-0.54116946,-1.0491768,-0.90436846,0.4036004,0.40477452,0.65453416,-0.9816653,1.1397463,0.5288932,-0.15297914,0.36641395,-0.4501588,-1.5247785,0.77610004,0.97216505,0.0541115,-0.31903902,-0.6704852,-0.13097595,1.4729671,-0.52144325,-0.4226479,0.15738937,0.6796446,1.5848471,-1.0740025,0.18190923,0.124321856,-0.71511024,0.5735015,-0.67611796,-0.44763422,-0.0474963
Lib_37,0.46260858,-0.5991966,1.200039,2.4665022,0.9909783,-1.484945,0.23461826,-0.23714784,0.14572433,0.9765134,0.4226304,-0.25901937,-1.2840668,0.31756788,0.1216225,-0.7003843,0.7383785,-0.1983743,1.5440742,0.898179,1.3089201,0.9356107,-0.32597128,-0.82388544,2.2587278,0.25752357,0.69026315,-2.0541923,-0.4664167,0.486372,-2.044644,0.3125379,-0.5357061,1.1267314,0.01792247,0.6871391,-0.52207613,-0.1182592,1.0551956,-0.044724125,0.087982796,0.65554744,1.5872277,-0.99821633,-1.0481846,-1.6563902,1.908738,0.89294374,-0.999466,1.186519,0.39601377,2.04382,-0.49000978,0.40395045,0.09280997,0.61693054,0.6163871,0.39753297,-0.349333,0.36625767,0.39372554,-0.88055575,0.060201652,0.24765942,0.4730285,0.7981747,-1.411789,0.016088566,-0.20654443,1.8054643,0.20208783,-1.0636815,-0.42122284,0.0069015455,1.715873,0.5679684,0.29236257,-0.4596993,-0.28373235,0.6905022,1.2543421,0.7566995,0.93982935,1.259992,-0.2075091,-0.07270885,0.6797201,0.019803349,0.03906434,-0.39786026,-1.0112543,1.2786378,-0.29845947,1.2647017,-1.1281459,0.31044692,-0.6524508,1.131205,-2.816974,-0.38324612,1.0574746,0.7779829,0.9197445,1.793919,-1.0530125,1.8220348,-0.24817921,0.19371855,-0.6639358,-0.38690656,0.04988099,1.1834638,-0.0029297192,-1.1791712,-2.032996,-0.31587854,1.293765,-1.7021326,-0.35163498,0.9143866,-0.25661793,-1.5857087,-1.4849423,0.49658674,-0.25138178,-1.315812,0.23021351,0.64190507,0.10565256,-0.6260218,0.8323583,0.21013041,0.56933284,1.7420441,0.6872443,-0.51667196,-0.51708233,1.3812897,0.10885373,1.0953821,0.3192335,-1.4490278,-0.16048448,-0.9132714,0.06401812,0.033390433,-0.8381557,0.025226254,0.8783952,0.4662902,-0.289618,-0.35394675,-0.082309134,0.7372757,0.87121373,-1.0805619,1.0757477,0.6965123,0.50421995,1.1752819,-0.98605484,1.2034774,1.1781077,0.9107859,-0.11954685,0.71117514,-1.0454836,-1.6030558,-1.0698104,-0.18374325,0.5424194,-0.444943,-0.868312,0.47939506,0.29470378,0.09627205,-0.5009504,0.4299675,0.8255574,-0.95339334,-1.6208973,-0.89923507,-1.1781636,-0.41533262,1.444569,-0.65367514,0.15659359,-0.22693688,0.31548816,0.3521884,0.2933867,-0.28387398,-1.2739596,0.7546637,-0.72711486,-0.89083946,-1.1075099,-0.8303528,-0.47732,-1.7114768
Con_38,1.0379928,-0.46812576,-0.76120204,0.07224437,1.1431527,0.5063412,-0.03903321,1.4382354,-0.35468125,0.4829093,1.942625,-0.95854306,1.8655573,0.4111406,1.5113745,-1.8722833,1.0591636,-0.33354124,2.6584144,1.3389063,1.5697544,-0.64117205,0.14257841,0.22026698,0.25317907,0.40973303,-0.975696,-0.49242866,-0.8265866,-1.2125797,0.057718817,0.0573485,-0.7487434,-0.083005846,-0.398745,0.8515474,0.3317971,0.58333904,-0.47384495,0.3059836,0.6351962,-1.3618596,0.80971605,-0.7518044,-1.1347965,-3.2626905,0.7443541,0.36405027,-0.015758675,0.30888763,1.8756949,0.09158929,-0.2488478,-0.99790925,-0.35605612,0.5254305,-1.4173646,-0.8333759,-0.8541195,0.8145347,1.3278406,-0.22015695,0.769676,-0.16331139,0.6773051,-0.9636542,0.46570918,0.43505144,0.6420333,0.35219836,-1.9486032,0.3578752,0.4660388,0.9658933,-0.0956894,1.4872258,-1.2874068,-0.19391058,1.2168412,-0.056511145,1.1258689,-0.9318597,0.7268976,0.74185383,0.62190413,-0.2481082,0.11899176,1.4319698,1.233307,0.7456304,1.0879574,1.2403294,1.2059977,-1.8931351,-0.28998333,-0.048103787,-0.8534046,1.2803516,-2.765698,1.3219064,-0.3144875,-0.6926353,0.04683176,-1.8143562,0.30226034,-0.96468663,-0.8788775,-1.20726,-1.0089511,-1.3775299,1.0961143,-0.71396893,1.2301714,0.417702,-0.50486475,-2.1299753,1.2658542,0.046951808,0.46407956,0.23424114,0.044036996,-0.1279861,-1.1561481,0.72000587,0.545038,-0.29386947,-0.6757335,0.38605818,0.2961632,1.5799612,-1.6330951,0.4757082,1.638983,0.38504574,-0.639926,-0.6889296,0.17148794,1.3000312,-0.4841573,-0.95732284,-1.1090952,-0.10982092,1.3191044,-1.765849,0.6608937,-0.21217144,-0.25745904,0.032831904,-1.6464714,-0.69355613,-0.32784325,-2.777063,-0.62583023,0.9782536,-0.30658796,-1.7152599,-1.5090159,0.88536745,-0.89846766,-1.3295039,0.86038816,-1.0483977,0.07035468,-2.0546033,-0.29752332,1.2365843,0.33959597,0.83579713,0.1374619,0.9457839,-0.33515832,1.5310875,-0.20003802,0.7587215,-2.0464232,-0.5146028,0.7692228,-1.7398378,0.8303525,-0.85359055,0.27896246,0.023630958,0.7558028,-0.84974504,0.13514556,-2.734281,0.15445626,-1.0100119,-1.285778,1.4397131,-0.8029187,2.3092446,1.0418571,-0.807815,1.3597548,1.3403634,-1.1616919,0.24878535,1.288248,-1.8804904
PARLIAMENT_45,0.11364357,-0.6108237,1.4883518,-0.7338703,0.9724401,-2.5802085,-1.1756536,0.06509468,-0.6844757,-0.79290456,1.10513,-1.0648522,-0.20781502,0.11747044,-0.90701765,0.57315445,0.8751269,-0.46391028,-0.76931757,1.087422,0.76245564,-1.8914164,-2.9916875,-0.45916685,2.3036656,0.4126043,-0.4238568,0.33477893,0.06776718,-0.99097764,-0.18893401,2.466315,1.2556077,0.29143953,0.17787994,-0.7388451,0.3705653,0.6310403,-0.6848778,0.16447522,0.41969633,-0.09706716,0.6609156,0.9469784,0.9602795,-0.15153176,-1.3998594,1.2268814,2.2023408,0.8150325,-0.719803,2.4451072,-2.24601,0.42310855,-0.96346754,1.814668,0.6289138,-0.3835739,0.009337003,-0.5054132,0.91590244,-1.0114833,1.8247386,0.64166284,1.2028736,-1.7998439,2.0207958,-0.22174291,2.2494764,0.8176917,0.98176086,-2.0645804,0.5607735,-0.294933,-0.8366794,-1.2308012,-1.2935203,2.1023982,0.98300844,1.3292389,-1.7705469,0.5088554,-0.86672926,0.22760205,-0.9598146,1.3302746,0.5074094,0.3614233,-0.58495253,1.5241553,0.7318221,0.96542937,-0.6316113,-0.84872437,-0.79190445,-0.112744525,0.30953223,0.09644242,-2.0412478,-0.13987654,-0.6068762,-0.09050031,-1.8036199,0.24141425,2.5337253,-1.8431994,0.09694306,0.57180274,-2.5869665,2.076972,-0.39857006,1.8441808,0.68148243,-1.7116617,-0.035449147,1.8959756,-0.17654881,0.66887295,-0.532482,-1.6509725,2.086989,-0.9933532,0.26546204,-2.0993,-0.12993096,-0.5627099,0.053363685,0.45305574,-1.3611919,-1.2154126,-0.4063202,0.98575836,-2.627163,-3.0231073,1.0316142,1.7211305,-2.0762258,-2.59523,-1.3773022,-0.70665455,-3.2785542,2.4389424,0.2628794,-0.7550659,-2.4906898,0.1384795,0.35621682,2.1943085,-1.1419412,-0.80015844,1.6796918,0.5067817,0.7802865,1.0486252,-0.70292854,-2.8849695,-2.1604168,0.007938031,-0.67140925,-2.4479363,-0.4212575,0.13248609,-1.1744719,-0.479817,0.7119397,-0.5529396,2.3514106,-0.66022533,-0.97348094,1.9851686,1.8314977,-0.050354384,-0.15806894,-0.9381436,-0.8065613,-0.6052004,-1.2487915,0.60501915,-0.35347065,-1.0348924,1.5113716,0.58615595,0.76071656,-0.23641512,-0.6408152,-1.3344959,1.5457532,-1.1611321,1.376319,0.8929158,1.6305715,-0.16596216,-0.43547854,-1.1430217,0.7990467,-1.0056655,0.16880383,-0.113930695,-1.2276484,-1.2788893
Lab_48,-0.77573186,0.75740534,0.24174571,-3.8929424,4.1341376,-1.8680944,1.961475,0.49025723,0.35206103,-0.3165955,-2.4252622,0.3343538,1.4381799,0.36770332,0.6290723,1.7557417,0.8831077,-0.13088866,0.08597892,2.0905366,-2.642971,0.36568543,-1.4126196,1.5974466,-0.014532663,0.23788883,2.2036765,1.7579553,0.002764049,-1.0333214,-0.7246783,-1.1514454,0.86430556,-0.6947536,-0.70657015,0.08017807,-0.2852364,-0.3668499,0.13611361,1.3023214,-0.09864723,-0.4442414,0.8910267,-0.46264347,-1.3401797,2.4090621,-1.7025639,1.2073711,1.3364754,0.3019859,-2.5856133,0.22278738,0.30713356,-0.4184516,0.4751492,-0.4581524,0.9612406,-0.9793965,-1.5191008,-2.9175503,-1.798856,-0.8465863,-1.4379756,1.156429,-0.41652054,0.41452932,1.2407429,-2.6078274,1.5146914,-0.759395,1.165014,-3.571585,-0.7323558,-0.28821036,0.6170872,-0.8292043,-1.2123635,-0.16924383,0.6172555,0.8517617,0.60087556,-0.720641,-1.0904591,0.11759345,-0.5778661,0.6712857,-1.240422,-0.2730176,-0.06348053,-0.18857747,0.45219877,-1.9448822,0.54918,0.69650036,-0.48544642,-2.0549622,0.12735836,-0.44054115,1.5952635,-0.95216435,0.9494035,2.474412,-1.2418023,-0.14222266,2.5871427,1.9124585,1.0439105,0.9237243,0.10821303,3.1337767,0.64207757,2.3965898,-0.9505587,-2.3057823,-0.77710044,2.0664606,-1.2954279,-0.19506223,-0.2267297,0.11447191,0.8390096,1.2176276,3.2934537,-0.56145674,0.33332247,2.041827,-0.6175327,0.72561467,-2.1753008,1.5646193,0.2952359,0.14374383,-3.0207472,-0.5398223,-0.3267548,0.86670476,-0.86636513,-1.4068977,-0.3858974,1.016825,0.84752285,0.72753745,0.84365654,-0.52753294,1.445002,0.5663499,-1.2136506,-0.6060352,-0.8389551,-0.06582807,1.103218,0.11578713,-0.0032039932,-0.42277315,-2.081739,2.64876,0.05638264,-0.7589317,1.1529065,-0.21381937,-0.0045414283,1.4233167,-0.3785832,1.5565747,0.056519043,1.4844918,-0.8045254,2.0149612,-0.43162632,-1.4234028,-1.7136022,0.67099756,0.61765945,-1.8932122,1.4336499,-0.9380754,-1.6006683,-0.008230459,1.4801141,2.924217,0.18303911,-2.213251,0.034168314,1.2005032,2.1363385,0.75077015,-0.75906265,-0.20175181,0.57781523,0.8048587,-1.5835718,-0.94801897,0.3962842,-0.5384601,-2.7014956,-0.71323293,0.99947953,-1.0986774,-1.1605722,-0.75272745
